<?xml version="1.0"?>
<opencv_storage>
<my_svm type_id="opencv-ml-svm">
  <svm_type>C_SVC</svm_type>
  <kernel><type>LINEAR</type></kernel>
  <C>2.6699999999999999e+00</C>
  <term_criteria><epsilon>1.1920928955078125e-07</epsilon>
    <iterations>1000</iterations></term_criteria>
  <var_all>588</var_all>
  <var_count>588</var_count>
  <class_count>16</class_count>
  <class_labels type_id="opencv-matrix">
    <rows>1</rows>
    <cols>16</cols>
    <dt>i</dt>
    <data>
      0 1 2 3 4 5 6 7 8 9 10 11 12 13 14 15</data></class_labels>
  <sv_total>120</sv_total>
  <support_vectors>
    <_>
      0. 0. 4.58045542e-06 4.56879798e-06 0. 0. 0. 0. 0. 0. 0. 0.
      1.84366305e-03 0. 1.14068703e-03 1.13778398e-03 0. 0. 0. 0. 0. 0.
      0. 1.84366305e-03 3.03410869e-02 0. 2.80139577e-02 2.79426649e-02
      0. -1.72777756e-04 -1.72777756e-04 0. -3.76156822e-04
      -3.77115124e-04 0. 3.03410869e-02 1.22694366e-01 0. 3.47275995e-02
      3.46392244e-02 0. -2.87962932e-04 -2.87962932e-04 0.
      3.63849947e-04 3.64779029e-04 0. 1.22694366e-01 1.17155857e-01 0.
      -6.74754265e-04 -6.73035509e-04 0. -4.90941247e-03 -4.90941247e-03
      0. 2.86961254e-02 2.87692398e-02 0. 1.17155857e-01 -1.38162775e-02
      0. -1.36270048e-02 -1.35923233e-02 0. -1.92559361e-02
      -1.92559361e-02 0. 1.62479021e-02 1.62892975e-02 0.
      -1.38162775e-02 -6.06917031e-03 0. -5.81577595e-04 -5.80097490e-04
      0. -6.81164721e-03 -6.81164721e-03 0. -3.82127613e-03
      -3.83101171e-03 0. -6.06917031e-03 3.39987571e-04 0.
      1.95331150e-03 1.94834033e-03 0. 2.22925493e-03 2.22925493e-03 0.
      1.99936239e-05 2.00446375e-05 0. 3.39987571e-04 2.42247656e-02 0.
      1.22422256e-01 1.22110747e-01 0. 2.33694576e-02 2.33694576e-02 0.
      1.00683297e-04 1.00939935e-04 0. 2.42247656e-02 1.68054685e-01 0.
      3.07126284e-01 3.06345075e-01 0. -1.33225238e-02 -1.33225238e-02
      0. -2.62347492e-03 -2.63015833e-03 0. 1.68054685e-01
      3.84372890e-01 0. 1.43231586e-01 1.42867342e-01 0. -2.43867282e-02
      -2.43867282e-02 0. -1.47688854e-02 -1.48064969e-02 0.
      3.84372890e-01 3.54997635e-01 0. 4.39414755e-04 4.38318384e-04 0.
      -6.55755773e-02 -6.55755773e-02 0. 2.08996058e-01 2.09529072e-01
      0. 3.54997635e-01 2.49911435e-02 0. -6.76536709e-02
      -6.74815625e-02 0. -2.33696684e-01 -2.33696684e-01 0.
      2.96146572e-01 2.96901405e-01 0. 2.49911435e-02 -4.40796791e-03 0.
      -1.36134047e-02 -1.35787958e-02 0. -5.38362749e-02 -5.38362749e-02
      0. 2.05793437e-02 2.06317734e-02 0. -4.40796791e-03 6.32939453e-04
      0. 1.65764205e-02 1.65342353e-02 0. 2.90290210e-02 2.90290210e-02
      0. 1.84123195e-03 1.84592989e-03 0. 6.32939453e-04 1.43477051e-02
      0. 1.40859231e-01 1.40500978e-01 0. 1.64545372e-01 1.64545372e-01
      0. 6.95488276e-03 6.97261468e-03 0. 1.43477051e-02 -3.18034962e-02
      0. 8.40637460e-02 8.37260336e-02 0. -6.26386032e-02
      -6.26386032e-02 0. -4.95406240e-02 -4.96668443e-02 0.
      -3.18034962e-02 -6.25385046e-02 0. -6.49525449e-02 -6.47873431e-02
      0. -4.72640321e-02 -4.72640321e-02 0. -1.05591370e-02
      -1.05860382e-02 0. -6.25385046e-02 -7.33705088e-02 0.
      -1.10351898e-01 -1.10071070e-01 0. -9.04782340e-02 -9.04782340e-02
      0. 9.71469656e-02 9.73948389e-02 0. -7.33705088e-02
      -1.39423581e-02 0. -1.13149486e-01 -1.12861589e-01 0.
      -6.81586787e-02 -6.81586787e-02 0. 2.26054147e-01 2.26630762e-01
      0. -1.39423581e-02 0. 0. -1.11177536e-02 -1.10894898e-02 0.
      3.71797159e-02 3.71797159e-02 0. 1.25975832e-02 1.26296794e-02 0.
      0. -2.75035249e-03 0. 8.64697248e-03 8.62496439e-03 0.
      7.17991889e-02 7.17991889e-02 0. -2.63725664e-03 -2.64398614e-03
      0. -2.75035249e-03 1.72808822e-02 0. -4.98734079e-02
      -4.97463048e-02 0. 1.50911704e-01 1.50911704e-01 0. 6.88354969e-02
      6.90108687e-02 0. 1.72808822e-02 -1.40778720e-01 0.
      -1.97584778e-01 -1.97082251e-01 0. -1.99933559e-01 -1.99933559e-01
      0. 1.49953693e-01 1.50335744e-01 0. -1.40778720e-01
      -3.11899573e-01 0. -2.68074721e-01 -2.67392755e-01 0.
      -6.42613620e-02 -6.42613620e-02 0. -2.66923732e-03 -2.67603784e-03
      0. -3.11899573e-01 -4.89219815e-01 0. -1.73699468e-01
      -1.73257589e-01 0. -9.72023159e-02 -9.72023159e-02 0.
      -2.55531687e-02 -2.56183632e-02 0. -4.89219815e-01 -1.06954455e-01
      0. 1.86043903e-01 1.85570538e-01 0. 2.81641036e-02 2.81641036e-02
      0. -1.65606309e-02 -1.66028533e-02 0. -1.06954455e-01 0. 0.
      2.79812161e-02 2.79100854e-02 0. 2.29388457e-02 2.29388457e-02 0.
      -3.99127416e-03 -4.00144281e-03 0. 0. -5.80118969e-03 0.
      -1.27408085e-02 -1.27083855e-02 0. 6.76459372e-02 6.76459372e-02
      0. 1.70930531e-02 1.71366651e-02 0. -5.80118969e-03
      -2.57795844e-02 0. -5.50834313e-02 -5.49430735e-02 0.
      1.27708256e-01 1.27708256e-01 0. 1.93773106e-01 1.94267094e-01 0.
      -2.57795844e-02 -1.78943589e-01 0. -1.99465469e-01 -1.98958069e-01
      0. -7.48983845e-02 -7.48983845e-02 0. 1.34445041e-01
      1.34787589e-01 0. -1.78943589e-01 -2.82147259e-01 0.
      -2.82187849e-01 -2.81958014e-01 0. -2.34087827e-04 -2.34087827e-04
      0. 3.62362387e-03 3.63285583e-03 0. -2.82147259e-01
      -2.39221960e-01 0. 1.66237682e-01 1.65909350e-01 0. 6.08479232e-03
      6.08479232e-03 0. -2.43091751e-02 -2.43711974e-02 0.
      -2.39221960e-01 -9.36647356e-02 0. 4.80051875e-01 4.78830993e-01
      0. -2.29530528e-01 -2.29530528e-01 0. -3.86241861e-02
      -3.87227312e-02 0. -9.36647356e-02 0. 0. 4.59619984e-02
      4.58451584e-02 0. -1.05814822e-01 -1.05814822e-01 0.
      -5.36691106e-04 -5.38058404e-04 0. 0. -4.40155109e-03 0.
      -9.19562206e-03 -9.17221978e-03 0. -5.15670190e-03 -5.15670190e-03
      0. 1.18718194e-02 1.19021116e-02 0. -4.40155109e-03
      -7.63746817e-03 0. -3.71274948e-02 -3.70330438e-02 0.
      4.39553671e-02 4.39553671e-02 0. 2.04523116e-01 2.05044657e-01 0.
      -7.63746817e-03 1.89900383e-01 0. -1.43408924e-01 -1.43044308e-01
      0. -1.45086360e-05 -1.45086360e-05 0. 2.39431128e-01
      2.40041465e-01 0. 1.89900383e-01 3.01493615e-01 0. 4.69401367e-02
      4.68203612e-02 0. 0. 0. 0. 2.34902315e-02 2.35500839e-02 0.
      3.01493615e-01 1.38994277e-01 0. 4.26123261e-01 4.25123572e-01 0.
      -4.41338867e-02 -4.41338867e-02 0. -1.06103010e-02 -1.06373718e-02
      0. 1.38994277e-01 -3.58748734e-02 0. 1.91661477e-01 1.91174194e-01
      0. -2.85340160e-01 -2.85340160e-01 0. -4.76138480e-02
      -4.77352887e-02 0. -3.58748734e-02 -4.86330362e-03 0.
      -5.61890891e-03 -5.60462475e-03 0. -8.19567293e-02 -8.19567293e-02
      0. -7.95234088e-03 -7.97260553e-03 0. -4.86330362e-03
      -2.81205168e-03 0. 0. 0. 0. -9.82291647e-04 -9.82291647e-04 0.
      -2.04663447e-04 -2.05185730e-04 0. -2.81205168e-03 2.81061541e-04
      0. -4.61787824e-03 -4.60613891e-03 0. 1.58125255e-03
      1.58125255e-03 0. 1.19641591e-02 1.19946823e-02 0. 2.81061541e-04
      1.10176265e-01 0. -1.90654732e-02 -1.90170072e-02 0. 0. 0. 0.
      2.55166739e-02 2.55817752e-02 0. 1.10176265e-01 1.75149232e-01 0.
      2.55342033e-02 2.54692920e-02 0. 0. 0. 0. 1.48499117e-03
      1.48877979e-03 0. 1.75149232e-01 6.18175082e-02 0. 4.59989272e-02
      4.58819866e-02 0. -7.51697691e-03 -7.51697691e-03 0.
      -2.26578303e-03 -2.27156421e-03 0. 6.18175082e-02 -3.44591513e-02
      0. -3.57803493e-03 -3.56893917e-03 0. -2.39859615e-02
      -2.39859615e-02 0. -1.55213559e-02 -1.55609557e-02 0.
      -3.44591513e-02 -6.70905644e-03 0. -4.41255234e-03 -4.40133503e-03
      0. -7.30812177e-03 -7.30812177e-03 0. -1.04363088e-03
      -1.04629202e-03 0. -6.70905644e-03</_>
    <_>
      -1.11058444e-05 0. -3.59345839e-04 -3.58431338e-04 0.
      -2.48476805e-04 -2.48476805e-04 0. 0. 0. 0. -1.11058444e-05
      -6.24007266e-03 0. -8.24309792e-03 -8.22211988e-03 0.
      -2.45245243e-03 -2.45245243e-03 0. -2.25867634e-03 -2.26443075e-03
      0. -6.24007266e-03 1.40810711e-02 0. 1.91979408e-02 1.91490818e-02
      0. -6.73591392e-03 -6.73591392e-03 0. -7.28678051e-03
      -7.30534503e-03 0. 1.40810711e-02 1.17608361e-01 0. 3.90006304e-02
      3.89013886e-02 0. -1.90669927e-03 -1.90669927e-03 0.
      6.45580061e-04 6.47228793e-04 0. 1.17608361e-01 1.14708222e-01 0.
      -1.65516767e-03 -1.65095134e-03 0. 5.48067437e-05 5.48067437e-05
      0. 2.69996338e-02 2.70684343e-02 0. 1.14708222e-01 9.63132922e-03
      0. -2.47206576e-02 -2.46577449e-02 0. -3.45573807e-03
      -3.45573807e-03 0. 2.07739808e-02 2.08269116e-02 0. 9.63132922e-03
      -3.65189812e-03 0. -1.17689185e-03 -1.17389672e-03 0.
      -4.89094807e-03 -4.89094807e-03 0. -2.19946099e-03 -2.20506475e-03
      0. -3.65189812e-03 1.09448098e-04 0. -2.09609303e-03
      -2.09075841e-03 0. -7.41470093e-03 -7.41470093e-03 0.
      2.23736090e-04 2.24306947e-04 0. 1.09448098e-04 1.96016300e-02 0.
      1.00373374e-02 1.00117819e-02 0. -5.01657911e-02 -5.01657911e-02
      0. -2.74561369e-03 -2.75260746e-03 0. 1.96016300e-02
      1.79730684e-01 0. 2.18332157e-01 2.17776671e-01 0. -9.05793086e-02
      -9.05793086e-02 0. -3.23668681e-02 -3.24493274e-02 0.
      1.79730684e-01 4.08442527e-01 0. 1.88783512e-01 1.88303456e-01 0.
      -3.35820243e-02 -3.35820243e-02 0. 3.73425707e-03 3.74379847e-03
      0. 4.08442527e-01 2.97336906e-01 0. -1.02776930e-01
      -1.02515347e-01 0. -3.47465500e-02 -3.47465500e-02 0.
      1.93510249e-01 1.94003791e-01 0. 2.97336906e-01 3.06540783e-02 0.
      -1.26458168e-01 -1.26136333e-01 0. -3.40284742e-02 -3.40284742e-02
      0. 2.84175366e-01 2.84899741e-01 0. 3.06540783e-02 -2.81091966e-03
      0. -4.64645773e-03 -4.63464065e-03 0. -3.34525071e-02
      -3.34525071e-02 0. 2.09910646e-02 2.10445449e-02 0.
      -2.81091966e-03 1.42237300e-03 0. -4.53454163e-03 -4.52300021e-03
      0. -1.71447452e-02 -1.71447452e-02 0. 4.67356900e-03
      4.68549319e-03 0. 1.42237300e-03 2.78382320e-02 0. 8.37434456e-02
      8.35302770e-02 0. -2.65764650e-02 -2.65764650e-02 0.
      2.14349292e-02 2.14895830e-02 0. 2.78382320e-02 7.88477436e-02 0.
      6.15127161e-02 6.13563843e-02 0. 3.99335362e-02 3.99335362e-02 0.
      5.25548868e-03 5.26887737e-03 0. 7.88477436e-02 3.76893096e-02 0.
      -1.58383504e-01 -1.58357501e-01 0. -2.64712889e-02 -2.64712889e-02
      0. 0. 0. 0. 3.76893096e-02 -2.92262863e-02 0. -4.90307093e-01
      -4.89436477e-01 0. -7.31607676e-02 -7.31607676e-02 0.
      8.25245529e-02 8.27351138e-02 0. -2.92262863e-02 -5.99764958e-02
      0. -1.19487546e-01 -1.19183667e-01 0. 8.85419324e-02
      8.85419324e-02 0. 2.36816883e-01 2.37420902e-01 0. -5.99764958e-02
      -2.44112872e-03 0. -2.77558398e-02 -2.76852902e-02 0.
      6.23563007e-02 6.23563007e-02 0. 2.52081528e-02 2.52723917e-02 0.
      -2.44112872e-03 4.20334190e-03 0. 1.83992255e-02 1.83524042e-02 0.
      -1.98095180e-02 -1.98095180e-02 0. -3.78834223e-03 -3.79801332e-03
      0. 4.20334190e-03 3.01643703e-02 0. 5.42880520e-02 5.41499816e-02
      0. -2.54572071e-02 -2.54572071e-02 0. 3.31679843e-02
      3.32524292e-02 0. 3.01643703e-02 -8.90578702e-02 0.
      -1.31448358e-01 -1.31358728e-01 0. 5.64804971e-02 5.64804971e-02
      0. 1.24592811e-01 1.24910243e-01 0. -8.90578702e-02
      -1.01901270e-01 0. -5.05282581e-01 -5.04577696e-01 0.
      -6.55012727e-02 -6.55012727e-02 0. 0. 0. 0. -1.01901270e-01
      -7.21367300e-02 0. -4.35043901e-01 -4.34987694e-01 0.
      -2.44403258e-01 -2.44403258e-01 0. -3.90989444e-04 -3.91986890e-04
      0. -7.21367300e-02 -4.11359146e-02 0. 1.49215266e-01
      1.48835465e-01 0. -8.69327858e-02 -8.69327858e-02 0.
      1.06060123e-02 1.06330728e-02 0. -4.11359146e-02 -6.38937781e-05
      0. 3.08561269e-02 3.07776798e-02 0. 7.31548369e-02 7.31548369e-02
      0. 2.81376590e-04 2.82094668e-04 0. -6.38937781e-05
      -1.83652970e-03 0. 1.12026893e-02 1.11741815e-02 0. 3.71591970e-02
      3.71591970e-02 0. 9.89022572e-03 9.91544686e-03 0. -1.83652970e-03
      -4.66433279e-02 0. 8.99979621e-02 8.97691399e-02 0. 4.61516604e-02
      4.61516604e-02 0. 9.96817052e-02 9.99357253e-02 0. -4.66433279e-02
      -9.38067362e-02 0. -1.93395227e-01 -1.92903012e-01 0.
      1.39847547e-02 1.39847547e-02 0. 4.92797643e-02 4.94053215e-02 0.
      -9.38067362e-02 -3.28329112e-03 0. -3.60072047e-01 -3.60206485e-01
      0. -2.30757818e-02 -2.30757818e-02 0. 5.06636861e-04
      5.07927674e-04 0. -3.28329112e-03 4.55030203e-02 0. 2.73518916e-02
      2.78045405e-02 0. -1.57357022e-01 -1.57357022e-01 0.
      -5.80097130e-03 -5.81577234e-03 0. 4.55030203e-02 3.89923807e-03
      0. 4.72944558e-01 4.71741676e-01 0. -3.28200400e-01
      -3.28200400e-01 0. -1.90664735e-02 -1.91150848e-02 0.
      3.89923807e-03 0. 0. 4.21383828e-02 4.20312658e-02 0.
      -3.46719325e-02 -3.46719325e-02 0. -5.63891232e-03 -5.65327844e-03
      0. 0. 1.08656322e-03 0. 0. 0. 0. 1.07706646e-02 1.07706646e-02 0.
      7.15143653e-03 7.16968253e-03 0. 1.08656322e-03 3.30129154e-02 0.
      3.09617352e-03 3.08830291e-03 0. 5.93325533e-02 5.93325533e-02 0.
      1.77237779e-01 1.77689597e-01 0. 3.30129154e-02 2.07823783e-01 0.
      -9.49823931e-02 -9.47408378e-02 0. 6.62824605e-03 6.62824605e-03
      0. 1.80613250e-01 1.81073561e-01 0. 2.07823783e-01 3.35039437e-01
      0. -5.15326560e-02 -5.14021218e-02 0. -8.21588503e-04
      -8.21588503e-04 0. 2.24329252e-02 2.24900786e-02 0. 3.35039437e-01
      2.35355735e-01 0. 4.06302005e-01 4.05707389e-01 0. -5.91487810e-02
      -5.91487810e-02 0. -3.57863517e-03 -3.58776585e-03 0.
      2.35355735e-01 4.81493399e-03 0. 1.75100997e-01 1.74655795e-01 0.
      -2.32709825e-01 -2.32709825e-01 0. -4.34402786e-02 -4.35510203e-02
      0. 4.81493399e-03 -3.78321623e-03 0. -3.59715335e-03
      -3.58800869e-03 0. -4.79902923e-02 -4.79902923e-02 0.
      -1.51545405e-02 -1.51931494e-02 0. -3.78321623e-03 7.69554987e-04
      0. 0. 0. 0. 1.29954959e-03 1.29954959e-03 0. -6.94195565e-04
      -6.95966941e-04 0. 7.69554987e-04 1.48178739e-02 0. 0. 0. 0.
      3.02415085e-03 3.02415085e-03 0. 3.78933409e-03 3.79900192e-03 0.
      1.48178739e-02 9.03237313e-02 0. -2.37324201e-02 -2.36720927e-02
      0. 0. 0. 0. 2.63433848e-02 2.64105722e-02 0. 9.03237313e-02
      1.49338797e-01 0. 1.25862164e-02 1.25542050e-02 0. 0. 0. 0.
      2.89593544e-03 2.90331407e-03 0. 1.49338797e-01 6.50021285e-02 0.
      4.98418175e-02 4.97151017e-02 0. -9.94201005e-03 -9.94201005e-03
      0. -1.93111366e-03 -1.93604094e-03 0. 6.50021285e-02
      -3.24768461e-02 0. -5.47668803e-03 -5.46276290e-03 0.
      -1.99675113e-02 -1.99675113e-02 0. -1.05495155e-02 -1.05764316e-02
      0. -3.24768461e-02 -4.86470573e-03 0. -3.33357626e-03
      -3.32510215e-03 0. -5.42998174e-03 -5.42998174e-03 0. 0. 0. 0.
      -4.86470573e-03</_>
    <_>
      -1.10573322e-03 0. -4.37239651e-04 -4.36126895e-04 0.
      -4.18009615e-04 -4.18009615e-04 0. 0. 0. 0. -1.10573322e-03
      -3.81761556e-03 0. 1.60212733e-03 1.59804989e-03 0.
      -1.20616483e-03 -1.20616483e-03 0. -1.47322298e-03 -1.47697644e-03
      0. -3.81761556e-03 6.99238554e-02 0. 6.03251718e-02 6.01716451e-02
      0. -6.29782968e-04 -6.29782968e-04 0. -2.74080521e-04
      -2.74778839e-04 0. 6.99238554e-02 2.77112216e-01 0. 7.77653828e-02
      7.75674805e-02 0. 0. 0. 0. 1.73736096e-03 1.74179045e-03 0.
      2.77112216e-01 2.96591401e-01 0. -6.10569539e-03 -6.09015394e-03
      0. -1.49388118e-02 -1.49388118e-02 0. 3.60827111e-02
      3.61746512e-02 0. 2.96591401e-01 -1.53222475e-02 0.
      -4.56331708e-02 -4.55170348e-02 0. -3.32760997e-02 -3.32760997e-02
      0. 3.63012478e-02 3.63937356e-02 0. -1.53222475e-02
      -1.06634265e-02 0. -9.73055256e-04 -9.70578927e-04 0.
      -1.21718608e-02 -1.21718608e-02 0. -1.00286026e-02 -1.00541525e-02
      0. -1.06634265e-02 -1.84386189e-03 0. -7.25734839e-03
      -7.23887933e-03 0. -1.70162860e-02 -1.70162860e-02 0. 0. 0. 0.
      -1.84386189e-03 -4.05339114e-02 0. 1.98922232e-01 1.98416054e-01
      0. -2.82890350e-02 -2.82890350e-02 0. -4.45373282e-02
      -4.46507968e-02 0. -4.05339114e-02 3.90774876e-01 0.
      8.47108245e-01 8.44953477e-01 0. -3.86541039e-02 -3.86541039e-02
      0. -3.62817869e-02 -3.63742225e-02 0. 3.90774876e-01
      8.97427201e-01 0. 5.57427585e-01 5.56010187e-01 0. -1.39145860e-02
      -1.39145860e-02 0. 2.62570493e-02 2.63240673e-02 0. 8.97427201e-01
      8.11685383e-01 0. 7.83525128e-03 7.81547930e-03 0. -2.05270723e-01
      -2.05270723e-01 0. 3.59208584e-01 3.60124797e-01 0. 8.11685383e-01
      1.55891934e-02 0. -1.62223577e-01 -1.61810726e-01 0.
      -3.52052867e-01 -3.52052867e-01 0. 5.04871547e-01 5.06158412e-01
      0. 1.55891934e-02 -1.12601630e-02 0. -2.33615958e-03
      -2.33021425e-03 0. -1.27115175e-01 -1.27115175e-01 0.
      3.82058509e-02 3.83031964e-02 0. -1.12601630e-02 -1.05189262e-02
      0. -2.36943923e-02 -2.36340929e-02 0. -9.98684689e-02
      -9.98684689e-02 0. 2.55063130e-03 2.55713915e-03 0.
      -1.05189262e-02 -8.60557258e-02 0. 1.94111943e-01 1.93617821e-01
      0. 8.74686912e-02 8.74686912e-02 0. -1.18129782e-01
      -1.18430719e-01 0. -8.60557258e-02 1.67945728e-01 0.
      5.46631336e-01 5.45241594e-01 0. -6.35744706e-02 -6.35744706e-02
      0. -6.45382702e-02 -6.47026971e-02 0. 1.67945728e-01
      1.25425518e-01 0. 1.30128756e-01 1.29797995e-01 0. -1.57916278e-01
      -1.57916278e-01 0. -1.22448280e-02 -1.22760106e-02 0.
      1.25425518e-01 2.85871048e-02 0. -1.32861119e-02 -1.32522779e-02
      0. -9.76334959e-02 -9.76334959e-02 0. 7.25285709e-02
      7.27136284e-02 0. 2.85871048e-02 -1.86398804e-01 0.
      -2.26934657e-01 -2.26357162e-01 0. -1.63321227e-01 -1.63321227e-01
      0. 2.90516317e-01 2.91257292e-01 0. -1.86398804e-01
      -5.28497575e-03 0. -2.33580377e-02 -2.32986193e-02 0.
      -6.40639365e-02 -6.40639365e-02 0. 4.23564054e-02 4.24643531e-02
      0. -5.28497575e-03 1.50246285e-02 0. 3.51634733e-02 3.50739919e-02
      0. -2.23830223e-01 -2.23830223e-01 0. -5.77621744e-04
      -5.79095387e-04 0. 1.50246285e-02 2.38138647e-03 0.
      -9.23278779e-02 -9.20932293e-02 0. -2.17484325e-01 -2.17484325e-01
      0. 6.20960034e-02 6.22543134e-02 0. 2.38138647e-03 -1.16296321e-01
      0. -1.95900768e-01 -1.95401862e-01 0. -1.40096694e-01
      -1.40096694e-01 0. -1.99828558e-02 -2.00337283e-02 0.
      -1.16296321e-01 -2.89044902e-02 0. -1.30730141e-02 -1.30397445e-02
      0. -2.94998348e-01 -2.94998348e-01 0. -6.03761561e-02
      -6.05299808e-02 0. -2.89044902e-02 0. 0. -2.64316261e-01
      -2.63643622e-01 0. -1.03259385e-01 -1.03259385e-01 0.
      -3.38575715e-04 -3.39436461e-04 0. 0. 0. 0. -3.21259886e-01
      -3.21236849e-01 0. -1.38381287e-01 -1.38381287e-01 0.
      8.29008780e-03 8.31123907e-03 0. 0. 0. 0. -3.30786332e-02
      -3.29945795e-02 0. 1.98647231e-02 1.98647231e-02 0. 7.25117978e-04
      7.26968108e-04 0. 0. -3.12569900e-03 0. 2.23113429e-02
      2.22545601e-02 0. -1.30177736e-01 -1.30177736e-01 0.
      1.00063393e-02 1.00318696e-02 0. -3.12569900e-03 -2.34285876e-01
      0. -2.88927066e-03 -2.88174418e-03 0. 1.19104097e-02
      1.19104097e-02 0. 2.27430820e-01 2.28010416e-01 0. -2.34285876e-01
      -4.27050181e-02 0. -8.91094506e-02 -8.88824686e-02 0.
      -5.10216534e-01 -5.10216534e-01 0. -2.80575782e-01 -2.81290978e-01
      0. -4.27050181e-02 -7.31246769e-02 0. -1.72898188e-01
      -1.72458187e-01 0. -3.57171148e-01 -3.57171148e-01 0.
      -4.30455416e-01 -4.31528777e-01 0. -7.31246769e-02 -7.40539953e-02
      0. -2.08073273e-01 -2.08337963e-01 0. -2.06613287e-01
      -2.06613287e-01 0. -4.01109420e-02 -4.02131304e-02 0.
      -7.40539953e-02 -3.47600755e-04 0. 8.86012167e-02 8.83756652e-02
      0. -1.38464756e-02 -1.38464756e-02 0. -9.67546657e-05
      -9.70011606e-05 0. -3.47600755e-04 0. 0. 3.46430019e-02
      3.45549323e-02 0. 1.43451151e-02 1.43451151e-02 0. 0. 0. 0. 0.
      -2.38557011e-02 0. 0. 0. 0. -1.26748364e-02 -1.26748364e-02 0.
      9.24378820e-03 9.26737208e-03 0. -2.38557011e-02 -1.57756865e-01
      0. -7.20552504e-02 -7.18720704e-02 0. 3.86562720e-02
      3.86562720e-02 0. 2.95392424e-01 2.96145529e-01 0. -1.57756865e-01
      3.72507274e-01 0. -9.43407342e-02 -9.41008925e-02 0.
      -1.89058065e-01 -1.89058065e-01 0. -7.87415653e-02 -7.97982812e-02
      0. 3.72507274e-01 2.90841788e-01 0. -4.16393951e-02
      -4.15333994e-02 0. -6.08086586e-02 -6.08086586e-02 0.
      -3.98520023e-01 -3.99536043e-01 0. 2.90841788e-01 4.67430055e-02
      0. 1.29700035e-01 1.30822077e-01 0. -8.11235607e-02
      -8.11235607e-02 0. -4.45043221e-02 -4.46177237e-02 0.
      4.67430055e-02 3.28767463e-03 0. 8.77886042e-02 8.75652060e-02 0.
      -3.22855711e-02 -3.22855711e-02 0. -2.77858780e-04 -2.78566673e-04
      0. 3.28767463e-03 0. 0. -2.35491781e-03 -2.34893057e-03 0.
      -4.84641962e-04 -4.84641962e-04 0. 0. 0. 0. 0. -2.49759905e-04 0.
      0. 0. 0. 4.84275079e-04 4.84275079e-04 0. -6.10086408e-06
      -6.11641008e-06 0. -2.49759905e-04 2.30191462e-02 0.
      -3.49948346e-03 -3.49058746e-03 0. -2.00122176e-03 -2.00122176e-03
      0. 2.52685621e-02 2.53330246e-02 0. 2.30191462e-02 1.20468751e-01
      0. -3.61731905e-03 -3.60812363e-03 0. -7.32429419e-03
      -7.32429419e-03 0. -1.09431250e-02 -1.09710526e-02 0.
      1.20468751e-01 4.74843346e-02 0. 1.27937486e-02 1.27612157e-02 0.
      0. 0. 0. -4.88250181e-02 -4.89495918e-02 0. 4.74843346e-02
      -1.05865691e-02 0. -1.51646398e-02 -1.51260896e-02 0.
      -3.78780439e-03 -3.78780439e-03 0. -1.89328846e-03 -1.89811899e-03
      0. -1.05865691e-02 7.29808351e-04 0. -2.57531041e-03
      -2.56876228e-03 0. -7.49845814e-04 -7.49845814e-04 0. 0. 0. 0.
      7.29808351e-04 0. 0. -1.15244302e-05 -1.14951335e-05 0.
      -2.05275228e-05 -2.05275228e-05 0. 0. 0. 0. 0.</_>
    <_>
      -1.22300640e-03 0. -1.05710153e-03 -1.05441117e-03 0.
      -2.14431272e-03 -2.14431272e-03 0. 0. 0. 0. -1.22300640e-03
      -4.01055440e-02 0. -1.31617757e-02 -1.31282778e-02 0.
      -4.58252430e-03 -4.58252430e-03 0. -3.38456547e-03 -3.39318812e-03
      0. -4.01055440e-02 -5.42664304e-02 0. 1.33314077e-02
      1.32974815e-02 0. -4.78031300e-03 -4.78031300e-03 0.
      -1.94611456e-02 -1.95107274e-02 0. -5.42664304e-02 9.42336395e-02
      0. 2.80021075e-02 2.79308427e-02 0. -2.01107971e-02
      -2.01107971e-02 0. -1.45617481e-02 -1.45988464e-02 0.
      9.42336395e-02 1.32468089e-01 0. -9.87810083e-04 -9.85296094e-04
      0. -7.61226751e-03 -7.61226751e-03 0. 2.75068972e-02
      2.75769755e-02 0. 1.32468089e-01 2.08685137e-02 0. 0. 0. 0. 0. 0.
      0. 2.77227536e-02 2.77933832e-02 0. 2.08685137e-02 0. 0. 0. 0. 0.
      0. 0. 0. 3.24246124e-04 3.25072237e-04 0. 0. -5.83951222e-03 0.
      -7.14406185e-03 -7.12587964e-03 0. -2.84969639e-02 -2.84969639e-02
      0. -9.68129840e-03 -9.70599893e-03 0. -5.83951222e-03
      -1.38417527e-01 0. 2.43954789e-02 2.43333001e-02 0.
      -5.09422980e-02 -5.09422980e-02 0. -7.36713558e-02 -7.38592520e-02
      0. -1.38417527e-01 -9.62798744e-02 0. 2.77769625e-01
      2.77062923e-01 0. -1.67401925e-01 -1.67401925e-01 0.
      -7.54134059e-02 -7.56056458e-02 0. -9.62798744e-02 4.33769166e-01
      0. 1.33785531e-01 1.33445278e-01 0. -2.56956249e-01
      -2.56956249e-01 0. -4.28977273e-02 -4.30070646e-02 0.
      4.33769166e-01 4.30994421e-01 0. -2.10564323e-02 -2.10029036e-02
      0. -5.73951416e-02 -5.73951416e-02 0. 2.31059507e-01
      2.31648788e-01 0. 4.30994421e-01 4.54011373e-02 0. -2.84958282e-03
      -2.84233107e-03 0. 5.34035340e-02 5.34035340e-02 0. 3.52064818e-01
      3.52962196e-01 0. 4.54011373e-02 -1.25391863e-03 0.
      -1.87994840e-04 -1.87516402e-04 0. 2.17270013e-02 2.17270013e-02
      0. 2.84399372e-02 2.85123959e-02 0. -1.25391863e-03
      -8.23713653e-03 0. 8.58899765e-03 8.56713951e-03 0. 1.93288159e-02
      1.93288159e-02 0. -1.25264749e-02 -1.25584351e-02 0.
      -8.23713653e-03 -1.44292429e-01 0. 1.64296165e-01 1.63878083e-01
      0. 2.47056514e-01 2.47056514e-01 0. -5.50319403e-02
      -5.51723763e-02 0. -1.44292429e-01 -7.50471503e-02 0.
      5.95429242e-02 5.93918860e-02 0. -3.46778631e-01 -3.46778631e-01
      0. -2.28263382e-02 -2.28846185e-02 0. -7.50471503e-02
      9.94885638e-02 0. -1.73247159e-01 -1.72806546e-01 0.
      -3.70059520e-01 -3.70059520e-01 0. -2.18626503e-02 -2.19184346e-02
      0. 9.94885638e-02 6.22927956e-02 0. -7.06725866e-02
      -7.04928115e-02 0. -1.96366534e-02 -1.96366534e-02 0.
      1.48922533e-01 1.49302512e-01 0. 6.22927956e-02 -9.68954619e-03 0.
      -6.08611777e-02 -6.07063212e-02 0. 4.02974188e-01 4.02974188e-01
      0. 3.40681076e-01 3.41550022e-01 0. -9.68954619e-03
      -3.26046022e-03 0. -6.80861622e-03 -6.79130433e-03 0.
      1.53938621e-01 1.53938621e-01 0. 3.36453654e-02 3.37310918e-02 0.
      -3.26046022e-03 5.65381581e-03 0. 2.36612968e-02 2.36010831e-02 0.
      7.19132796e-02 7.19132796e-02 0. 2.16412055e-03 2.16963631e-03 0.
      5.65381581e-03 5.19056357e-02 0. 5.11310659e-02 5.10010608e-02 0.
      2.87376195e-01 2.87376195e-01 0. 1.23417944e-01 1.23732463e-01 0.
      5.19056357e-02 4.36769314e-02 0. -2.26492256e-01 -2.25916088e-01
      0. -3.00757885e-01 -3.00757885e-01 0. 2.58940339e-01
      2.59600043e-01 0. 4.36769314e-02 -7.89592043e-03 0.
      -2.02947870e-01 -2.02431664e-01 0. -3.18800777e-01 -3.18800777e-01
      0. 0. 0. 0. -7.89592043e-03 -6.74633831e-02 0. -9.02095810e-02
      -9.02913436e-02 0. 8.87682196e-03 8.87682196e-03 0. 4.31271782e-03
      4.32372140e-03 0. -6.74633831e-02 -1.44394845e-01 0.
      1.67616099e-01 1.67189524e-01 0. 4.95625079e-01 4.95625079e-01 0.
      8.61608703e-03 8.63815472e-03 0. -1.44394845e-01 -2.09158491e-02
      0. 2.84772869e-02 2.84049045e-02 0. 1.69287890e-01 1.69287890e-01
      0. -1.32192755e-02 -1.32529540e-02 0. -2.09158491e-02
      -5.51976636e-03 0. 1.87334418e-02 1.86857656e-02 0. 1.32126257e-01
      1.32126257e-01 0. 6.90345280e-03 6.92106225e-03 0. -5.51976636e-03
      -2.56716809e-03 0. 1.59710124e-01 1.59304067e-01 0. 2.28794560e-01
      2.28794560e-01 0. 1.19576156e-01 1.19880907e-01 0. -2.56716809e-03
      -9.02511403e-02 0. -1.55947328e-01 -1.55550495e-01 0.
      -2.18545541e-01 -2.18545541e-01 0. 6.39250949e-02 6.40878826e-02
      0. -9.02511403e-02 -3.03650856e-01 0. -2.76985258e-01
      -2.76591778e-01 0. -2.04302534e-01 -2.04302534e-01 0.
      -2.31665596e-02 -2.32256763e-02 0. -3.03650856e-01 -3.82912129e-01
      0. -7.57792368e-05 5.31428552e-04 0. 3.40073071e-02 3.40073071e-02
      0. 0. 0. 0. -3.82912129e-01 -3.30347270e-01 0. 2.90480435e-01
      2.89741904e-01 0. 1.39072403e-01 1.39072403e-01 0. -4.11069244e-02
      -4.12116945e-02 0. -3.30347270e-01 -2.99507584e-02 0.
      2.03695856e-02 2.03178097e-02 0. -3.01296003e-02 -3.01296003e-02
      0. -1.98364556e-02 -1.98869985e-02 0. -2.99507584e-02
      -2.05307417e-02 0. -1.56176938e-02 -1.55779468e-02 0.
      -2.71265069e-03 -2.71265069e-03 0. 2.07906626e-02 2.08437257e-02
      0. -2.05307417e-02 -1.93486720e-01 0. -6.15756810e-02
      -6.14189841e-02 0. 7.64345229e-02 7.64345229e-02 0. 1.89007178e-01
      1.89489156e-01 0. -1.93486720e-01 2.35394035e-02 0.
      -2.39423439e-01 -2.38814428e-01 0. 1.21251575e-03 1.21251575e-03
      0. 1.00409597e-01 1.00563966e-01 0. 2.35394035e-02 4.93492894e-02
      0. -2.84374896e-02 -2.83655971e-02 0. -2.30418090e-02
      -2.30418090e-02 0. 7.20981834e-03 7.22818077e-03 0. 4.93492894e-02
      -8.69534090e-02 0. 2.89189935e-01 2.89121538e-01 0. 1.41828763e-03
      1.41828763e-03 0. 0. 0. 0. -8.69534090e-02 -9.66570005e-02 0.
      1.13475606e-01 1.13187090e-01 0. -7.18425121e-03 -7.18425121e-03
      0. -1.76009983e-02 -1.76459067e-02 0. -9.66570005e-02
      -1.19819101e-02 0. -6.37181336e-04 -6.35561300e-04 0.
      -1.63304303e-02 -1.63304303e-02 0. -2.51442823e-03 -2.52084387e-03
      0. -1.19819101e-02 -7.68200913e-03 0. -2.62360787e-04
      -2.61693087e-04 0. -5.99931832e-03 -5.99931832e-03 0.
      -2.74060201e-03 -2.74759508e-03 0. -7.68200913e-03 -4.33599018e-02
      0. -5.56154177e-03 -5.54740243e-03 0. -8.09918449e-04
      -8.09918449e-04 0. 1.61784906e-02 1.62197687e-02 0.
      -4.33599018e-02 6.38508573e-02 0. -3.66376266e-02 -3.65444869e-02
      0. 0. 0. 0. 7.94700533e-03 7.96728116e-03 0. 6.38508573e-02
      1.05037674e-01 0. 8.85908306e-03 8.83656368e-03 0. 0. 0. 0.
      1.00296421e-03 1.00552326e-03 0. 1.05037674e-01 3.10295168e-02 0.
      3.03431563e-02 3.02660204e-02 0. 0. 0. 0. 0. 0. 0. 3.10295168e-02
      -1.12070920e-04 0. 1.69818662e-03 1.69386959e-03 0. 0. 0. 0. 0. 0.
      0. -1.12070920e-04 -1.57614631e-05 0. 0. 0. 0. 0. 0. 0. 0. 0. 0.
      -1.57614631e-05</_>
    <_>
      -7.16265058e-05 0. -9.46368600e-05 -9.43960113e-05 0.
      -2.60822475e-04 -2.60822475e-04 0. 0. 0. 0. -7.16265058e-05
      -9.15629044e-03 0. -1.79705047e-03 -1.79247698e-03 0.
      -2.66118487e-03 -2.66118487e-03 0. -3.45327589e-03 -3.46207526e-03
      0. -9.15629044e-03 3.13215069e-02 0. 4.11951020e-02 4.10902612e-02
      0. -1.99515256e-03 -1.99515256e-03 0. -6.37559127e-03
      -6.39183493e-03 0. 3.13215069e-02 1.64039671e-01 0. 4.68587242e-02
      4.67394814e-02 0. -3.56437493e-04 -3.56437493e-04 0.
      5.17098641e-04 5.18419431e-04 0. 1.64039671e-01 1.67179033e-01 0.
      -1.31592741e-02 -1.31257800e-02 0. -8.90440866e-03 -8.90440866e-03
      0. 2.99769361e-02 3.00533157e-02 0. 1.67179033e-01 -1.53570026e-02
      0. -1.95432417e-02 -1.94935054e-02 0. -8.12507421e-03
      -8.12507421e-03 0. 1.37276938e-02 1.37626650e-02 0.
      -1.53570026e-02 -2.50084070e-03 0. 0. 0. 0. -2.58445088e-03
      -2.58445088e-03 0. -7.42613431e-03 -7.44505459e-03 0.
      -2.50084070e-03 -1.53150584e-03 0. 5.01780363e-04 5.00503811e-04
      0. -1.16518056e-02 -1.16518056e-02 0. -9.43834078e-04
      -9.46240441e-04 0. -1.53150584e-03 -4.14046459e-02 0.
      1.27342254e-01 1.27018258e-01 0. -9.61231664e-02 -9.61231664e-02
      0. -6.39902949e-02 -6.41533434e-02 0. -4.14046459e-02
      -1.28827561e-02 0. 5.04667878e-01 5.03384173e-01 0.
      -4.83566970e-02 -4.83566970e-02 0. -1.29449606e-01 -1.29779503e-01
      0. -1.28827561e-02 3.86308581e-01 0. 2.23310247e-01 2.22742364e-01
      0. -8.22591782e-02 -8.22591782e-02 0. -5.26283830e-02
      -5.27624898e-02 0. 3.86308581e-01 4.33841497e-01 0.
      -4.45316881e-02 -4.44183722e-02 0. -1.27135172e-01 -1.27135172e-01
      0. 2.18741223e-01 2.19299138e-01 0. 4.33841497e-01 -5.60986996e-02
      0. -7.03488514e-02 -7.01698214e-02 0. -6.83584213e-02
      -6.83584213e-02 0. 2.52140373e-01 2.52782911e-01 0.
      -5.60986996e-02 -3.02966428e-03 0. -3.78938974e-03 -3.77974845e-03
      0. -4.69262153e-02 -4.69262153e-02 0. 6.48227241e-03
      6.49876706e-03 0. -3.02966428e-03 1.55514176e-03 0. 1.29287485e-02
      1.28958449e-02 0. -7.36657158e-03 -7.36657158e-03 0.
      -4.19328595e-03 -4.20398125e-03 0. 1.55514176e-03 -1.23594567e-01
      0. 2.07529709e-01 2.07001671e-01 0. -8.31148773e-03
      -8.31148773e-03 0. -3.34689356e-02 -3.35542560e-02 0.
      -1.23594567e-01 -3.05959255e-01 0. 2.66297460e-01 2.65620440e-01
      0. -1.88970223e-01 -1.88970223e-01 0. -2.04600915e-01
      -2.05122516e-01 0. -3.05959255e-01 -2.56744828e-02 0.
      -8.40689912e-02 -8.38552564e-02 0. -4.59429443e-01 -4.59429443e-01
      0. -2.38902032e-01 -2.39124432e-01 0. -2.56744828e-02
      -1.24098361e-01 0. -1.11944310e-01 -1.11659534e-01 0.
      -1.09945245e-01 -1.09945245e-01 0. 3.64312977e-02 3.65244746e-02
      0. -1.24098361e-01 -7.80592635e-02 0. -3.63367647e-01
      -3.62531275e-01 0. 1.57934844e-01 1.57934844e-01 0. 2.57633656e-01
      2.58290738e-01 0. -7.80592635e-02 -3.18918756e-04 0.
      -5.25371991e-02 -5.24036139e-02 0. 4.83169742e-02 4.83169742e-02
      0. 2.75026951e-02 2.75727659e-02 0. -3.18918756e-04 5.92885120e-03
      0. 2.18109530e-03 2.17554439e-03 0. -1.47019913e-02
      -1.47019913e-02 0. 9.26653296e-03 9.29017551e-03 0. 5.92885120e-03
      5.76492287e-02 0. 7.47792646e-02 7.45889023e-02 0. -9.34142768e-02
      -9.34142768e-02 0. 1.04942314e-01 1.05209731e-01 0. 5.76492287e-02
      2.89859362e-02 0. 2.73557287e-02 2.72861049e-02 0. -3.18754762e-01
      -3.18754762e-01 0. 5.99704310e-02 6.01424612e-02 0. 2.89859362e-02
      -6.35534152e-02 0. -8.70753154e-02 -8.68539065e-02 0.
      -3.55323195e-01 -3.55323195e-01 0. -2.77453184e-01 -2.78141081e-01
      0. -6.35534152e-02 -1.95199549e-01 0. -2.87654638e-01
      -2.86922723e-01 0. -9.16761905e-02 -9.16761905e-02 0.
      -7.94798657e-02 -7.96822980e-02 0. -1.95199549e-01 -7.77033567e-02
      0. -2.09699109e-01 -2.09166110e-01 0. 2.58082449e-01
      2.58082449e-01 0. 6.44061016e-03 6.45704474e-03 0. -7.77033567e-02
      -6.40449507e-05 0. -4.78890724e-03 -4.77672974e-03 0.
      1.61564052e-01 1.61564052e-01 0. -1.64412649e-03 -1.64832140e-03
      0. -6.40449507e-05 4.28023655e-03 0. -1.32271852e-02
      -1.31935403e-02 0. -3.80432047e-02 -3.80432047e-02 0.
      9.36736073e-03 9.39126220e-03 0. 4.28023655e-03 7.65288100e-02 0.
      6.03980422e-02 6.02444597e-02 0. -1.24656826e-01 -1.24656826e-01
      0. 1.48386806e-01 1.48765057e-01 0. 7.65288100e-02 1.12514742e-01
      0. 1.25605837e-01 1.25286490e-01 0. -2.58935422e-01
      -2.58935422e-01 0. -1.30441546e-01 -1.30774528e-01 0.
      1.12514742e-01 -6.22455403e-02 0. -1.35975108e-01 -1.35629058e-01
      0. -3.68092984e-01 -3.68092984e-01 0. -4.01411384e-01
      -4.02370393e-01 0. -6.22455403e-02 -2.51236856e-02 0.
      1.28386291e-02 1.23535693e-02 0. -1.83829032e-02 -1.83829032e-02
      0. -9.08270180e-02 -9.10585001e-02 0. -2.51236856e-02
      -8.58571008e-03 0. 3.60350281e-01 3.59433681e-01 0. 2.00359747e-01
      2.00359747e-01 0. -2.26955255e-03 -2.27533467e-03 0.
      -8.58571008e-03 -3.88241097e-05 0. 5.46699613e-02 5.45309857e-02
      0. 4.16175723e-02 4.16175723e-02 0. 0. 0. 0. -3.88241097e-05
      -6.74732961e-03 0. -6.37767510e-03 -6.36145985e-03 0.
      -6.04265928e-02 -6.04265928e-02 0. 2.31401753e-02 2.31992193e-02
      0. -6.74732961e-03 7.71578327e-02 0. -3.64737920e-02
      -3.63810696e-02 0. -1.26557276e-01 -1.26557276e-01 0.
      2.52416879e-01 2.53060460e-01 0. 7.71578327e-02 4.29203182e-01 0.
      2.12524142e-02 2.11983323e-02 0. -4.58572023e-02 -4.58572023e-02
      0. 1.92575872e-01 1.92634180e-01 0. 4.29203182e-01 3.45402569e-01
      0. 1.99772209e-01 1.99263796e-01 0. -7.13471919e-02
      -7.13471919e-02 0. -1.74322724e-01 -1.74767539e-01 0.
      3.45402569e-01 1.93124279e-01 0. 3.82715642e-01 3.82159978e-01 0.
      8.76387954e-03 8.76387954e-03 0. -5.11209071e-02 -5.12513146e-02
      0. 1.93124279e-01 5.13689918e-03 0. 2.37154663e-01 2.36551613e-01
      0. 4.58805375e-02 4.58805375e-02 0. -1.23920245e-03
      -1.24236138e-03 0. 5.13689918e-03 0. 0. -1.94503154e-05
      -1.94005243e-05 0. -3.56396195e-04 -3.56396195e-04 0. 0. 0. 0. 0.
      -7.78885931e-03 0. -1.02822063e-03 -1.02560676e-03 0.
      -7.90004432e-03 -7.90004432e-03 0. -7.59685121e-04 -7.61623203e-04
      0. -7.78885931e-03 3.50529924e-02 0. -7.19754491e-03
      -7.17924768e-03 0. -2.10546423e-02 -2.10546423e-02 0.
      2.27352176e-02 2.27932222e-02 0. 3.50529924e-02 1.85219124e-01 0.
      0. 0. 0. -1.30986667e-03 -1.30986667e-03 0. 2.95809861e-02
      2.96564437e-02 0. 1.85219124e-01 2.19569936e-01 0. 3.41264978e-02
      3.40397283e-02 0. 0. 0. 0. -3.47148580e-03 -3.48034361e-03 0.
      2.19569936e-01 8.47192779e-02 0. 5.98497130e-02 5.96975647e-02 0.
      0. 0. 0. -6.84067886e-03 -6.85813231e-03 0. 8.47192779e-02
      4.75082459e-04 0. 6.51057484e-03 6.49402477e-03 0. 0. 0. 0.
      -3.03390989e-04 -3.04165063e-04 0. 4.75082459e-04 0. 0.
      -7.38938979e-05 -7.37060545e-05 0. 0. 0. 0. 0. 0. 0. 0.</_>
    <_>
      0. 0. 0. 0. 0. 0. 0. 0. 0. 0. 0. 0. 1.10936293e-03 0.
      6.65256986e-04 6.63563900e-04 0. 0. 0. 0. 0. 0. 0. 1.10936293e-03
      1.94586795e-02 0. 2.28942446e-02 2.28359811e-02 0. 0. 0. 0. 0. 0.
      0. 1.94586795e-02 6.52906746e-02 0. 4.75483434e-03 4.74275881e-03
      0. 0. 0. 0. 2.98230152e-04 2.98991014e-04 0. 6.52906746e-02
      -2.71156188e-02 0. -1.60851292e-02 -1.60441827e-02 0. 0. 0. 0.
      3.58567573e-02 3.59481387e-02 0. -2.71156188e-02 -2.70223897e-02
      0. -8.35415776e-05 -8.33289669e-05 0. -5.54530881e-04
      -5.54530881e-04 0. -7.77520519e-03 -7.79500091e-03 0.
      -2.70223897e-02 -2.32577935e-04 0. 0. 0. 0. -3.65138374e-04
      -3.65138374e-04 0. -2.26662634e-03 -2.27240124e-03 0.
      -2.32577935e-04 2.02846742e-04 0. 1.07833173e-03 1.07558747e-03 0.
      1.51028321e-03 1.51028321e-03 0. 0. 0. 0. 2.02846742e-04
      1.30669661e-02 0. 1.00696370e-01 1.00440152e-01 0. 1.38781024e-02
      1.38781024e-02 0. 0. 0. 0. 1.30669661e-02 7.89591745e-02 0.
      2.42281884e-01 2.41665840e-01 0. 8.57062638e-04 8.57062638e-04 0.
      0. 0. 0. 7.89591745e-02 8.29484537e-02 0. -1.18293442e-01
      -1.17992140e-01 0. -4.54048968e-05 -4.54048968e-05 0.
      2.08761124e-03 2.09293724e-03 0. 8.29484537e-02 -6.09474778e-02 0.
      -1.81481004e-01 -1.81019545e-01 0. 1.23152451e-03 1.23152451e-03
      0. 1.66678295e-01 1.67103335e-01 0. -6.09474778e-02
      -7.91019648e-02 0. -3.03063192e-04 -3.02292348e-04 0.
      -6.68637780e-03 -6.68637780e-03 0. 1.33203402e-01 1.33542791e-01
      0. -7.91019648e-02 -3.35757941e-04 0. 0. 0. 0. -2.46322677e-02
      -2.46322677e-02 0. -7.44324876e-03 -7.46222259e-03 0.
      -3.35757941e-04 8.39585671e-04 0. -4.54962719e-03 -4.53804992e-03
      0. 2.50659436e-02 2.50659436e-02 0. -1.41881895e-03
      -1.42243900e-03 0. 8.39585671e-04 2.50565894e-02 0. 9.97831151e-02
      9.95294452e-02 0. 1.91954896e-01 1.91954896e-01 0. 7.94479251e-03
      7.96502549e-03 0. 2.50565894e-02 -9.48019475e-02 0.
      -2.05384597e-01 -2.05210328e-01 0. -1.58646740e-02 -1.58646740e-02
      0. 1.61145255e-02 1.61555801e-02 0. -9.48019475e-02
      -1.31177232e-01 0. -4.38898414e-01 -4.38114017e-01 0.
      -2.42815465e-02 -2.42815465e-02 0. 0. 0. 0. -1.31177232e-01
      -1.51427627e-01 0. -1.28060296e-01 -1.27734661e-01 0.
      1.00827394e-02 1.00827394e-02 0. 5.35625741e-02 5.36992587e-02 0.
      -1.51427627e-01 -8.29882249e-02 0. -5.81635050e-02 -5.80154844e-02
      0. 2.13316232e-01 2.13316232e-01 0. 4.50941585e-02 4.52089868e-02
      0. -8.29882249e-02 -4.32448491e-04 0. -6.93377340e-03
      -6.91612810e-03 0. 2.66715381e-02 2.66715381e-02 0. 7.31735770e-03
      7.33595341e-03 0. -4.32448491e-04 -1.42625794e-02 0.
      6.14885800e-03 6.13319036e-03 0. 8.08728412e-02 8.08728412e-02 0.
      -8.24574940e-03 -8.26679915e-03 0. -1.42625794e-02 8.98723975e-02
      0. -2.55674511e-01 -2.55024374e-01 0. 3.10942143e-01
      3.10942143e-01 0. 1.14947930e-01 1.15240730e-01 0. 8.98723975e-02
      6.08991757e-02 0. -9.35151428e-02 -9.36089903e-02 0.
      1.58575371e-01 1.58575371e-01 0. 2.34814927e-01 2.35413179e-01 0.
      6.08991757e-02 -1.14883343e-02 0. -2.61066794e-01 -2.60402620e-01
      0. -5.32386787e-02 -5.32386787e-02 0. -2.38368681e-04
      -2.38975961e-04 0. -1.14883343e-02 -2.95711070e-01 0.
      -7.41735041e-01 -7.41225004e-01 0. -1.59638479e-01 -1.59638479e-01
      0. -7.92818218e-02 -7.94837996e-02 0. -2.95711070e-01
      -2.51410812e-01 0. 2.89833453e-02 2.89096273e-02 0. 6.71784431e-02
      6.71784431e-02 0. -8.66966993e-02 -8.69175866e-02 0.
      -2.51410812e-01 -1.31068483e-03 0. 8.42356530e-04 8.40257213e-04
      0. 8.60964879e-03 8.60964879e-03 0. -2.39790673e-03
      -2.40402482e-03 0. -1.31068483e-03 -1.27423145e-02 0.
      -9.65245813e-03 -9.62790754e-03 0. 5.53309247e-02 5.53309247e-02
      0. 6.06589392e-02 6.08136766e-02 0. -1.27423145e-02 4.72861268e-02
      0. -4.71608937e-02 -4.70409691e-02 0. 2.24163562e-01
      2.24163562e-01 0. 4.09433186e-01 4.10477161e-01 0. 4.72861268e-02
      1.06824070e-01 0. 7.87326843e-02 7.85325095e-02 0. 1.27314448e-01
      1.27314448e-01 0. 2.47362599e-01 2.47992858e-01 0. 1.06824070e-01
      5.35231493e-02 0. -3.81589919e-01 -3.80816847e-01 0.
      -5.02208889e-01 -5.02208889e-01 0. 1.13005308e-03 1.13292597e-03
      0. 5.35231493e-02 -1.78173870e-01 0. -2.02523515e-01
      -2.02968627e-01 0. -6.60456002e-01 -6.60456002e-01 0.
      -2.89477259e-02 -2.90214904e-02 0. -1.78173870e-01 -1.44860730e-01
      0. 4.18783009e-01 4.17717725e-01 0. -2.51464278e-01
      -2.51464278e-01 0. -9.33268666e-03 -9.35646426e-03 0.
      -1.44860730e-01 0. 0. -3.71341337e-03 -3.70397605e-03 0.
      -3.14923748e-02 -3.14923748e-02 0. 0. 0. 0. 0. -7.77743058e-03 0.
      -4.78374446e-03 -4.77158139e-03 0. 2.72942800e-02 2.72942800e-02
      0. 2.22342536e-02 2.22909842e-02 0. -7.77743058e-03 9.60428640e-02
      0. -3.57121192e-02 -3.56213301e-02 0. 1.06886290e-01
      1.06886290e-01 0. 4.13649142e-01 4.14703935e-01 0. 9.60428640e-02
      5.11789918e-01 0. 1.85149144e-02 1.84677914e-02 0. -5.17761987e-03
      -5.17761987e-03 0. 5.78514516e-01 5.79989254e-01 0. 5.11789918e-01
      6.76145196e-01 0. 2.22815171e-01 2.22248167e-01 0. -4.90106910e-01
      -4.90106910e-01 0. -3.04026175e-02 -3.04802805e-02 0.
      6.76145196e-01 8.49801209e-03 0. 2.77921259e-01 2.77940929e-01 0.
      -2.78599799e-01 -2.78599799e-01 0. -9.36261490e-02 -9.38648507e-02
      0. 8.49801209e-03 2.40875576e-02 0. -2.65635718e-02
      -2.64960527e-02 0. -1.04342915e-01 -1.04342915e-01 0.
      -3.56108788e-03 -3.57017363e-03 0. 2.40875576e-02 0. 0.
      -3.63411824e-03 -3.62487952e-03 0. -1.02839302e-02 -1.02839302e-02
      0. 0. 0. 0. 0. 6.16915000e-04 0. -5.22455812e-05 -5.21127695e-05
      0. 1.36042875e-03 1.36042875e-03 0. 1.48860877e-03 1.49240682e-03
      0. 6.16915000e-04 4.57724407e-02 0. -5.38183667e-04
      -5.36815554e-04 0. 3.17891687e-03 3.17891687e-03 0. 2.58046836e-02
      2.58705206e-02 0. 4.57724407e-02 2.11825415e-01 0. -2.46377967e-05
      -2.45751653e-05 0. -9.69587010e-04 -9.69587010e-04 0.
      7.04535469e-02 7.06332773e-02 0. 2.11825415e-01 2.41374657e-01 0.
      4.32581715e-02 4.31481823e-02 0. -4.32613231e-02 -4.32613231e-02
      0. -2.60753278e-02 -2.61418708e-02 0. 2.41374657e-01
      -7.48926029e-02 0. 3.37434746e-02 3.36576663e-02 0.
      -1.76634714e-02 -1.76634714e-02 0. -2.48303339e-02 -2.48936862e-02
      0. -7.48926029e-02 -1.26323486e-02 0. -3.43932025e-02
      -3.43057737e-02 0. -2.61564669e-03 -2.61564669e-03 0.
      -2.13665282e-03 -2.14210409e-03 0. -1.26323486e-02 0. 0.
      -1.27644293e-04 -1.27319814e-04 0. -2.27362310e-04 -2.27362310e-04
      0. 0. 0. 0. 0.</_>
    <_>
      -5.37618580e-05 0. 0. 0. 0. -9.66831227e-04 -9.66831227e-04 0. 0.
      0. 0. -5.37618580e-05 -1.32097444e-02 0. -7.75798224e-03
      -7.73823867e-03 0. -1.61905997e-02 -1.61905997e-02 0.
      -7.22843083e-03 -7.24684680e-03 0. -1.32097444e-02 3.22699659e-02
      0. 2.32766122e-02 2.32173726e-02 0. -1.12680169e-02
      -1.12680169e-02 0. -4.99687064e-03 -5.00960136e-03 0.
      3.22699659e-02 1.07143916e-01 0. 2.02217866e-02 2.01703254e-02 0.
      -3.30717815e-03 -3.30717815e-03 0. -2.08260398e-03 -2.08790693e-03
      0. 1.07143916e-01 9.61326286e-02 0. -1.29629194e-03
      -1.29299285e-03 0. -1.38938229e-03 -1.38938229e-03 0.
      2.61969529e-02 2.62636952e-02 0. 9.61326286e-02 9.73667763e-03 0.
      -4.39872965e-03 -4.38753469e-03 0. -7.30004394e-04 -7.30004394e-04
      0. 1.82191655e-02 1.82655845e-02 0. 9.73667763e-03 -7.48747727e-04
      0. -2.23769195e-04 -2.23199735e-04 0. -9.29944101e-04
      -9.29944101e-04 0. -3.89353663e-04 -3.90345638e-04 0.
      -7.48747727e-04 -3.76333017e-04 0. -6.21221168e-03 -6.19640155e-03
      0. -1.15817618e-02 -1.15817618e-02 0. 0. 0. 0. -3.76333017e-04
      5.83669590e-03 0. 3.83666120e-02 3.82688940e-02 0. -1.63062617e-01
      -1.63062617e-01 0. -1.73112657e-02 -1.73553694e-02 0.
      5.83669590e-03 2.07422435e-01 0. 2.63603628e-01 2.62933075e-01 0.
      -1.04457140e-01 -1.04457140e-01 0. -9.08010080e-03 -9.10323393e-03
      0. 2.07422435e-01 4.41492200e-01 0. 8.79684463e-02 8.77447426e-02
      0. -7.12706596e-02 -7.12706596e-02 0. 6.95396157e-04
      6.97190524e-04 0. 4.41492200e-01 3.23874444e-01 0. -3.61124277e-02
      -3.60205323e-02 0. -3.65701281e-02 -3.65701281e-02 0.
      1.69008702e-01 1.69439703e-01 0. 3.23874444e-01 2.70426944e-02 0.
      -2.68343501e-02 -2.67660767e-02 0. 2.37728972e-02 2.37728972e-02
      0. 2.47106642e-01 2.47736439e-01 0. 2.70426944e-02 -2.29558395e-03
      0. -2.38576438e-03 -2.37969821e-03 0. 5.92252938e-03
      5.92252938e-03 0. 1.90380421e-02 1.90865453e-02 0. -2.29558395e-03
      0. 0. 3.35455127e-03 3.34601407e-03 0. -2.14322563e-02
      -2.14322563e-02 0. 0. 0. 0. 0. 1.05223851e-02 0. 8.04979429e-02
      8.02930295e-02 0. -9.27266106e-02 -9.27266106e-02 0.
      2.59490521e-03 2.60151667e-03 0. 1.05223851e-02 7.76015148e-02 0.
      2.67291129e-01 2.66611606e-01 0. -5.52762896e-02 -5.52762896e-02
      0. 5.47072152e-03 5.48465922e-03 0. 7.76015148e-02 -2.80322060e-02
      0. -2.03556288e-02 -2.03037858e-02 0. -2.44816184e-01
      -2.44816184e-01 0. -1.98643771e-03 -1.99149852e-03 0.
      -2.80322060e-02 1.98791754e-02 0. -1.07795909e-01 -1.07738353e-01
      0. -4.12280038e-02 -4.12280038e-02 0. 1.10438906e-01
      1.10720709e-01 0. 1.98791754e-02 -6.00603670e-02 0.
      -7.52947554e-02 -7.51032606e-02 0. 2.33365729e-01 2.33365729e-01
      0. 2.70001024e-01 2.70689726e-01 0. -6.00603670e-02
      -1.41115934e-02 0. -6.52621640e-03 -6.50961883e-03 0.
      9.77576226e-02 9.77576226e-02 0. 2.36026831e-02 2.36628316e-02 0.
      -1.41115934e-02 2.53791513e-04 0. -1.66719463e-02 -1.66295376e-02
      0. -1.55886896e-02 -1.55886896e-02 0. 1.36864767e-03
      1.37213629e-03 0. 2.53791513e-04 2.58016679e-02 0. -6.42947182e-02
      -6.41312450e-02 0. 7.06758955e-03 7.06758955e-03 0. 6.92890733e-02
      6.94656149e-02 0. 2.58016679e-02 2.81202160e-02 0. -8.58990103e-02
      -8.56802836e-02 0. 2.44424753e-02 2.44424753e-02 0. 1.87101141e-01
      1.87577829e-01 0. 2.81202160e-02 -1.26841754e-01 0.
      -2.87982970e-01 -2.87250191e-01 0. -4.77182686e-01 -4.77182686e-01
      0. -8.04554392e-03 -8.06605257e-03 0. -1.26841754e-01
      -2.57157147e-01 0. -2.57198364e-01 -2.56616354e-01 0.
      -1.41483650e-01 -1.41483650e-01 0. -2.08732416e-03 -2.09263037e-03
      0. -2.57157147e-01 -1.69674411e-01 0. -5.58812097e-02
      -5.57393394e-02 0. 2.09017202e-01 2.09017202e-01 0. 2.26116218e-02
      2.26693992e-02 0. -1.69674411e-01 -9.23775788e-03 0.
      -1.76359750e-02 -1.75911430e-02 0. 8.43209177e-02 8.43209177e-02
      0. -1.06282784e-02 -1.06553454e-02 0. -9.23775788e-03
      -4.25719663e-05 0. 1.11735621e-02 1.11451186e-02 0. 2.95467617e-04
      2.95467617e-04 0. -7.20197801e-03 -7.22032832e-03 0.
      -4.25719663e-05 -1.54171875e-02 0. 6.23525418e-02 6.21941127e-02
      0. 1.35950567e-02 1.35950567e-02 0. 7.13585829e-03 7.15406844e-03
      0. -1.54171875e-02 -1.21583253e-01 0. -2.52668411e-01
      -2.52025366e-01 0. 5.45402803e-03 5.45402803e-03 0. 5.69871925e-02
      5.71323484e-02 0. -1.21583253e-01 -1.82815909e-01 0.
      -2.79566765e-01 -2.78855681e-01 0. -4.03462440e-01 -4.03462440e-01
      0. -2.71425806e-02 -2.72118337e-02 0. -1.82815909e-01
      -2.84046173e-01 0. 6.12789951e-02 6.12880588e-02 0.
      -5.99108748e-02 -5.99108748e-02 0. -2.64296005e-03 -2.64969608e-03
      0. -2.84046173e-01 -1.25934556e-01 0. 2.76118100e-01
      2.75775492e-01 0. 1.00795195e-01 1.00795195e-01 0. -9.08086426e-04
      -9.10399947e-04 0. -1.25934556e-01 -1.74001453e-03 0.
      2.64832098e-02 2.64158864e-02 0. 3.43476646e-02 3.43476646e-02 0.
      -5.44851937e-04 -5.46240073e-04 0. -1.74001453e-03 -7.36173824e-04
      0. -2.23382871e-04 -2.22815026e-04 0. 8.63061100e-03
      8.63061100e-03 0. -5.24185365e-03 -5.25521673e-03 0.
      -7.36173824e-04 -1.10691460e-02 0. -7.74729997e-02 -7.72759989e-02
      0. 6.94238469e-02 6.94238469e-02 0. 1.84950158e-02 1.85420401e-02
      0. -1.10691460e-02 1.64659470e-01 0. -2.17440352e-01
      -2.16887489e-01 0. -2.32046377e-02 -2.32046377e-02 0.
      3.60990092e-02 3.61482054e-02 0. 1.64659470e-01 2.10594296e-01 0.
      1.38398930e-01 1.38046548e-01 0. -2.29696542e-01 -2.29696542e-01
      0. -5.28783016e-02 -5.30132540e-02 0. 2.10594296e-01
      1.14410341e-01 0. 3.51527840e-01 3.50706160e-01 0. -3.11812814e-02
      -3.11812814e-02 0. -2.96558923e-04 -2.97315564e-04 0.
      1.14410341e-01 1.92465330e-03 0. 1.63232386e-01 1.62817404e-01 0.
      6.28681947e-03 6.28681947e-03 0. 0. 0. 0. 1.92465330e-03 0. 0.
      1.40344677e-03 1.39987899e-03 0. 4.37111681e-04 4.37111681e-04 0.
      0. 0. 0. 0. 9.30563419e-06 0. -3.19118371e-05 -3.18307175e-05 0.
      1.13954896e-03 1.13954896e-03 0. 8.77617393e-04 8.79856583e-04 0.
      9.30563419e-06 3.37033384e-02 0. -1.04055097e-02 -1.03790583e-02
      0. 4.17724019e-03 4.17724019e-03 0. 7.31268618e-03 7.33134383e-03
      0. 3.37033384e-02 1.30106911e-01 0. -7.83155672e-03
      -7.81164831e-03 0. -8.23076908e-03 -8.23076908e-03 0.
      7.38839619e-03 7.40724476e-03 0. 1.30106911e-01 1.02152847e-01 0.
      3.59283686e-02 3.58370356e-02 0. -3.53321880e-02 -3.53321880e-02
      0. -1.09642824e-04 -1.09924767e-04 0. 1.02152847e-01
      3.36593091e-02 0. 3.34518775e-02 3.33668403e-02 0. -3.84015194e-03
      -3.84015194e-03 0. -1.77935362e-04 -1.78389368e-04 0.
      3.36593091e-02 1.01142447e-03 0. 1.57911330e-03 1.57509907e-03 0.
      0. 0. 0. 0. 0. 0. 1.01142447e-03 0. 0. 0. 0. 0. 0. 0. 0. 0. 0. 0.
      0.</_>
    <_>
      0. 0. 0. 0. 0. 0. 0. 0. 0. 0. 0. 0. -6.05157227e-04 0.
      -2.80563487e-03 -2.79849488e-03 0. -2.15341381e-04 -2.15341381e-04
      0. 0. 0. 0. -6.05157227e-04 1.43199889e-02 0. 1.95291769e-02
      1.94794759e-02 0. -8.05451127e-04 -8.05451127e-04 0.
      -6.27225032e-03 -6.28822995e-03 0. 1.43199889e-02 1.30979374e-01
      0. 3.14260423e-02 3.13460715e-02 0. -2.64162594e-03
      -2.64162594e-03 0. -1.19546270e-02 -1.19850831e-02 0.
      1.30979374e-01 1.03147216e-01 0. -3.27653587e-02 -3.26819792e-02
      0. -9.45408130e-04 -9.45408130e-04 0. 2.56002415e-02
      2.56654676e-02 0. 1.03147216e-01 -2.57810988e-02 0.
      -5.10896696e-03 -5.09596523e-03 0. -2.50581000e-03 -2.50581000e-03
      0. 1.43637620e-02 1.44003602e-02 0. -2.57810988e-02
      -1.08171557e-03 0. 0. 0. 0. -1.55006512e-03 -1.55006512e-03 0.
      -3.97501094e-03 -3.98513814e-03 0. -1.08171557e-03 2.99550389e-04
      0. 5.40502137e-04 5.39126690e-04 0. 3.50430899e-04 3.50430899e-04
      0. 0. 0. 0. 2.99550389e-04 -1.03758173e-02 0. 6.83558509e-02
      6.81819320e-02 0. -2.32466273e-02 -2.32466273e-02 0.
      -1.03462124e-02 -1.03725716e-02 0. -1.03758173e-02 9.68055502e-02
      0. 3.54714394e-01 3.53812158e-01 0. -3.98437679e-02
      -3.98437679e-02 0. -9.38147455e-02 -9.40537900e-02 0.
      9.68055502e-02 4.39725190e-01 0. 1.36527764e-02 1.36184497e-02 0.
      -8.47255886e-02 -8.47255886e-02 0. -6.67145029e-02 -6.68844730e-02
      0. 4.39725190e-01 2.43275166e-01 0. -2.98847020e-01
      -2.98086673e-01 0. -2.17421912e-02 -2.17421912e-02 0.
      1.95410520e-01 1.95908889e-01 0. 2.43275166e-01 -6.48259595e-02 0.
      -3.76072191e-02 -3.75115722e-02 0. -3.08657791e-02 -3.08657791e-02
      0. 2.36247048e-01 2.36849204e-01 0. -6.48259595e-02
      -6.49029331e-04 0. 0. 0. 0. -3.22215557e-02 -3.22215557e-02 0.
      5.26325032e-03 5.27665950e-03 0. -6.49029331e-04 1.58522930e-03 0.
      -4.48048534e-03 -4.46908269e-03 0. 5.77398529e-03 5.77398529e-03
      0. 1.30906492e-03 1.31240499e-03 0. 1.58522930e-03 -5.88379987e-03
      0. 1.01740435e-01 1.01481669e-01 0. 8.19605440e-02 8.19605440e-02
      0. -3.67770437e-03 -3.68706929e-03 0. -5.88379987e-03
      -3.77353989e-02 0. 1.62982062e-01 1.62776455e-01 0.
      -1.66615725e-01 -1.66615725e-01 0. -1.75847247e-01 -1.76295385e-01
      0. -3.77353989e-02 -3.75020616e-02 0. -4.02647316e-01
      -4.02404845e-01 0. -3.00055265e-01 -3.00055265e-01 0.
      -1.07985035e-01 -1.08260207e-01 0. -3.75020616e-02 -5.27043380e-02
      0. -4.91771221e-01 -4.90782440e-01 0. -4.14652601e-02
      -4.14652601e-02 0. 6.85715452e-02 6.87465593e-02 0.
      -5.27043380e-02 -3.63485254e-02 0. -7.59183466e-02 -7.57252723e-02
      0. 4.04567271e-02 4.04567271e-02 0. 1.36573851e-01 1.36922106e-01
      0. -3.63485254e-02 0. 0. -4.13498981e-03 -4.12446633e-03 0.
      2.66948342e-03 2.66948342e-03 0. 2.05740854e-02 2.06264928e-02 0.
      0. 7.46933883e-03 0. 2.13653361e-03 2.13110307e-03 0.
      -2.24542618e-02 -2.24542618e-02 0. 6.97956840e-03 6.99737575e-03
      0. 7.46933883e-03 9.40366164e-02 0. -3.74264754e-02
      -3.73313315e-02 0. -5.94798662e-02 -5.94798662e-02 0.
      7.79194236e-02 7.81179741e-02 0. 9.40366164e-02 5.58068492e-02 0.
      -2.64832616e-01 -2.64815837e-01 0. -1.33016139e-01 -1.33016139e-01
      0. 9.42965746e-02 9.45364088e-02 0. 5.58068492e-02 -9.72226858e-02
      0. -4.05740678e-01 -4.04709131e-01 0. -4.04761791e-01
      -4.04761791e-01 0. -2.09087819e-01 -2.09456325e-01 0.
      -9.72226858e-02 -6.10249490e-02 0. -2.05636621e-01 -2.05113634e-01
      0. -8.43200684e-02 -8.43200684e-02 0. -1.07712753e-01
      -1.07987195e-01 0. -6.10249490e-02 -2.09409557e-02 0.
      -6.69592246e-02 -6.67888448e-02 0. 1.49099082e-01 1.49099082e-01
      0. -1.46970479e-03 -1.47345604e-03 0. -2.09409557e-02 0. 0.
      1.45181373e-03 1.44812744e-03 0. 2.84353402e-02 2.84353402e-02 0.
      -2.31139758e-03 -2.31729518e-03 0. 0. -5.30633901e-04 0.
      6.28374750e-03 6.26775250e-03 0. -2.86674835e-02 -2.86674835e-02
      0. -4.97538822e-05 -4.98813242e-05 0. -5.30633901e-04
      4.20509800e-02 0. -1.25080094e-01 -1.24761842e-01 0.
      -9.34404209e-02 -9.34404209e-02 0. 1.30648628e-01 1.30981728e-01
      0. 4.20509800e-02 6.24192134e-02 0. -3.70671064e-01
      -3.69728208e-01 0. -1.09371461e-01 -1.09371461e-01 0.
      1.71770617e-01 1.72208294e-01 0. 6.24192134e-02 -1.62444264e-01 0.
      -5.53714484e-03 -5.52327558e-03 0. -2.62127489e-01 -2.62127489e-01
      0. -3.66833776e-01 -3.67769063e-01 0. -1.62444264e-01
      -2.53876239e-01 0. 1.49489433e-01 1.49706870e-01 0.
      -2.92271059e-02 -2.92271059e-02 0. -1.55711442e-01 -1.56108439e-01
      0. -2.53876239e-01 -4.54731137e-02 0. 1.69252872e-01
      1.68822378e-01 0. 1.36202678e-01 1.36202678e-01 0. 0. 0. 0.
      -4.54731137e-02 0. 0. 1.14634726e-02 1.14343297e-02 0.
      7.27243396e-03 7.27243396e-03 0. 0. 0. 0. 0. -7.71326292e-03 0.
      -2.19648448e-03 -2.19089864e-03 0. 6.97803311e-03 6.97803311e-03
      0. 5.27519872e-03 5.28866053e-03 0. -7.71326292e-03 2.56577861e-02
      0. -9.06971097e-02 -9.04664621e-02 0. -1.01611562e-01
      -1.01611562e-01 0. 1.38973385e-01 1.39327690e-01 0. 2.56577861e-02
      3.19629848e-01 0. -1.85304031e-01 -1.84832975e-01 0.
      -1.41193166e-01 -1.41193166e-01 0. 2.61407167e-01 2.61610508e-01
      0. 3.19629848e-01 3.66280377e-01 0. 2.16025755e-01 2.15476081e-01
      0. -6.97464421e-02 -6.97464421e-02 0. -8.74178633e-02
      -8.76410529e-02 0. 3.66280377e-01 2.82259379e-02 0. 4.10402328e-01
      4.09644693e-01 0. -1.47193223e-02 -1.47193223e-02 0.
      -5.79033829e-02 -5.80510609e-02 0. 2.82259379e-02 -2.19659936e-02
      0. 1.23594478e-01 1.23280145e-01 0. 2.09228192e-02 2.09228192e-02
      0. 0. 0. 0. -2.19659936e-02 0. 0. -1.50309503e-03 -1.49927381e-03
      0. -9.02752625e-04 -9.02752625e-04 0. 0. 0. 0. 0. 3.94476461e-04
      0. 0. 0. 0. 5.66620321e-04 5.66620321e-04 0. 1.36159314e-03
      1.36506709e-03 0. 3.94476461e-04 2.43406352e-02 0. -8.95810314e-03
      -8.93533044e-03 0. -1.37679493e-02 -1.37679493e-02 0.
      7.92046078e-03 7.94066675e-03 0. 2.43406352e-02 1.29130065e-01 0.
      -8.15086439e-03 -8.13014340e-03 0. -1.46018295e-02 -1.46018295e-02
      0. 2.57559195e-02 2.58216318e-02 0. 1.29130065e-01 1.80787683e-01
      0. 2.99215913e-02 2.98455264e-02 0. -4.59404942e-03
      -4.59404942e-03 0. 2.09678919e-03 2.10213917e-03 0. 1.80787683e-01
      4.84385267e-02 0. 4.66832556e-02 4.65645827e-02 0. -1.56719785e-03
      -1.56719785e-03 0. -1.65194215e-03 -1.65615696e-03 0.
      4.84385267e-02 -2.55278242e-03 0. 5.46779763e-03 5.45389857e-03 0.
      -2.19912082e-03 -2.19912082e-03 0. 0. 0. 0. -2.55278242e-03 0. 0.
      0. 0. 0. 0. 0. 0. 0. 0. 0. 0.</_>
    <_>
      0. 0. -2.37542976e-04 -2.36938431e-04 0. -3.82470603e-07
      -3.82470603e-07 0. 0. 0. 0. 0. -1.02281664e-02 0. -1.86461546e-02
      -1.85987018e-02 0. -6.37451080e-07 -6.37451080e-07 0. 0. 0. 0.
      -1.02281664e-02 -2.95615979e-02 0. 4.82401252e-03 4.81173536e-03
      0. -1.11137303e-02 -1.11137303e-02 0. -1.64899006e-02
      -1.65319126e-02 0. -2.95615979e-02 1.05598852e-01 0.
      3.48804630e-02 3.47916931e-02 0. -1.04251299e-02 -1.04251299e-02
      0. -1.36780078e-02 -1.37128551e-02 0. 1.05598852e-01
      1.33690372e-01 0. 0. 0. 0. -1.49907439e-03 -1.49907439e-03 0.
      2.07782686e-02 2.08312050e-02 0. 1.33690372e-01 2.03629900e-02 0.
      0. 0. 0. 0. 0. 0. 2.74401009e-02 2.75100134e-02 0. 2.03629900e-02
      0. 0. 0. 0. 0. 0. 0. 0. 2.59230088e-04 2.59890541e-04 0. 0. 0. 0.
      -9.10089444e-03 -9.07773245e-03 0. -1.20157711e-02 -1.20157711e-02
      0. 0. 0. 0. 0. -1.38949454e-02 0. -6.94133490e-02 -6.92367628e-02
      0. -2.81473827e-02 -2.81473827e-02 0. -4.22079442e-03
      -4.23156330e-03 0. -1.38949454e-02 5.68849295e-02 0.
      2.61009127e-01 2.60345191e-01 0. -1.85843438e-01 -1.85843438e-01
      0. -7.57988617e-02 -7.59921446e-02 0. 5.68849295e-02
      4.78412867e-01 0. 1.62747875e-01 1.62333965e-01 0. -1.48719519e-01
      -1.48719519e-01 0. -9.21042487e-02 -9.23391059e-02 0.
      4.78412867e-01 4.45344657e-01 0. 1.68635417e-03 1.68206729e-03 0.
      -5.60068972e-02 -5.60068972e-02 0. 1.27101466e-01 1.27425715e-01
      0. 4.45344657e-01 4.51956093e-02 0. 0. 0. 0. 5.17936796e-02
      5.17936796e-02 0. 3.42688620e-01 3.43562067e-01 0. 4.51956093e-02
      0. 0. 0. 0. 0. 2.04899702e-02 2.04899702e-02 0. 2.71526873e-02
      2.72218678e-02 0. 0. 0. 0. -1.78720392e-02 -1.78265590e-02 0.
      -4.47319746e-02 -4.47319746e-02 0. 0. 0. 0. 0. 4.08540101e-04 0.
      1.68319028e-02 1.67888254e-02 0. -5.27350828e-02 -5.27350828e-02
      0. 5.16064581e-04 5.17364650e-04 0. 4.08540101e-04 2.84798406e-02
      0. 1.58227444e-01 1.57822028e-01 0. -3.10135841e-01
      -3.10135841e-01 0. -4.37921546e-02 -4.39039171e-02 0.
      2.84798406e-02 1.05127521e-01 0. -2.79002674e-02 -2.78291833e-02
      0. -2.81899780e-01 -2.81899780e-01 0. -3.72943766e-02
      -3.73895243e-02 0. 1.05127521e-01 6.07668608e-02 0.
      -6.90791011e-02 -6.89034089e-02 0. -1.57859251e-01 -1.57859251e-01
      0. 1.06932454e-01 1.07205331e-01 0. 6.07668608e-02 -3.23401876e-02
      0. -1.36750536e-02 -1.36402491e-02 0. 3.15508187e-01
      3.15508187e-01 0. 3.42347115e-01 3.43220323e-01 0. -3.23401876e-02
      -5.73358079e-03 0. 0. 0. 0. 1.36609033e-01 1.36609033e-01 0.
      3.81486230e-02 3.82458381e-02 0. -5.73358079e-03 -4.80549876e-03
      0. 1.10295611e-02 1.10014686e-02 0. -4.50875461e-02
      -4.50875461e-02 0. -9.27384384e-03 -9.29749664e-03 0.
      -4.80549876e-03 -2.21402105e-02 0. -3.46433297e-02 -3.45552713e-02
      0. -2.90383399e-02 -2.90383399e-02 0. 2.54876707e-02
      2.55525783e-02 0. -2.21402105e-02 7.00389743e-02 0.
      -3.21415216e-01 -3.20821583e-01 0. -2.53220648e-01 -2.53220648e-01
      0. 2.75916219e-01 2.76619166e-01 0. 7.00389743e-02 -3.90824899e-02
      0. -3.04877937e-01 -3.04577172e-01 0. -2.89343834e-01
      -2.89343834e-01 0. -2.94219382e-04 -2.94968951e-04 0.
      -3.90824899e-02 -7.60038868e-02 0. -2.09381104e-01 -2.08848521e-01
      0. -5.21855019e-02 -5.21855019e-02 0. 4.37168358e-03
      4.38283803e-03 0. -7.60038868e-02 -8.39246809e-02 0.
      2.22589135e-01 2.22022757e-01 0. 3.95843387e-01 3.95843387e-01 0.
      2.18568407e-02 2.19126567e-02 0. -8.39246809e-02 -9.49431397e-03
      0. 2.60393154e-02 2.59731021e-02 0. 1.51816145e-01 1.51816145e-01
      0. -6.79328898e-03 -6.81059435e-03 0. -9.49431397e-03
      -1.64287779e-02 0. 9.02019627e-03 8.99723731e-03 0. 4.23026904e-02
      4.23026904e-02 0. -2.14165840e-02 -2.14712247e-02 0.
      -1.64287779e-02 -9.22788531e-02 0. -2.29155086e-02 -2.28568874e-02
      0. 6.25638440e-02 6.25638440e-02 0. 3.43028717e-02 3.43902372e-02
      0. -9.22788531e-02 -6.31457642e-02 0. -3.67031664e-01
      -3.66694987e-01 0. -1.99630484e-01 -1.99630484e-01 0.
      1.83541968e-01 1.84009731e-01 0. -6.31457642e-02 -3.25151742e-01
      0. -3.21552426e-01 -3.21646690e-01 0. -9.72362384e-02
      -9.72362384e-02 0. 1.49319721e-02 1.49705857e-02 0.
      -3.25151742e-01 -3.32413644e-01 0. 1.90479890e-01 1.91093326e-01
      0. 3.28867114e-03 3.28867114e-03 0. -1.01829169e-03
      -1.02088810e-03 0. -3.32413644e-01 -2.42136210e-01 0.
      4.59873319e-01 4.58703905e-01 0. 1.43679887e-01 1.43679887e-01 0.
      -5.07499874e-02 -5.08792959e-02 0. -2.42136210e-01 -1.19487941e-02
      0. 4.13484015e-02 4.12432849e-02 0. 1.77257042e-03 1.77257042e-03
      0. -2.13046670e-02 -2.13589463e-02 0. -1.19487941e-02
      -1.46991797e-02 0. -1.17627960e-02 -1.17328586e-02 0.
      6.42409921e-03 6.42409921e-03 0. 1.29223187e-02 1.29552912e-02 0.
      -1.46991797e-02 -7.56418407e-02 0. -1.09938987e-01 -1.09659217e-01
      0. 5.99709637e-02 5.99709637e-02 0. 1.24185108e-01 1.24501668e-01
      0. -7.56418407e-02 2.73627229e-02 0. -9.60033387e-02
      -9.57592130e-02 0. -3.14815342e-02 -3.14815342e-02 0.
      2.28734255e-01 2.28784546e-01 0. 2.73627229e-02 2.28018360e-03 0.
      1.29241705e-01 1.28912657e-01 0. -1.10072345e-02 -1.10072345e-02
      0. 5.82739301e-02 5.84224351e-02 0. 2.28018360e-03 -1.29465267e-01
      0. 3.40406418e-01 3.39603722e-01 0. 3.14819347e-03 3.14819347e-03
      0. -3.89593211e-03 -3.90587212e-03 0. -1.29465267e-01
      -1.64166659e-01 0. 1.71878502e-01 1.71441466e-01 0.
      -2.26777866e-02 -2.26777866e-02 0. -5.42842969e-02 -5.44227138e-02
      0. -1.64166659e-01 -7.49269361e-03 0. -1.27057079e-02
      -1.26734087e-02 0. -3.69680077e-02 -3.69680077e-02 0.
      -1.03994971e-02 -1.04259951e-02 0. -7.49269361e-03 -2.58965464e-03
      0. 0. 0. 0. -1.63951155e-03 -1.63951155e-03 0. 1.57029397e-04
      1.57429982e-04 0. -2.58965464e-03 -3.42749729e-04 0.
      -7.21551245e-03 -7.19717005e-03 0. 1.67769496e-04 1.67769496e-04
      0. 4.95176110e-03 4.96439496e-03 0. -3.42749729e-04 5.03971875e-02
      0. -7.03169359e-03 -7.01381918e-03 0. 0. 0. 0. 2.05319636e-02
      2.05843486e-02 0. 5.03971875e-02 9.41946879e-02 0. 1.88181810e-02
      1.87703501e-02 0. 0. 0. 0. 5.26285637e-03 5.27628465e-03 0.
      9.41946879e-02 2.10360214e-02 0. 2.73784995e-02 2.73088999e-02 0.
      -1.11537403e-03 -1.11537403e-03 0. -3.34729557e-04 -3.35583609e-04
      0. 2.10360214e-02 -2.03545578e-02 0. 2.32722890e-03 2.32131616e-03
      0. -3.74250882e-03 -3.74250882e-03 0. -5.98200643e-03
      -5.99726941e-03 0. -2.03545578e-02 -2.85123568e-03 0.
      -1.29011064e-03 -1.28683099e-03 0. -2.43548513e-03 -2.43548513e-03
      0. -5.22888091e-04 -5.24222269e-04 0. -2.85123568e-03</_>
    <_>
      -1.64494861e-03 0. -1.19082793e-03 -1.18779729e-03 0.
      -2.13976623e-03 -2.13976623e-03 0. -4.97553265e-04 -4.98820911e-04
      0. -1.64494861e-03 -2.95291236e-03 0. 3.44697328e-04
      3.43820080e-04 0. -5.50491409e-03 -5.50491409e-03 0.
      -5.15917735e-03 -5.17232157e-03 0. -2.95291236e-03 2.89408248e-02
      0. 1.99740641e-02 1.99232325e-02 0. -4.19000193e-04
      -4.19000193e-04 0. -1.44931691e-04 -1.45300583e-04 0.
      2.89408248e-02 8.98518115e-02 0. 1.91139318e-02 1.90652888e-02 0.
      0. 0. 0. 8.77104641e-04 8.79341736e-04 0. 8.98518115e-02
      7.39485994e-02 0. -5.35337767e-03 -5.33975381e-03 0.
      4.10148168e-05 4.10148168e-05 0. 1.56736542e-02 1.57135874e-02 0.
      7.39485994e-02 -7.29399035e-03 0. -1.00258943e-02 -1.00003798e-02
      0. -1.30075682e-03 -1.30075682e-03 0. 1.42261256e-02
      1.42623708e-02 0. -7.29399035e-03 -3.40175815e-03 0.
      -8.11319507e-04 -8.09255405e-04 0. -2.36065546e-03 -2.36065546e-03
      0. -1.03009364e-03 -1.03271811e-03 0. -3.40175815e-03
      -1.96506153e-03 0. 3.83095437e-04 3.82120750e-04 0.
      -1.32526178e-02 -1.32526178e-02 0. -9.54991300e-03 -9.57427546e-03
      0. -1.96506153e-03 4.74368222e-03 0. 1.06419601e-01 1.06148839e-01
      0. -3.17340307e-02 -3.17340307e-02 0. -8.55801478e-02
      -8.57982710e-02 0. 4.74368222e-03 1.33513406e-01 0. 2.52528071e-01
      2.51885712e-01 0. -1.03793405e-02 -1.03793405e-02 0.
      -3.16411518e-02 -3.17217670e-02 0. 1.33513406e-01 2.95154512e-01
      0. -1.76916725e-03 -1.76447770e-03 0. -7.84059695e-04
      -7.84059695e-04 0. 4.99135116e-03 5.00408560e-03 0. 2.95154512e-01
      1.60382703e-01 0. -1.68736532e-01 -1.68307185e-01 0.
      -5.07884100e-03 -5.07884100e-03 0. 1.13219880e-01 1.13508619e-01
      0. 1.60382703e-01 -6.14459775e-02 0. -1.24304682e-01
      -1.23988472e-01 0. 1.63112383e-03 1.63112383e-03 0. 1.76615879e-01
      1.77066013e-01 0. -6.14459775e-02 -7.91194569e-03 0.
      -1.00381700e-02 -1.00126481e-02 0. -2.10765284e-02 -2.10765284e-02
      0. 7.94230960e-03 7.96253607e-03 0. -7.91194569e-03
      -1.97288417e-03 0. 1.31747304e-02 1.31412009e-02 0. 1.50428955e-02
      1.50428955e-02 0. -8.65877140e-03 -8.68086424e-03 0.
      -1.97288417e-03 -2.96589383e-03 0. 2.26107627e-01 2.25532442e-01
      0. 8.56036618e-02 8.56036618e-02 0. -1.68997556e-01
      -1.69428498e-01 0. -2.96589383e-03 -6.41154405e-03 0.
      1.33644581e-01 1.33304983e-01 0. 1.09815095e-02 1.09815095e-02 0.
      -1.69281110e-01 -1.69712469e-01 0. -6.41154405e-03 -2.93785818e-02
      0. -2.71753430e-01 -2.71675438e-01 0. -1.56667475e-02
      -1.56667475e-02 0. -2.37008370e-03 -2.37612170e-03 0.
      -2.93785818e-02 -6.32544979e-02 0. -3.35624665e-01 -3.35247904e-01
      0. -4.01490554e-02 -4.01490554e-02 0. 6.27073273e-02
      6.28673211e-02 0. -6.32544979e-02 -4.80570011e-02 0.
      -1.19493060e-01 -1.19189262e-01 0. 1.55618295e-01 1.55618295e-01
      0. 1.76457375e-01 1.76907420e-01 0. -4.80570011e-02
      -8.68512411e-03 0. -5.41345356e-03 -5.39969141e-03 0.
      6.80446923e-02 6.80446923e-02 0. 2.21727323e-02 2.22292282e-02 0.
      -8.68512411e-03 -2.27235840e-03 0. 1.54382922e-02 1.53990090e-02
      0. 5.10678031e-02 5.10678031e-02 0. -1.46959373e-03
      -1.47334323e-03 0. -2.27235840e-03 -4.25763503e-02 0.
      1.18897948e-02 1.18596805e-02 0. 1.73042387e-01 1.73042387e-01 0.
      -4.77285013e-02 -4.78503816e-02 0. -4.25763503e-02 -1.13450915e-01
      0. -1.56280538e-03 -1.55882817e-03 0. 4.70289029e-02
      4.70289029e-02 0. -8.67637396e-02 -8.67714584e-02 0.
      -1.13450915e-01 -7.27685094e-02 0. -2.90370792e-01 -2.89895803e-01
      0. -6.90762624e-02 -6.90762624e-02 0. -2.53255039e-01
      -2.53900349e-01 0. -7.27685094e-02 -3.13097611e-02 0.
      -1.52274176e-01 -1.52363658e-01 0. -2.50074882e-02 -2.50074882e-02
      0. -4.13046777e-02 -4.14098985e-02 0. -3.13097611e-02
      -1.44396862e-02 0. 1.29361287e-01 1.29032061e-01 0. 2.40254849e-01
      2.40254849e-01 0. 1.38533199e-02 1.38886822e-02 0. -1.44396862e-02
      -2.79722706e-04 0. 1.88091844e-02 1.87613554e-02 0. 1.13047250e-01
      1.13047250e-01 0. 5.86010108e-04 5.87504415e-04 0. -2.79722706e-04
      1.23265595e-03 0. 1.73274847e-03 1.72833924e-03 0. 3.74499261e-02
      3.74499261e-02 0. 7.80442962e-04 7.82434770e-04 0. 1.23265595e-03
      -3.94801842e-04 0. -5.57909161e-02 -5.56489341e-02 0.
      7.53685832e-02 7.53685832e-02 0. 3.94518897e-02 3.95524055e-02 0.
      -3.94801842e-04 -4.13128808e-02 0. -1.03572957e-01 -1.03309512e-01
      0. 3.35626788e-02 3.35626788e-02 0. -5.33131100e-02
      -5.34494370e-02 0. -4.13128808e-02 -1.32396579e-01 0.
      -1.75613295e-02 -1.75167806e-02 0. -4.51372638e-02 -4.51372638e-02
      0. -2.44766787e-01 -2.44776055e-01 0. -1.32396579e-01
      -1.74365953e-01 0. 2.33255714e-01 2.33100489e-01 0.
      -7.84360059e-03 -7.84360059e-03 0. -3.12229812e-01 -3.13025504e-01
      0. -1.74365953e-01 -8.98964703e-02 0. 3.57458472e-01
      3.56549352e-01 0. 1.22000061e-01 1.22000061e-01 0. -8.51295814e-02
      -8.53464901e-02 0. -8.98964703e-02 -2.14403844e-03 0.
      3.51496488e-02 3.50602940e-02 0. 2.96578854e-02 2.96578854e-02 0.
      -2.57493835e-03 -2.58149859e-03 0. -2.14403844e-03 3.32319032e-04
      0. 0. 0. 0. 1.53462356e-02 1.53462356e-02 0. 8.13942216e-03
      8.16018973e-03 0. 3.32319032e-04 2.06472911e-02 0. -4.88908440e-02
      -4.87664305e-02 0. 1.53612318e-02 1.53612318e-02 0. 7.53758624e-02
      7.55680203e-02 0. 2.06472911e-02 1.93777949e-01 0. -1.36194095e-01
      -1.35847777e-01 0. -5.94670512e-03 -5.94670512e-03 0.
      1.86813727e-01 1.86885849e-01 0. 1.93777949e-01 2.47524336e-01 0.
      7.85602182e-02 7.83602074e-02 0. -2.47911699e-02 -2.47911699e-02
      0. -6.21641576e-02 -6.23229034e-02 0. 2.47524336e-01
      2.98190825e-02 0. 3.00815761e-01 3.00092906e-01 0. -3.58759165e-02
      -3.58759165e-02 0. -1.90036342e-01 -1.90520927e-01 0.
      2.98190825e-02 -6.46083951e-02 0. 1.47536084e-01 1.47160903e-01 0.
      -4.16423474e-03 -4.16423474e-03 0. -9.90073681e-02 -9.92596820e-02
      0. -6.46083951e-02 -1.30185543e-03 0. 1.30682695e-03
      1.30350469e-03 0. -6.06369320e-03 -6.06369320e-03 0.
      -3.67848348e-04 -3.68785521e-04 0. -1.30185543e-03 4.98324865e-04
      0. 0. 0. 0. 7.58152688e-04 7.58152688e-04 0. 9.68817738e-04
      9.71289643e-04 0. 4.98324865e-04 1.49059733e-02 0. -3.67557374e-03
      -3.66622629e-03 0. -1.20923517e-03 -1.20923517e-03 0.
      3.01161781e-03 3.01930099e-03 0. 1.49059733e-02 6.98967874e-02 0.
      -1.62760820e-02 -1.62347052e-02 0. -2.67006777e-04 -2.67006777e-04
      0. 1.82246473e-02 1.82711426e-02 0. 6.98967874e-02 1.15151219e-01
      0. 1.51556525e-02 1.51171247e-02 0. -1.11595215e-03
      -1.11595215e-03 0. 4.34841216e-03 4.35950374e-03 0. 1.15151219e-01
      3.53207514e-02 0. 2.61288863e-02 2.60624625e-02 0. -1.85992010e-03
      -1.85992010e-03 0. -1.73816849e-02 -1.74260307e-02 0.
      3.53207514e-02 -1.48794400e-02 0. 1.52633584e-03 1.52245618e-03 0.
      -4.97216266e-03 -4.97216266e-03 0. -6.70474628e-03 -6.72184490e-03
      0. -1.48794400e-02 0. 0. 0. 0. 0. -7.10308843e-04 -7.10308843e-04
      0. 0. 0. 0. 0.</_>
    <_>
      -3.55825410e-03 0. -1.26106548e-04 -1.25785606e-04 0.
      -3.47982883e-03 -3.47982883e-03 0. -1.22644845e-03 -1.22957316e-03
      0. -3.55825410e-03 -4.81393468e-03 0. 5.32681181e-04
      5.31325466e-04 0. -2.92118895e-03 -2.92118895e-03 0.
      -1.16630727e-02 -1.16927875e-02 0. -4.81393468e-03 2.71205064e-02
      0. 2.02596951e-02 2.02081352e-02 0. -2.13417661e-05
      -2.13417661e-05 0. -4.91941115e-04 -4.93194500e-04 0.
      2.71205064e-02 8.91425684e-02 0. 2.83796936e-02 2.83074696e-02 0.
      0. 0. 0. 0. 0. 0. 8.91425684e-02 7.97006488e-02 0. -4.21847159e-04
      -4.20773606e-04 0. 0. 0. 0. 2.53486838e-02 2.54132636e-02 0.
      7.97006488e-02 6.11494947e-03 0. -2.85770604e-03 -2.85043335e-03
      0. -1.03772513e-03 -1.03772513e-03 0. 1.51177216e-02
      1.51562383e-02 0. 6.11494947e-03 -1.19265111e-03 0.
      -2.35178682e-04 -2.34580162e-04 0. -1.08298671e-03 -1.08298671e-03
      0. 1.12167390e-05 1.12453172e-05 0. -1.19265111e-03
      -4.24827309e-03 0. 5.32681181e-04 5.31325466e-04 0.
      -3.06309201e-02 -3.06309201e-02 0. -1.66063271e-02 -1.66486837e-02
      0. -4.24827309e-03 6.56219712e-03 0. 1.20052613e-01 1.19747125e-01
      0. -5.66644296e-02 -5.66644296e-02 0. -1.42324805e-01
      -1.42687544e-01 0. 6.56219712e-03 1.79675847e-01 0. 2.70587891e-01
      2.69899577e-01 0. -2.12000553e-02 -2.12000553e-02 0.
      -3.37377712e-02 -3.38237323e-02 0. 1.79675847e-01 3.92806649e-01
      0. 1.06853344e-01 1.06581561e-01 0. 0. 0. 0. -4.10736684e-04
      -4.11783141e-04 0. 3.92806649e-01 2.85975248e-01 0.
      -2.34852564e-02 -2.34254934e-02 0. -5.54073183e-03 -5.54073183e-03
      0. 1.55423403e-01 1.55819729e-01 0. 2.85975248e-01 1.38980523e-02
      0. -4.31285985e-02 -4.30188775e-02 0. 8.69754422e-03
      8.69754422e-03 0. 2.18810350e-01 2.19367996e-01 0. 1.38980523e-02
      -3.52650718e-03 0. -3.76668619e-03 -3.75710870e-03 0.
      1.35595491e-03 1.35595491e-03 0. 1.59434974e-02 1.59841161e-02 0.
      -3.52650718e-03 -2.39530345e-03 0. 1.02003813e-02 1.01744216e-02
      0. 2.07202435e-02 2.07202435e-02 0. -1.89012717e-02
      -1.89494956e-02 0. -2.39530345e-03 -2.13343110e-02 0.
      2.05697685e-01 2.05174372e-01 0. 1.07614242e-01 1.07614242e-01 0.
      -2.89193511e-01 -2.89930999e-01 0. -2.13343110e-02 3.45604829e-02
      0. 2.85525829e-01 2.84799933e-01 0. -1.75872054e-02
      -1.75872054e-02 0. -3.11126441e-01 -3.11852336e-01 0.
      3.45604829e-02 9.40034091e-02 0. -6.98863761e-03 -6.97075576e-03
      0. -6.73758751e-03 -6.73758751e-03 0. -2.64405757e-02
      -2.65079457e-02 0. 9.40034091e-02 4.69530076e-02 0.
      -1.43277943e-01 -1.43148646e-01 0. 1.74546428e-02 1.74546428e-02
      0. 1.20003887e-01 1.20310083e-01 0. 4.69530076e-02 -7.27573186e-02
      0. -1.24430254e-01 -1.24113746e-01 0. 2.13580981e-01
      2.13580981e-01 0. 2.48395309e-01 2.49028862e-01 0. -7.27573186e-02
      -1.31272692e-02 0. -4.20636218e-03 -4.19566873e-03 0.
      8.33451971e-02 8.33451971e-02 0. 2.16266923e-02 2.16817968e-02 0.
      -1.31272692e-02 -4.90039121e-03 0. 1.76339000e-02 1.75890233e-02
      0. 6.08219095e-02 6.08219095e-02 0. -2.64743180e-03
      -2.65418668e-03 0. -4.90039121e-03 -2.25399807e-02 0.
      6.01692088e-02 6.00161478e-02 0. 2.38473982e-01 2.38473982e-01 0.
      -1.04173832e-01 -1.04439847e-01 0. -2.25399807e-02 -1.91067569e-02
      0. 2.95671001e-02 2.94919778e-02 0. -6.05990626e-02
      -6.05990626e-02 0. -2.46383488e-01 -2.45994672e-01 0.
      -1.91067569e-02 -7.25561976e-02 0. -1.98169440e-01 -1.97900459e-01
      0. -8.20954368e-02 -8.20954368e-02 0. -2.26711690e-01
      -2.27257460e-01 0. -7.25561976e-02 -1.20859556e-01 0.
      -4.09114569e-01 -4.09359217e-01 0. 1.75865125e-02 1.75865125e-02
      0. 3.52165080e-03 3.53064016e-03 0. -1.20859556e-01
      -1.62883028e-01 0. -5.48984408e-02 -5.47590405e-02 0.
      2.75362462e-01 2.75362462e-01 0. 1.45069370e-02 1.45440204e-02 0.
      -1.62883028e-01 -2.16285810e-02 0. 2.56433920e-03 2.55782204e-03
      0. 8.38534981e-02 8.38534981e-02 0. -1.08807907e-02
      -1.09085115e-02 0. -2.16285810e-02 -5.92629425e-04 0.
      1.76026002e-02 1.75578035e-02 0. 9.26522091e-02 9.26522091e-02 0.
      1.55924167e-03 1.56321994e-03 0. -5.92629425e-04 3.07950713e-02 0.
      1.46010712e-01 1.45639539e-01 0. 1.58016533e-01 1.58016533e-01 0.
      5.17661721e-02 5.18980287e-02 0. 3.07950713e-02 8.14761221e-02 0.
      -9.37560946e-02 -9.37525779e-02 0. -1.51324451e-01 -1.51324451e-01
      0. -1.64705917e-01 -1.65126190e-01 0. 8.14761221e-02
      -1.57397792e-01 0. -2.32132927e-01 -2.31865212e-01 0.
      -8.74822736e-02 -8.74822736e-02 0. -1.48834065e-01 -1.49213329e-01
      0. -1.57397792e-01 -6.62948117e-02 0. 2.70856209e-02
      2.72047948e-02 0. -1.85944955e-03 -1.85944955e-03 0.
      -2.12613217e-04 -2.13154912e-04 0. -6.62948117e-02 -5.93702309e-02
      0. 3.02529007e-01 3.01759630e-01 0. 8.40058625e-02 8.40058625e-02
      0. 0. 0. 0. -5.93702309e-02 -5.41301584e-03 0. 3.17093134e-02
      3.16287018e-02 0. 2.82168686e-02 2.82168686e-02 0. 0. 0. 0.
      -5.41301584e-03 -6.64474501e-04 0. -4.58096480e-03 -4.56930744e-03
      0. 3.41839828e-02 3.41839828e-02 0. 1.87067781e-02 1.87545083e-02
      0. -6.64474501e-04 -1.76318567e-02 0. -7.50261098e-02
      -7.48352185e-02 0. 5.21767326e-02 5.21767326e-02 0. 1.01009421e-01
      1.01266868e-01 0. -1.76318567e-02 2.03325093e-01 0.
      -2.41888016e-01 -2.41272882e-01 0. -1.31711736e-02 -1.31711736e-02
      0. 3.09786052e-02 3.10318619e-02 0. 2.03325093e-01 2.21766755e-01
      0. 1.64472852e-02 1.64048765e-02 0. -1.27563281e-02
      -1.27563281e-02 0. 2.82384409e-03 2.83104042e-03 0. 2.21766755e-01
      1.40566051e-01 0. 2.68828839e-01 2.68145204e-01 0. -5.24497242e-04
      -5.24497242e-04 0. 0. 0. 0. 1.40566051e-01 3.82836582e-03 0.
      1.31476462e-01 1.31142214e-01 0. 1.23734016e-03 1.23734016e-03 0.
      0. 0. 0. 3.82836582e-03 0. 0. 1.02829968e-03 1.02568557e-03 0.
      3.88813605e-05 3.88813605e-05 0. 0. 0. 0. 0. 4.17324743e-04 0.
      -4.20762226e-04 -4.19691991e-04 0. 6.77248288e-04 6.77248288e-04
      0. 1.65658537e-03 1.66081195e-03 0. 4.17324743e-04 2.07825787e-02
      0. -6.83730561e-03 -6.81992294e-03 0. -4.05844022e-03
      -4.05844022e-03 0. 3.49149603e-04 3.50040209e-04 0. 2.07825787e-02
      9.07339528e-02 0. -3.74103300e-02 -3.73152308e-02 0.
      -3.42103216e-04 -3.42103216e-04 0. -2.47940101e-04 -2.48572789e-04
      0. 9.07339528e-02 1.01237476e-01 0. 2.85150651e-02 2.84425821e-02
      0. 0. 0. 0. 2.53637234e-04 2.54284387e-04 0. 1.01237476e-01
      2.15684529e-02 0. 2.44173761e-02 2.43553054e-02 0. 0. 0. 0. 0. 0.
      0. 2.15684529e-02 7.21970864e-04 0. 3.54467047e-04 3.53565963e-04
      0. 0. 0. 0. 0. 0. 0. 7.21970864e-04 0. 0. 0. 0. 0. 0. 0. 0. 0. 0.
      0. 0.</_>
    <_>
      0. 0. 0. 0. 0. 0. 0. 0. 0. 0. 0. 0. 6.20380379e-05 0.
      2.82505556e-04 2.81786546e-04 0. 0. 0. 0. 0. 0. 0. 6.20380379e-05
      3.67954560e-03 0. -7.10780406e-03 -7.08971359e-03 0.
      -3.25484807e-03 -3.25484807e-03 0. 0. 0. 0. 3.67954560e-03
      -8.55116826e-03 0. 7.39183696e-03 7.37303449e-03 0.
      -8.17461696e-04 -8.17461696e-04 0. -2.24235374e-03 -2.24806368e-03
      0. -8.55116826e-03 5.85642876e-03 0. -9.23875812e-03
      -9.21524316e-03 0. -1.72396319e-03 -1.72396319e-03 0.
      -7.56133394e-03 -7.58059137e-03 0. 5.85642876e-03 1.03646307e-04
      0. 0. 0. 0. -6.72146538e-03 -6.72146538e-03 0. 7.13852281e-03
      7.15671061e-03 0. 1.03646307e-04 0. 0. 0. 0. 0. 0. 0. 0.
      2.13078001e-05 2.13620879e-05 0. 0. 5.53439313e-04 0.
      2.82393279e-03 2.81674601e-03 0. 2.38944031e-03 2.38944031e-03 0.
      0. 0. 0. 5.53439313e-04 8.66641477e-03 0. 8.09693113e-02
      8.07633325e-02 0. -2.28027105e-02 -2.28027105e-02 0. 0. 0. 0.
      8.66641477e-03 9.15360227e-02 0. 1.27067775e-01 1.26744941e-01 0.
      -4.29495238e-02 -4.29495238e-02 0. 0. 0. 0. 9.15360227e-02
      1.29826292e-01 0. 2.23984253e-02 2.23417711e-02 0. -4.10060864e-03
      -4.10060864e-03 0. -1.52807562e-02 -1.53197190e-02 0.
      1.29826292e-01 1.38050050e-01 0. -3.62848081e-02 -3.61925140e-02
      0. -3.98570411e-02 -3.98570411e-02 0. 4.98990342e-02
      5.00267409e-02 0. 1.38050050e-01 2.80051753e-02 0. 0. 0. 0.
      -6.70341775e-02 -6.70341775e-02 0. 1.46454558e-01 1.46828070e-01
      0. 2.80051753e-02 0. 0. 0. 0. 0. 7.55203608e-03 7.55203608e-03 0.
      2.18135845e-02 2.18691602e-02 0. 0. 2.29069358e-03 0.
      1.37189049e-02 1.36839934e-02 0. 2.32557803e-02 2.32557803e-02 0.
      2.51873420e-03 2.52516055e-03 0. 2.29069358e-03 2.04558931e-02 0.
      8.79751369e-02 8.77515897e-02 0. 1.75413229e-02 1.75413229e-02 0.
      2.29004081e-02 2.29587685e-02 0. 2.04558931e-02 -2.51367912e-02 0.
      -2.21176848e-01 -2.21409485e-01 0. -4.38793488e-02 -4.38793488e-02
      0. 3.35859172e-02 3.36714797e-02 0. -2.51367912e-02
      -3.02436471e-01 0. -4.31178182e-01 -4.30864900e-01 0.
      -8.66176561e-03 -8.66176561e-03 0. -1.03419550e-01 -1.03683412e-01
      0. -3.02436471e-01 -1.29115298e-01 0. -6.93330467e-02
      -6.91567883e-02 0. -1.17551334e-01 -1.17551334e-01 0.
      -4.67051983e-01 -4.67157692e-01 0. -1.29115298e-01 7.96724809e-04
      0. 1.23811560e-03 1.23496458e-03 0. 9.03846771e-02 9.03846771e-02
      0. -1.45408571e-01 -1.45778969e-01 0. 7.96724809e-04 0. 0. 0. 0.
      0. 8.98317546e-02 8.98317546e-02 0. -9.40066297e-03
      -9.42461286e-03 0. 0. 2.56903865e-03 0. 1.22629257e-03
      1.22316892e-03 0. 2.25508902e-02 2.25508902e-02 0. 9.03077703e-03
      9.05381888e-03 0. 2.56903865e-03 1.19235002e-01 0. -1.84336379e-01
      -1.83867425e-01 0. -1.01819031e-01 -1.01819031e-01 0.
      9.27776173e-02 9.30140615e-02 0. 1.19235002e-01 7.78551698e-02 0.
      -3.23342890e-01 -3.23674113e-01 0. -4.46942821e-02 -4.46942821e-02
      0. 1.29431874e-01 1.29761636e-01 0. 7.78551698e-02 -5.46765840e-03
      0. -9.53080803e-02 -9.50657874e-02 0. 3.33857397e-03
      3.33857397e-03 0. -2.64414540e-03 -2.65089190e-03 0.
      -5.46765840e-03 -4.78468277e-03 0. 3.61243933e-02 3.60324569e-02
      0. -1.25523418e-01 -1.25523418e-01 0. -2.51834273e-01
      -2.52476811e-01 0. -4.78468277e-03 -1.03784697e-02 0.
      1.88408628e-01 1.87929243e-01 0. 1.89551897e-02 1.89551897e-02 0.
      -4.67419773e-01 -4.68611866e-01 0. -1.03784697e-02 -6.05985755e-03
      0. 2.32614912e-02 2.32023541e-02 0. 3.98008302e-02 3.98008302e-02
      0. -4.22987044e-02 -4.24064994e-02 0. -6.05985755e-03
      -9.33053158e-03 0. -3.98535654e-02 -3.97521630e-02 0.
      -3.11536398e-02 -3.11536398e-02 0. 2.91310977e-02 2.92054228e-02
      0. -9.33053158e-03 2.80253310e-02 0. -2.54612386e-01
      -2.53964901e-01 0. -7.40725026e-02 -7.40725026e-02 0.
      2.31198832e-01 2.31788412e-01 0. 2.80253310e-02 4.49171029e-02 0.
      -6.14486337e-02 -6.12924397e-02 0. -3.77606298e-03 -3.77606298e-03
      0. 1.96315810e-01 1.96816027e-01 0. 4.49171029e-02 3.87056023e-02
      0. 2.92916670e-02 2.92171240e-02 0. 4.18030284e-03 4.18030284e-03
      0. 7.40536628e-03 7.42423348e-03 0. 3.87056023e-02 4.78229001e-02
      0. 3.55082244e-01 3.54332626e-01 0. 2.99201887e-02 2.99201887e-02
      0. -4.08511721e-02 -4.09554057e-02 0. 4.78229001e-02
      -1.54281054e-02 0. 5.48348069e-01 5.46953321e-01 0.
      -9.30247530e-02 -9.30247530e-02 0. -2.14486644e-01 -2.15033755e-01
      0. -1.54281054e-02 -1.72738489e-02 0. 5.08237369e-02
      5.06945364e-02 0. -7.51543492e-02 -7.51543492e-02 0.
      -2.77941637e-02 -2.78650038e-02 0. -1.72738489e-02 -8.14938452e-03
      0. -7.84423947e-03 -7.82428775e-03 0. -5.79499006e-02
      -5.79499006e-02 0. 1.12718642e-02 1.13006234e-02 0.
      -8.14938452e-03 2.36681364e-02 0. -1.02227524e-01 -1.01967640e-01
      0. -1.24091312e-01 -1.24091312e-01 0. 2.67240554e-01
      2.67922044e-01 0. 2.36681364e-02 3.61425340e-01 0. -1.09742656e-02
      -1.09463800e-02 0. 9.41291358e-03 9.41291358e-03 0. 3.42538357e-01
      3.43411595e-01 0. 3.61425340e-01 6.26765490e-01 0. 1.26220763e-01
      1.25899613e-01 0. 4.61548334e-03 4.61548334e-03 0. 3.00869923e-02
      3.01636551e-02 0. 6.26765490e-01 3.11262369e-01 0. 6.01875186e-01
      6.00344181e-01 0. 2.99227796e-03 2.99227796e-03 0. -1.62271992e-03
      -1.62686035e-03 0. 3.11262369e-01 8.07542633e-03 0. 3.20068330e-01
      3.19254518e-01 0. -1.31826594e-01 -1.31826594e-01 0.
      -4.22067046e-02 -4.23143916e-02 0. 8.07542633e-03 -1.01526408e-02
      0. 7.21875066e-03 7.20039895e-03 0. -6.17074966e-02
      -6.17074966e-02 0. -4.40680934e-03 -4.41805320e-03 0.
      -1.01526408e-02 -4.88455873e-03 0. -1.50003983e-03 -1.49622653e-03
      0. -5.83770219e-03 -5.83770219e-03 0. -2.71869823e-03
      -2.72563519e-03 0. -4.88455873e-03 1.16237001e-02 0.
      -1.15375267e-02 -1.15081966e-02 0. -1.80555526e-02 -1.80555526e-02
      0. 1.90857183e-02 1.91344097e-02 0. 1.16237001e-02 1.51417598e-01
      0. -1.48178151e-04 -1.47801460e-04 0. -1.65492028e-03
      -1.65492028e-03 0. 3.58103998e-02 3.59017588e-02 0. 1.51417598e-01
      2.41461456e-01 0. 1.58994067e-02 1.58589799e-02 0. 0. 0. 0.
      1.74568698e-03 1.75014080e-03 0. 2.41461456e-01 1.11815564e-01 0.
      6.30560592e-02 6.28957599e-02 0. -6.78046606e-04 -6.78046606e-04
      0. 0. 0. 0. 1.11815564e-01 -2.16148444e-03 0. 1.07024703e-02
      1.06752636e-02 0. -9.16074309e-03 -9.16074309e-03 0.
      -1.01208482e-02 -1.01466710e-02 0. -2.16148444e-03 -4.53119911e-03
      0. -9.34756070e-04 -9.32379859e-04 0. -4.81523387e-03
      -4.81523387e-03 0. -1.44583534e-03 -1.44952431e-03 0.
      -4.53119911e-03</_>
    <_>
      -1.08534563e-02 0. -3.76869296e-03 -3.75910173e-03 0.
      -1.25784921e-02 -1.25784921e-02 0. -1.61671324e-03 -1.62083237e-03
      0. -1.08534563e-02 -1.81064941e-02 0. 1.32223091e-03
      1.31886557e-03 0. -3.26815210e-02 -3.26815210e-02 0.
      -1.13169914e-02 -1.13458252e-02 0. -1.81064941e-02 9.82311070e-02
      0. 7.18763769e-02 7.16934577e-02 0. -1.79931056e-03
      -1.79931056e-03 0. 0. 0. 0. 9.82311070e-02 2.89166242e-01 0.
      4.12866510e-02 4.11815867e-02 0. 0. 0. 0. 5.12402924e-03
      5.13709523e-03 0. 2.89166242e-01 2.30547398e-01 0. 2.22333954e-04
      2.21768147e-04 0. -7.28006198e-05 -7.28006198e-05 0.
      5.72241955e-02 5.73699921e-02 0. 2.30547398e-01 3.22256535e-02 0.
      -4.66834381e-03 -4.65646293e-03 0. -7.31273927e-03 -7.31273927e-03
      0. 4.08512913e-02 4.09553684e-02 0. 3.22256535e-02 -4.54626232e-03
      0. -6.66906242e-04 -6.65209023e-04 0. -4.50782944e-03
      -4.50782944e-03 0. 7.96726439e-04 7.98756315e-04 0.
      -4.54626232e-03 -9.16124228e-03 0. -3.73262796e-03 -3.72314430e-03
      0. -1.30276203e-01 -1.30276203e-01 0. -1.14015341e-02
      -1.14305830e-02 0. -9.16124228e-03 4.40985411e-02 0.
      2.77103633e-01 2.76398450e-01 0. -2.60657668e-01 -2.60657668e-01
      0. -8.34805146e-02 -8.36932063e-02 0. 4.40985411e-02
      4.67891186e-01 0. 6.83129609e-01 6.81392074e-01 0. 8.76069348e-03
      8.76069348e-03 0. -8.42978247e-04 -8.45125993e-04 0.
      4.67891186e-01 8.19486976e-01 0. 3.72773111e-01 3.71825308e-01 0.
      0. 0. 0. 7.35071301e-02 7.36946687e-02 0. 8.19486976e-01
      7.10480630e-01 0. 1.57191381e-02 1.56791937e-02 0. -5.74949989e-03
      -5.74949989e-03 0. 4.65267539e-01 4.66454178e-01 0. 7.10480630e-01
      1.37132153e-01 0. -8.57821703e-02 -8.55638683e-02 0.
      -4.38819975e-02 -4.38819975e-02 0. 5.62571406e-01 5.64005375e-01
      0. 1.37132153e-01 -5.76629303e-03 0. -9.39280819e-03
      -9.36891139e-03 0. -1.28147891e-02 -1.28147891e-02 0.
      5.83723634e-02 5.85210845e-02 0. -5.76629303e-03 -2.04909150e-03
      0. 4.49862964e-02 4.48718034e-02 0. -1.66609019e-01
      -1.66609019e-01 0. -5.68196997e-02 -5.69646209e-02 0.
      -2.04909150e-03 3.75525095e-02 0. 4.84653264e-01 4.83420461e-01 0.
      -2.37807080e-01 -2.37807080e-01 0. -2.39139363e-01 -2.39748865e-01
      0. 3.75525095e-02 1.39547989e-01 0. 5.35411835e-01 5.34050584e-01
      0. 1.75819516e-01 1.75819516e-01 0. -3.51940282e-03
      -3.52836866e-03 0. 1.39547989e-01 1.16193667e-01 0. 8.84791538e-02
      8.82542282e-02 0. 1.89300184e-03 1.89300184e-03 0. 6.94598444e-03
      6.96370658e-03 0. 1.16193667e-01 9.92949679e-02 0. -5.65117188e-02
      -5.63678928e-02 0. -3.27236094e-02 -3.27236094e-02 0.
      1.56172022e-01 1.56570494e-01 0. 9.92949679e-02 -2.23811418e-02 0.
      -2.97766775e-01 -2.97009259e-01 0. 3.41840833e-01 3.41840833e-01
      0. 4.49252069e-01 4.50397968e-01 0. -2.23811418e-02
      -3.45832594e-02 0. -4.76324894e-02 -4.75113727e-02 0.
      1.78439125e-01 1.78439125e-01 0. 4.44448628e-02 4.45581190e-02 0.
      -3.45832594e-02 1.77306458e-02 0. 2.56965682e-02 2.56311763e-02 0.
      3.15043889e-02 3.15043889e-02 0. -7.21198618e-02 -7.23038688e-02
      0. 1.77306458e-02 1.79883838e-01 0. 1.67088121e-01 1.66663244e-01
      0. -1.35678962e-01 -1.35678962e-01 0. -4.62470353e-01
      -4.63649184e-01 0. 1.79883838e-01 6.09586239e-02 0. 7.96663612e-02
      7.94638395e-02 0. 1.04128152e-01 1.04128152e-01 0. -1.23076908e-01
      -1.23390451e-01 0. 6.09586239e-02 -1.74285972e-03 0.
      -2.94279419e-02 -2.93530487e-02 0. -4.02890565e-03 -4.02890565e-03
      0. -1.57206494e-03 -1.57607009e-03 0. -1.74285972e-03 0. 0.
      -3.79581243e-01 -3.78905594e-01 0. -1.19775102e-01 -1.19775102e-01
      0. 1.07544509e-03 1.07818900e-03 0. 0. -3.66597660e-02 0.
      -3.57656658e-01 -3.58192593e-01 0. 2.27868766e-01 2.27868766e-01
      0. 3.47783938e-02 3.48671265e-02 0. -3.66597660e-02
      -2.19958592e-02 0. -2.04346273e-02 -2.03826576e-02 0.
      1.34127095e-01 1.34127095e-01 0. 4.39082738e-03 4.40202793e-03 0.
      -2.19958592e-02 4.33465093e-03 0. 1.00355288e-02 1.00099891e-02 0.
      9.41559449e-02 9.41559449e-02 0. 3.69608589e-02 3.70551534e-02 0.
      4.33465093e-03 6.41301125e-02 0. 8.79327133e-02 8.77091289e-02 0.
      -2.01273397e-01 -2.01273397e-01 0. -2.31243432e-01 -2.31833234e-01
      0. 6.41301125e-02 -7.08845630e-02 0. 7.22130435e-03 7.20301270e-03
      0. -1.94304049e-01 -1.94304049e-01 0. -4.04665470e-01
      -4.05024022e-01 0. -7.08845630e-02 -2.69321054e-01 0.
      -2.66190588e-01 -2.65803516e-01 0. -1.61323491e-02 -1.61323491e-02
      0. -6.88104108e-02 -6.89857155e-02 0. -2.69321054e-01
      -4.09543440e-02 0. -1.72377422e-01 -1.73971877e-01 0.
      -1.48488030e-01 -1.48488030e-01 0. -4.98327427e-03 -4.99597006e-03
      0. -4.09543440e-02 -1.49283363e-02 0. -2.26013660e-02
      -2.37053651e-02 0. 1.32079631e-01 1.32079631e-01 0. 0. 0. 0.
      -1.49283363e-02 -7.03343656e-03 0. 3.10854223e-02 3.10064163e-02
      0. 8.61694664e-03 8.61694664e-03 0. 0. 0. 0. -7.03343656e-03
      2.04421798e-04 0. 0. 0. 0. 1.23042818e-02 1.23042818e-02 0.
      3.15399319e-02 3.16204019e-02 0. 2.04421798e-04 4.99424562e-02 0.
      0. 0. 0. -1.00545898e-01 -1.00545898e-01 0. 1.37765974e-01
      1.38117179e-01 0. 4.99424562e-02 -1.93022285e-02 0.
      -2.48359069e-02 -2.47727055e-02 0. -9.22065973e-02 -9.22065973e-02
      0. -4.62572016e-02 -4.59938832e-02 0. -1.93022285e-02
      -6.64588138e-02 0. 2.13586520e-02 2.11987253e-02 0.
      -1.48859378e-02 -1.48859378e-02 0. -1.24739725e-02 -1.25058563e-02
      0. -6.64588138e-02 6.50367886e-02 0. 7.51420781e-02 7.45069534e-02
      0. -7.82689378e-02 -7.82689378e-02 0. -1.39456736e-02
      -1.39812045e-02 0. 6.50367886e-02 2.69534811e-03 0. 9.68130231e-02
      9.65668932e-02 0. -1.91873498e-02 -1.91873498e-02 0. 0. 0. 0.
      2.69534811e-03 0. 0. -9.56864562e-03 -9.54432040e-03 0.
      -2.83923605e-03 -2.83923605e-03 0. 0. 0. 0. 0. 1.22653088e-04 0.
      0. 0. 0. 1.68954313e-04 1.68954313e-04 0. 2.44479626e-04
      2.45103380e-04 0. 1.22653088e-04 9.21855308e-03 0. 0. 0. 0.
      -3.77396028e-03 -3.77396028e-03 0. 6.47757761e-03 6.49410486e-03
      0. 9.21855308e-03 5.09130443e-03 0. 8.97282909e-04 8.94998608e-04
      0. -6.16529374e-04 -6.16529374e-04 0. -2.10502166e-02
      -2.11039316e-02 0. 5.09130443e-03 -3.15002128e-02 0.
      2.02060258e-03 2.01545167e-03 0. -2.78148940e-03 -2.78148940e-03
      0. -7.60263205e-03 -7.62203708e-03 0. -3.15002128e-02
      -1.25595983e-02 0. -1.15339439e-02 -1.15046315e-02 0.
      -1.21204858e-03 -1.21204858e-03 0. 0. 0. 0. -1.25595983e-02
      -2.48405500e-03 0. -7.78309396e-03 -7.76330708e-03 0. 0. 0. 0. 0.
      0. 0. -2.48405500e-03 0. 0. -7.72205385e-05 -7.70242405e-05 0. 0.
      0. 0. 0. 0. 0. 0.</_>
    <_>
      0. 0. 0. 0. 0. 0. 0. 0. 0. 0. 0. 0. 9.45931009e-04 0.
      7.81775278e-04 7.79785682e-04 0. -2.64045899e-04 -2.64045899e-04
      0. 0. 0. 0. 9.45931009e-04 1.37473429e-02 0. 1.24723902e-02
      1.24406489e-02 0. -5.40054077e-03 -5.40054077e-03 0.
      -2.08389573e-03 -2.08920497e-03 0. 1.37473429e-02 6.01871759e-02
      0. 4.46179044e-03 4.45043342e-03 0. -1.53088821e-02
      -1.53088821e-02 0. -1.23334983e-02 -1.23649202e-02 0.
      6.01871759e-02 6.52903020e-02 0. -4.89958038e-04 -4.88711346e-04
      0. -6.52694283e-03 -6.52694283e-03 0. 1.39996707e-02
      1.40353376e-02 0. 6.52903020e-02 9.90511384e-03 0. 0. 0. 0. 0. 0.
      0. 1.34618767e-02 1.34961745e-02 0. 9.90511384e-03 0. 0. 0. 0. 0.
      0. 0. 0. 1.41571800e-04 1.41932484e-04 0. 0. -6.64697262e-04 0.
      5.36550244e-04 5.35184750e-04 0. 7.91387167e-04 7.91387167e-04 0.
      0. 0. 0. -6.64697262e-04 5.77749172e-03 0. 7.71535635e-02
      7.69572407e-02 0. 1.69241875e-02 1.69241875e-02 0. 3.19882674e-04
      3.20699590e-04 0. 5.77749172e-03 1.11189298e-01 0. 2.04164639e-01
      2.03645334e-01 0. -9.38317031e-02 -9.38317031e-02 0.
      -4.38144524e-03 -4.39260481e-03 0. 1.11189298e-01 2.63895631e-01
      0. 4.81926091e-02 4.80700843e-02 0. -2.28268981e-01
      -2.28268981e-01 0. -2.30069757e-02 -2.30655726e-02 0.
      2.63895631e-01 2.11859718e-01 0. 1.56141096e-03 1.55744783e-03 0.
      -7.75330812e-02 -7.75330812e-02 0. 1.31807476e-01 1.32143646e-01
      0. 2.11859718e-01 2.09102351e-02 0. -1.10563058e-04
      -1.10281675e-04 0. 2.89944559e-02 2.89944559e-02 0. 1.81205079e-01
      1.81666926e-01 0. 2.09102351e-02 -6.65259955e-04 0. 0. 0. 0.
      1.08222887e-02 1.08222887e-02 0. 1.42976260e-02 1.43340528e-02 0.
      -6.65259955e-04 -6.88311271e-03 0. 6.25555031e-03 6.23963028e-03
      0. 4.98576788e-03 4.98576788e-03 0. -2.76130345e-03
      -2.76834867e-03 0. -6.88311271e-03 -6.59163743e-02 0.
      1.53539315e-01 1.53148741e-01 0. 1.14584424e-01 1.14584424e-01 0.
      -2.85317469e-02 -2.86044590e-02 0. -6.59163743e-02 5.48094977e-03
      0. 1.61235362e-01 1.60825551e-01 0. -9.46817026e-02
      -9.46817026e-02 0. -3.24029140e-02 -3.24854776e-02 0.
      5.48094977e-03 -7.45648369e-02 0. -3.31398938e-03 -3.30554228e-03
      0. -2.90625036e-01 -2.90625036e-01 0. -2.75686234e-02
      -2.76388638e-02 0. -7.45648369e-02 -1.41595110e-01 0.
      -4.37235050e-02 -4.36122678e-02 0. -1.13116868e-01 -1.13116868e-01
      0. 5.74952140e-02 5.76419234e-02 0. -1.41595110e-01
      -8.54843333e-02 0. -2.37738434e-02 -2.37133559e-02 0.
      2.07824796e-01 2.07824796e-01 0. 1.41222864e-01 1.41583115e-01 0.
      -8.54843333e-02 -4.28088335e-03 0. -1.81210029e-03 -1.80749362e-03
      0. 6.95931241e-02 6.95931241e-02 0. 8.53112806e-03 8.55286699e-03
      0. -4.28088335e-03 -1.35410102e-02 0. 1.15577942e-02
      1.15283830e-02 0. 4.25497331e-02 4.25497331e-02 0. -5.63075952e-03
      -5.64512610e-03 0. -1.35410102e-02 -1.11448258e-01 0.
      1.04155518e-01 1.03890598e-01 0. 1.72463328e-01 1.72463328e-01 0.
      -5.60551183e-03 -5.61991334e-03 0. -1.11448258e-01 -1.76749557e-01
      0. 2.02008858e-02 2.01495681e-02 0. -5.02274036e-02
      -5.02274036e-02 0. -1.14070892e-03 -1.14389870e-03 0.
      -1.76749557e-01 -2.67019242e-01 0. -1.15609363e-01 -1.15315355e-01
      0. -2.39371046e-01 -2.39371046e-01 0. -5.01118563e-02
      -5.02395630e-02 0. -2.67019242e-01 -3.09447616e-01 0.
      -5.82511462e-02 -5.81030883e-02 0. -7.16149807e-02 -7.16149807e-02
      0. -4.93348315e-02 -4.94606011e-02 0. -3.09447616e-01
      -2.40434557e-01 0. 1.09931923e-01 1.09652154e-01 0. 2.66141057e-01
      2.66141057e-01 0. -2.29497980e-02 -2.30082888e-02 0.
      -2.40434557e-01 -2.02790089e-02 0. 6.74030790e-03 6.72316737e-03
      0. 8.49937871e-02 8.49937871e-02 0. -8.79081991e-03
      -8.81321356e-03 0. -2.02790089e-02 -5.18160965e-03 0.
      4.00304282e-03 3.99285555e-03 0. 4.94997948e-02 4.94997948e-02 0.
      4.31455672e-03 4.32556402e-03 0. -5.18160965e-03 -5.86421154e-02
      0. 5.75069189e-02 5.73607087e-02 0. 1.36773676e-01 1.36773676e-01
      0. 8.81873742e-02 8.84121060e-02 0. -5.86421154e-02
      -1.15380161e-01 0. 1.99385881e-02 1.98879242e-02 0.
      -1.35921925e-01 -1.35921925e-01 0. 5.91040552e-02 5.92545718e-02
      0. -1.15380161e-01 -1.17688574e-01 0. 2.86022364e-03
      2.85285036e-03 0. -2.20780939e-01 -2.20780939e-01 0.
      -8.05916116e-02 -8.07970166e-02 0. -1.17688574e-01 -1.38375983e-01
      0. 2.10168391e-01 2.09911838e-01 0. -8.80475249e-03
      -8.80475249e-03 0. -5.09898178e-03 -5.11197234e-03 0.
      -1.38375983e-01 -1.16792724e-01 0. 2.96204478e-01 2.95606881e-01
      0. 1.27103463e-01 1.27103463e-01 0. -4.49202023e-03
      -4.50346479e-03 0. -1.16792724e-01 -8.71954300e-03 0.
      2.50863656e-02 2.50225924e-02 0. 1.56107703e-02 1.56107703e-02 0.
      -2.61919457e-03 -2.62586749e-03 0. -8.71954300e-03 -1.28946514e-04
      0. 0. 0. 0. 1.50194513e-02 1.50194513e-02 0. 1.15911467e-02
      1.16207218e-02 0. -1.28946514e-04 2.30508428e-02 0.
      -1.33741824e-02 -1.33401416e-02 0. 3.47937532e-02 3.47937532e-02
      0. 1.19562648e-01 1.19867526e-01 0. 2.30508428e-02 1.51780933e-01
      0. -4.72646989e-02 -4.71444651e-02 0. -7.38030523e-02
      -7.38030523e-02 0. 1.48010090e-01 1.48306534e-01 0. 1.51780933e-01
      2.37578586e-01 0. 9.60964486e-02 9.58518833e-02 0. -2.48119161e-01
      -2.48119161e-01 0. -2.22705733e-02 -2.23274231e-02 0.
      2.37578586e-01 1.22463688e-01 0. 2.68427849e-01 2.68009037e-01 0.
      -7.39251450e-02 -7.39251450e-02 0. -3.95358959e-03 -3.96366743e-03
      0. 1.22463688e-01 -1.09613789e-02 0. 1.46660671e-01 1.46287769e-01
      0. 2.11826377e-02 2.11826377e-02 0. 0. 0. 0. -1.09613789e-02
      -1.87405886e-03 0. 2.50922563e-03 2.50284630e-03 0. 1.80220592e-03
      1.80220592e-03 0. 0. 0. 0. -1.87405886e-03 3.76526354e-04 0. 0. 0.
      0. 6.97771844e-04 6.97771844e-04 0. 6.48755929e-04 6.50411181e-04
      0. 3.76526354e-04 1.30750863e-02 0. -9.17460187e-04
      -9.15125362e-04 0. -1.12185464e-03 -1.12185464e-03 0.
      5.10980142e-03 5.12283854e-03 0. 1.30750863e-02 5.40210269e-02 0.
      -9.48981754e-03 -9.46569163e-03 0. -4.81468206e-03 -4.81468206e-03
      0. 1.66223906e-02 1.66647993e-02 0. 5.40210269e-02 7.91939497e-02
      0. 2.94550462e-03 2.93801283e-03 0. -1.59321968e-02
      -1.59321968e-02 0. -6.51685428e-03 -6.53348444e-03 0.
      7.91939497e-02 3.88051905e-02 0. 2.38387920e-02 2.37781890e-02 0.
      -8.02831445e-03 -8.02831445e-03 0. -1.00711407e-03 -1.00968301e-03
      0. 3.88051905e-02 2.45021330e-03 0. 5.48238400e-03 5.46844676e-03
      0. 0. 0. 0. 0. 0. 0. 2.45021330e-03 0. 0. 0. 0. 0. 0. 0. 0. 0. 0.
      0. 0.</_>
    <_>
      -7.47853704e-03 0. -4.82418202e-03 -4.81190439e-03 0.
      -6.40480919e-03 -6.40480919e-03 0. 0. 0. 0. -7.47853704e-03
      -1.06442839e-01 0. -2.78065354e-02 -2.77357697e-02 0.
      -1.05837248e-02 -1.05837248e-02 0. 0. 0. 0. -1.06442839e-01
      -2.45620579e-01 0. 3.21434066e-02 3.20616215e-02 0.
      -7.43852137e-03 -7.43852137e-03 0. 5.53254620e-04 5.54668251e-04
      0. -2.45620579e-01 -2.33437270e-01 0. -6.93702372e-03
      -6.91936165e-03 0. -1.17579603e-03 -1.17579603e-03 0.
      2.13140459e-03 2.13686307e-03 0. -2.33437270e-01 -2.78314471e-01
      0. -7.29497056e-04 -7.27640640e-04 0. -6.72992831e-03
      -6.72992831e-03 0. 5.17603047e-02 5.18921837e-02 0.
      -2.78314471e-01 -2.27954507e-01 0. -2.95545184e-03 -2.94793886e-03
      0. -1.83281023e-02 -1.83281023e-02 0. 1.05835469e-02
      1.06105115e-02 0. -2.27954507e-01 -2.15429384e-02 0.
      -1.77327101e-03 -1.76876329e-03 0. -2.05137059e-02 -2.05137059e-02
      0. -1.19113429e-02 -1.19416900e-02 0. -2.15429384e-02
      -2.55790446e-02 0. 4.21644701e-03 4.20571957e-03 0.
      -1.10778205e-01 -1.10778205e-01 0. -7.94922747e-03 -7.96950981e-03
      0. -2.55790446e-02 -1.52150899e-01 0. 2.95217931e-01
      2.94467121e-01 0. -1.58317685e-01 -1.58317685e-01 0.
      -3.40658762e-02 -3.41528207e-02 0. -1.52150899e-01 1.33087367e-01
      0. 5.09144843e-01 5.07850289e-01 0. -1.36568248e-01
      -1.36568248e-01 0. 2.79748905e-03 2.80462625e-03 0. 1.33087367e-01
      4.69833612e-01 0. 1.30814657e-01 1.30482256e-01 0. -5.65809235e-02
      -5.65809235e-02 0. 3.91684026e-02 3.92684415e-02 0. 4.69833612e-01
      1.74146399e-01 0. -5.89131489e-02 -5.87633774e-02 0.
      -1.28038451e-01 -1.28038451e-01 0. 4.18533534e-01 4.19601232e-01
      0. 1.74146399e-01 -3.22553813e-01 0. -1.87551171e-01
      -1.87074408e-01 0. -1.35239631e-01 -1.35239631e-01 0.
      5.58584690e-01 5.60008764e-01 0. -3.22553813e-01 -3.87572460e-02
      0. -3.48922797e-02 -3.48035768e-02 0. -1.44240886e-01
      -1.44240886e-01 0. 2.37990450e-02 2.38596871e-02 0.
      -3.87572460e-02 -3.90037820e-02 0. 2.66950987e-02 2.66271606e-02
      0. -8.57250243e-02 -8.57250243e-02 0. -2.08585244e-02
      -2.09117420e-02 0. -3.90037820e-02 -1.27493098e-01 0.
      3.25932950e-01 3.25104356e-01 0. -1.67597175e-01 -1.67597175e-01
      0. -5.10519259e-02 -5.11824451e-02 0. -1.27493098e-01
      4.47404236e-02 0. 2.24939778e-01 2.24368319e-01 0. -3.86911370e-02
      -3.86911370e-02 0. -3.29304412e-02 -3.30145210e-02 0.
      4.47404236e-02 6.90939501e-02 0. 2.11344641e-02 2.10807696e-02 0.
      -1.82774123e-02 -1.82774123e-02 0. -5.21341944e-03 -5.22670196e-03
      0. 6.90939501e-02 -7.53131062e-02 0. -5.31492233e-02
      -5.30141145e-02 0. -1.64817601e-01 -1.64817601e-01 0.
