<?xml version="1.0"?>
<opencv_storage>
<my_svm type_id="opencv-ml-svm">
  <svm_type>C_SVC</svm_type>
  <kernel><type>LINEAR</type></kernel>
  <C>2.6699999999999999e+00</C>
  <term_criteria><epsilon>1.1920928955078125e-07</epsilon>
    <iterations>1000</iterations></term_criteria>
  <var_all>588</var_all>
  <var_count>588</var_count>
  <class_count>17</class_count>
  <class_labels type_id="opencv-matrix">
    <rows>1</rows>
    <cols>17</cols>
    <dt>i</dt>
    <data>
      0 1 2 3 4 5 6 7 8 9 10 11 12 13 14 15 16</data></class_labels>
  <sv_total>136</sv_total>
  <support_vectors>
    <_>
      0. 0. 0. 0. 0. 0. 0. 0. 0. 0. 0. 0. 5.16511500e-04 0. 0. 0. 0. 0.
      0. 0. 0. 0. 0. 5.16511500e-04 1.42480684e-02 0. 3.05869393e-02
      3.05090975e-02 0. 0. 0. 0. 0. 0. 0. 1.42480684e-02 1.13830231e-01
      0. 3.50168534e-02 3.49277407e-02 0. 0. 0. 0. 0. 0. 0.
      1.13830231e-01 1.21093214e-01 0. -4.24236199e-03 -4.23156517e-03
      0. -1.00839958e-02 -1.00839958e-02 0. 1.64837968e-02
      1.65257957e-02 0. 1.21093214e-01 -9.77428816e-03 0.
      -6.03025546e-03 -6.01490866e-03 0. -7.59336445e-03 -7.59336445e-03
      0. 1.60932224e-02 1.61342230e-02 0. -9.77428816e-03
      -3.76519770e-03 0. 0. 0. 0. -1.82904548e-03 -1.82904548e-03 0.
      -9.53088922e-04 -9.55517229e-04 0. -3.76519770e-03 0. 0. 0. 0. 0.
      0. 0. 0. 0. 0. 0. 0. 8.11082218e-03 0. 3.68848927e-02
      3.67910229e-02 0. 3.07429638e-02 3.07429638e-02 0. -3.68211113e-05
      -3.69149202e-05 0. 8.11082218e-03 1.04232095e-01 0. 2.30427846e-01
      2.29841605e-01 0. 3.39285880e-02 3.39285880e-02 0. -9.06832330e-03
      -9.09142662e-03 0. 1.04232095e-01 3.75873744e-01 0. 2.27439806e-01
      2.26861492e-01 0. -8.31774324e-02 -8.31774324e-02 0.
      -3.55790108e-02 -3.56696248e-02 0. 3.75873744e-01 4.16780174e-01
      0. -2.91683036e-03 -2.90933531e-03 0. -1.73664525e-01
      -1.73664525e-01 0. 2.06769779e-01 2.07297251e-01 0. 4.16780174e-01
      -6.71285689e-02 0. -8.82509723e-02 -8.80263895e-02 0.
      -2.14936689e-01 -2.14936689e-01 0. 1.56395122e-01 1.56793714e-01
      0. -6.71285689e-02 -5.02299592e-02 0. -4.62196022e-03
      -4.61020367e-03 0. -7.85727650e-02 -7.85727650e-02 0.
      -1.70266032e-02 -1.70699824e-02 0. -5.02299592e-02 4.26302571e-03
      0. 1.00887660e-03 1.00630918e-03 0. 1.31170722e-02 1.31170722e-02
      0. 0. 0. 0. 4.26302571e-03 4.47541736e-02 0. 5.18102348e-02
      5.16784266e-02 0. 1.44461259e-01 1.44461259e-01 0. -2.57747772e-04
      -2.58404441e-04 0. 4.47541736e-02 5.21608591e-02 0.
      -9.12720352e-05 -3.17225349e-04 0. 5.14624864e-02 5.14624864e-02
      0. -2.00938038e-03 -2.01449520e-03 0. 5.21608591e-02
      3.39102894e-01 0. 1.04704862e-02 9.79387201e-03 0. -2.71167427e-01
      -2.71167427e-01 0. -2.46021282e-02 -2.46646758e-02 0.
      3.39102894e-01 3.56136411e-01 0. -2.57361948e-01 -2.56706953e-01
      0. -1.56489953e-01 -1.56489953e-01 0. 2.67958820e-01
      2.68642485e-01 0. 3.56136411e-01 1.79659352e-01 0. -3.05845350e-01
      -3.05067182e-01 0. -2.39707232e-01 -2.39707232e-01 0.
      3.06141585e-01 3.06922048e-01 0. 1.79659352e-01 4.29860270e-03 0.
      -3.65613699e-02 -3.64684202e-02 0. -1.74809381e-01 -1.74809381e-01
      0. 5.26591800e-02 5.27933463e-02 0. 4.29860270e-03 -7.66653894e-03
      0. -1.21687092e-02 -1.21377409e-02 0. 5.51798865e-02
      5.51798865e-02 0. -7.28170713e-03 -7.30028609e-03 0.
      -7.66653894e-03 -9.46325958e-02 0. -1.02996252e-01 -1.02733508e-01
      0. 2.83140838e-01 2.83140838e-01 0. 2.22798400e-02 2.23365091e-02
      0. -9.46325958e-02 -7.25402534e-02 0. -9.56797041e-03
      -9.54295322e-03 0. -1.98612988e-01 -1.98612988e-01 0.
      1.83655601e-02 1.84123516e-02 0. -7.25402534e-02 -4.77458566e-01
      0. -4.58119601e-01 -4.56954002e-01 0. -3.00982922e-01
      -3.00982922e-01 0. -1.58159770e-02 -1.58561990e-02 0.
      -4.77458566e-01 -5.57063460e-01 0. -1.61315694e-01 -1.61145627e-01
      0. 1.43151619e-02 1.43151619e-02 0. 1.45563064e-02 1.45934531e-02
      0. -5.57063460e-01 -1.07046729e-02 0. 1.00839116e-01
      1.00582562e-01 0. -5.89374714e-02 -5.89374714e-02 0.
      1.35991335e-01 1.36338279e-01 0. -1.07046729e-02 9.61344689e-03 0.
      -1.10873133e-02 -1.10591296e-02 0. -7.34226033e-02 -7.34226033e-02
      0. 8.33957642e-03 8.36082269e-03 0. 9.61344689e-03 -1.13855889e-02
      0. -4.25421782e-02 -4.24339063e-02 0. -3.16976872e-03
      -3.16976872e-03 0. 3.32662947e-02 3.33511680e-02 0.
      -1.13855889e-02 -7.45414495e-02 0. -1.49971500e-01 -1.49589747e-01
      0. 3.06620061e-01 3.06620061e-01 0. 2.93346822e-01 2.94094890e-01
      0. -7.45414495e-02 -7.16925561e-02 0. -1.14437826e-01
      -1.14146911e-01 0. 1.68775290e-01 1.68775290e-01 0. 4.73045290e-01
      4.74250525e-01 0. -7.16925561e-02 -3.22999746e-01 0.
      -2.48772711e-01 -2.48397842e-01 0. -5.21670841e-02 -5.21670841e-02
      0. 8.46940801e-02 8.49098414e-02 0. -3.22999746e-01
      -1.72098920e-01 0. 3.63837212e-01 3.62911046e-01 0.
      -8.42155665e-02 -8.42155665e-02 0. -1.11681022e-01 -1.11965984e-01
      0. -1.72098920e-01 6.35921955e-02 0. 4.68681008e-01 4.67489302e-01
      0. -3.28419805e-01 -3.28419805e-01 0. -1.10410027e-01
      -1.10691674e-01 0. 6.35921955e-02 3.22301164e-02 0. 4.81336750e-02
      4.80113141e-02 0. -2.39766687e-01 -2.39766687e-01 0.
      -7.32597988e-03 -7.34464498e-03 0. 3.22301164e-02 -1.43700289e-02
      0. -2.99165491e-03 -2.98404135e-03 0. -4.07225192e-02
      -4.07225192e-02 0. -7.26694381e-03 -7.28548551e-03 0.
      -1.43700289e-02 -1.37777269e-01 0. -1.87066589e-02 -1.86590701e-02
      0. 3.47797349e-02 3.47797349e-02 0. 1.90392971e-01 1.90878734e-01
      0. -1.37777269e-01 5.70505746e-02 0. -1.78701043e-01
      -1.78246766e-01 0. 6.46424741e-02 6.46424741e-02 0. 3.86318922e-01
      3.87303710e-01 0. 5.70505746e-02 2.99034655e-01 0. -6.80072382e-02
      -6.78346977e-02 0. 4.32958500e-03 4.32958500e-03 0. 1.70878723e-01
      1.71314120e-01 0. 2.99034655e-01 9.17661041e-02 0. 3.72465432e-01
      3.71517956e-01 0. -1.09909683e-01 -1.09909683e-01 0.
      -8.46135467e-02 -8.48294348e-02 0. 9.17661041e-02 -1.76356971e-01
      0. 1.59776390e-01 1.59370229e-01 0. -3.07301104e-01
      -3.07301104e-01 0. -1.64135724e-01 -1.64554402e-01 0.
      -1.76356971e-01 -3.72183807e-02 0. -2.63629202e-02 -2.62959022e-02
      0. -1.41779348e-01 -1.41779348e-01 0. -6.69719744e-03
      -6.71426579e-03 0. -3.72183807e-02 -1.53688842e-03 0. 0. 0. 0.
      -8.70812073e-05 -8.70812073e-05 0. 0. 0. 0. -1.53688842e-03
      -1.58170927e-02 0. 0. 0. 0. 4.15187154e-04 4.15187154e-04 0.
      2.01477408e-02 2.01991480e-02 0. -1.58170927e-02 7.64155984e-02 0.
      -2.96088262e-03 -2.95335590e-03 0. 1.46393664e-04 1.46393664e-04
      0. 9.62291956e-02 9.64747071e-02 0. 7.64155984e-02 2.66293406e-01
      0. 6.91272086e-03 6.89513935e-03 0. 0. 0. 0. 1.80695616e-02
      1.81156565e-02 0. 2.66293406e-01 1.09416790e-01 0. 9.35838521e-02
      9.33459550e-02 0. -2.20236368e-02 -2.20236368e-02 0.
      -9.77511238e-03 -9.80005320e-03 0. 1.09416790e-01 -7.07713291e-02
      0. 6.15807110e-03 6.14241930e-03 0. -2.98110992e-02
      -2.98110992e-02 0. -1.60369836e-02 -1.60779022e-02 0.
      -7.07713291e-02 -1.12774651e-02 0. -3.93477269e-03 -3.92476982e-03
      0. -9.21513978e-03 -9.21513978e-03 0. -7.27881779e-05
      -7.29738822e-05 0. -1.12774651e-02</_>
    <_>
      0. 0. 0. 0. 0. 0. 0. 0. 0. 0. 0. 0. -3.61327524e-03 0.
      -2.84099672e-03 -2.83376663e-03 0. -1.91899866e-03 -1.91899866e-03
      0. 0. 0. 0. -3.61327524e-03 -6.99848589e-03 0. 1.05653889e-02
      1.05385017e-02 0. -4.13814699e-03 -4.13814699e-03 0.
      -1.61539745e-02 -1.61951296e-02 0. -6.99848589e-03 1.22247078e-01
      0. 2.78397873e-02 2.77689379e-02 0. -4.53636469e-03
      -4.53636469e-03 0. -1.65603720e-02 -1.66025627e-02 0.
      1.22247078e-01 1.25348955e-01 0. 2.39441273e-04 2.38831941e-04 0.
      0. 0. 0. 1.87498163e-02 1.87975876e-02 0. 1.25348955e-01
      1.88509170e-02 0. 0. 0. 0. 2.40486977e-03 2.40486977e-03 0.
      2.48131324e-02 2.48763505e-02 0. 1.88509170e-02 -1.66983122e-03 0.
      0. 0. 0. 3.43552849e-04 3.43552849e-04 0. 6.08604387e-05
      6.10155003e-05 0. -1.66983122e-03 0. 0. -4.04124707e-03
      -4.03096247e-03 0. -5.50415227e-03 -5.50415227e-03 0. 0. 0. 0. 0.
      -5.69372140e-02 0. -2.89698429e-02 -2.88961306e-02 0.
      -3.77648510e-02 -3.77648510e-02 0. -2.64962018e-03 -2.65637040e-03
      0. -5.69372140e-02 -5.75731788e-03 0. 1.86180219e-01
      1.85706481e-01 0. -1.80170581e-01 -1.80170581e-01 0.
      -8.20758864e-02 -8.22849870e-02 0. -5.75731788e-03 4.18567002e-01
      0. 1.82396531e-01 1.81932792e-01 0. -1.77244395e-01
      -1.77244395e-01 0. -5.11793047e-02 -5.13096601e-02 0.
      4.18567002e-01 2.86084205e-01 0. -7.50006661e-02 -7.48097375e-02
      0. -6.79390952e-02 -6.79390952e-02 0. 1.96668267e-01
      1.97170019e-01 0. 2.86084205e-01 -1.08404392e-02 0.
      -1.48859754e-01 -1.48480907e-01 0. 5.91513887e-02 5.91513887e-02
      0. 1.77639887e-01 1.78092569e-01 0. -1.08404392e-02
      -3.56898233e-02 0. -5.28906286e-03 -5.27560245e-03 0.
      -2.66895872e-02 -2.66895872e-02 0. -7.21924333e-03 -7.23763695e-03
      0. -3.56898233e-02 3.44870565e-03 0. -2.13267971e-02
      -2.12725215e-02 0. -3.31499577e-02 -3.31499577e-02 0. 0. 0. 0.
      3.44870565e-03 2.32206024e-02 0. 1.17579669e-01 1.17280312e-01 0.
      -9.53032598e-02 -9.53032598e-02 0. -8.55246652e-03 -8.57426971e-03
      0. 2.32206024e-02 2.84062266e-01 0. 9.96115431e-02 9.95051339e-02
      0. -2.47533888e-01 -2.47533888e-01 0. -6.50380403e-02
      -6.52039498e-02 0. 2.84062266e-01 4.36289102e-01 0.
      -2.42112622e-01 -2.41495892e-01 0. -2.34399661e-01 -2.34399661e-01
      0. 2.55164914e-02 2.55816113e-02 0. 4.36289102e-01 3.50258261e-01
      0. -6.79911077e-01 -6.78180695e-01 0. -1.17652610e-01
      -1.17652610e-01 0. 2.24136561e-01 2.24708632e-01 0. 3.50258261e-01
      1.04887970e-01 0. -2.89321601e-01 -2.88585395e-01 0.
      2.88580567e-01 2.88580567e-01 0. 2.51537055e-01 2.52178371e-01 0.
      1.04887970e-01 9.95604903e-04 0. -2.33554989e-02 -2.32961196e-02
      0. -8.25318769e-02 -8.25318769e-02 0. 4.83695306e-02
      4.84927632e-02 0. 9.95604903e-04 7.80914153e-04 0. -8.63202661e-03
      -8.61005671e-03 0. -4.72066775e-02 -4.72066775e-02 0.
      -2.37678434e-03 -2.38284864e-03 0. 7.80914153e-04 4.27853912e-02
      0. 1.49515897e-01 1.49135560e-01 0. 1.15143038e-01 1.15143038e-01
      0. 3.92732583e-03 3.93729238e-03 0. 4.27853912e-02 1.91621110e-01
      0. -1.69952884e-02 -1.69517174e-02 0. -1.02290168e-01
      -1.02290168e-01 0. -1.27460122e-01 -1.27785638e-01 0.
      1.91621110e-01 -1.77420929e-01 0. -7.25135446e-01 -7.24408865e-01
      0. -1.31442890e-01 -1.31442890e-01 0. -1.09994579e-02
      -1.10275624e-02 0. -1.77420929e-01 4.70223539e-02 0.
      -5.75565875e-01 -5.75072825e-01 0. -1.66193992e-01 -1.66193992e-01
      0. 8.15429259e-03 8.17527063e-03 0. 4.70223539e-02 3.05562187e-02
      0. -4.41160761e-02 -4.40041907e-02 0. 1.27211735e-01
      1.27211735e-01 0. 9.67698023e-02 9.70167667e-02 0. 3.05562187e-02
      6.83052978e-03 0. -2.09778585e-02 -2.09245123e-02 0.
      6.33623451e-04 6.33623451e-04 0. 1.17944097e-02 1.18244495e-02 0.
      6.83052978e-03 -4.62494465e-03 0. 2.41354268e-04 2.40740017e-04 0.
      -5.64700700e-02 -5.64700700e-02 0. 1.05608003e-02 1.05877416e-02
      0. -4.62494465e-03 -6.26310110e-02 0. -3.18688503e-03
      -3.17875389e-03 0. 2.41224274e-01 2.41224274e-01 0. 1.52986422e-01
      1.53376654e-01 0. -6.26310110e-02 -2.97064651e-02 0.
      -2.63213336e-01 -2.62543589e-01 0. 2.70886391e-01 2.70886391e-01
      0. 2.52571940e-01 2.53215253e-01 0. -2.97064651e-02
      -2.28049867e-02 0. -4.98291403e-01 -4.97577548e-01 0.
      -1.38099134e-01 -1.38099134e-01 0. 5.61323240e-02 5.62752225e-02
      0. -2.28049867e-02 3.55119079e-01 0. 5.54031581e-02 5.45496643e-02
      0. -2.81878561e-01 -2.81878561e-01 0. -6.94750771e-02
      -6.96523413e-02 0. 3.55119079e-01 1.42548844e-01 0. 3.73023450e-01
      3.72074991e-01 0. -3.73980224e-01 -3.73980224e-01 0.
      -3.13676745e-02 -3.14476304e-02 0. 1.42548844e-01 2.62995157e-02
      0. 3.98292802e-02 3.97280306e-02 0. -1.31252170e-01
      -1.31252170e-01 0. -2.70317160e-02 -2.71005891e-02 0.
      2.62995157e-02 -4.09603305e-03 0. 0. 0. 0. -1.41039025e-02
      -1.41039025e-02 0. -1.51547706e-02 -1.51934382e-02 0.
      -4.09603305e-03 -4.37561907e-02 0. 0. 0. 0. 1.03909031e-01
      1.03909031e-01 0. 1.01954252e-01 1.02214381e-01 0. -4.37561907e-02
      7.81552568e-02 0. -7.78359547e-02 -7.76380599e-02 0.
      8.57599005e-02 8.57599005e-02 0. 3.36618364e-01 3.37476492e-01 0.
      7.81552568e-02 4.66129303e-01 0. -9.39588845e-02 -9.37203690e-02
      0. -1.80425476e-02 -1.80425476e-02 0. 1.45342618e-01
      1.45712912e-01 0. 4.66129303e-01 2.62929142e-01 0. 3.23120803e-01
      3.22298765e-01 0. -2.86673397e-01 -2.86673397e-01 0.
      -8.27070400e-02 -8.29180628e-02 0. 2.62929142e-01 -9.41560343e-02
      0. 1.47134528e-01 1.46760523e-01 0. -2.26505622e-01
      -2.26505622e-01 0. -5.86785041e-02 -5.88281974e-02 0.
      -9.41560343e-02 -2.48961393e-02 0. -3.17052826e-02 -3.16246860e-02
      0. -8.07673931e-02 -8.07673931e-02 0. -8.73702485e-03
      -8.75928439e-03 0. -2.48961393e-02 1.84808705e-05 0. 0. 0. 0. 0.
      0. 0. -3.27084475e-04 -3.27919028e-04 0. 1.84808705e-05
      -1.04723154e-02 0. 0. 0. 0. 3.18361004e-03 3.18361004e-03 0.
      1.78918857e-02 1.79375354e-02 0. -1.04723154e-02 7.42013827e-02 0.
      -5.75671205e-03 -5.74207865e-03 0. 7.07095605e-04 7.07095605e-04
      0. 8.67408589e-02 8.69621485e-02 0. 7.42013827e-02 2.54018217e-01
      0. 3.07257613e-03 3.06475325e-03 0. -3.68530466e-03
      -3.68530466e-03 0. 1.51939578e-02 1.52327213e-02 0. 2.54018217e-01
      1.02154844e-01 0. 7.50190318e-02 7.48283267e-02 0. -5.14639430e-02
      -5.14639430e-02 0. -1.89414416e-02 -1.89897697e-02 0.
      1.02154844e-01 -3.25740352e-02 0. 8.02040007e-03 8.00001342e-03 0.
      -1.79736167e-02 -1.79736167e-02 0. -9.18750837e-03 -9.21095069e-03
      0. -3.25740352e-02 -7.99019355e-03 0. -3.17044882e-03
      -3.16238939e-03 0. -2.19320250e-03 -2.19320250e-03 0. 0. 0. 0.
      -7.99019355e-03</_>
    <_>
      -2.74288072e-06 0. -1.19684404e-03 -1.19379815e-03 0.
      -6.01730077e-04 -6.01730077e-04 0. 0. 0. 0. -2.74288072e-06
      -1.91154275e-02 0. -1.50913224e-02 -1.50529156e-02 0.
      -3.61357117e-03 -3.61357117e-03 0. -4.03558090e-03 -4.04586177e-03
      0. -1.91154275e-02 1.86667815e-02 0. 4.83357012e-02 4.82126884e-02
      0. -1.23786107e-02 -1.23786107e-02 0. -6.72596740e-03
      -6.74310373e-03 0. 1.86667815e-02 1.99040577e-01 0. 4.03850153e-02
      4.02822420e-02 0. 0. 0. 0. 0. 0. 0. 1.99040577e-01 1.93434238e-01
      0. -2.35401792e-04 -2.34802705e-04 0. -5.69473486e-04
      -5.69473486e-04 0. 2.62266081e-02 2.62934286e-02 0. 1.93434238e-01
      2.71347594e-02 0. -1.64781255e-03 -1.64361903e-03 0.
      2.11056578e-03 2.11056578e-03 0. 3.48112658e-02 3.48999575e-02 0.
      2.71347594e-02 -3.70443356e-03 0. 0. 0. 0. -1.09680252e-04
      -1.09680252e-04 0. -4.47785627e-04 -4.48926410e-04 0.
      -3.70443356e-03 -2.59426725e-03 0. -5.18129673e-03 -5.16811060e-03
      0. -2.39397399e-02 -2.39397399e-02 0. 0. 0. 0. -2.59426725e-03
      -3.89302559e-02 0. 4.02905010e-02 4.01878841e-02 0.
      -6.92020059e-02 -6.92020059e-02 0. -1.08199446e-02 -1.08475108e-02
      0. -3.89302559e-02 2.78757632e-01 0. 5.19440174e-01 5.18118441e-01
      0. -2.02337727e-02 -2.02337727e-02 0. -1.51681127e-02
      -1.52067551e-02 0. 2.78757632e-01 8.22538853e-01 0. 4.21131730e-01
      4.20060724e-01 0. 1.31702004e-03 1.31702004e-03 0. 1.34311551e-02
      1.34654231e-02 0. 8.22538853e-01 7.37939596e-01 0. -2.42215022e-02
      -2.41597779e-02 0. -6.21099472e-02 -6.21099472e-02 0.
      3.21942002e-01 3.22763234e-01 0. 7.37939596e-01 -1.09638788e-01 0.
      -1.77838907e-01 -1.77386314e-01 0. -3.24353296e-03 -3.24353296e-03
      0. 3.07573885e-01 3.08357686e-01 0. -1.09638788e-01
      -7.92259723e-02 0. -3.77516774e-03 -3.76556022e-03 0.
      -5.89414760e-02 -5.89414760e-02 0. -9.12091415e-03 -9.14415065e-03
      0. -7.92259723e-02 -1.68322418e-02 0. -3.71144339e-02
      -3.70199792e-02 0. -9.24057886e-02 -9.24057886e-02 0. 0. 0. 0.
      -1.68322418e-02 -2.39303619e-01 0. 3.03644091e-01 3.02871168e-01
      0. -1.74026117e-01 -1.74026117e-01 0. -7.55768791e-02
      -7.57693946e-02 0. -2.39303619e-01 3.91608000e-01 0.
      7.03613222e-01 7.02409327e-01 0. 6.32777289e-02 6.32777289e-02 0.
      5.71314618e-02 5.72770275e-02 0. 3.91608000e-01 6.10183418e-01 0.
      4.00995344e-01 3.99976343e-01 0. -3.82456034e-02 -3.82456034e-02
      0. -2.11029872e-02 -2.11566221e-02 0. 6.10183418e-01
      7.13227153e-01 0. -6.79414943e-02 -6.77684620e-02 0.
      -2.12940693e-01 -2.12940693e-01 0. 3.66929829e-01 3.67866099e-01
      0. 7.13227153e-01 -8.90232809e-03 0. -3.03573877e-01
      -3.02801281e-01 0. -2.16400966e-01 -2.16400966e-01 0.
      3.47132534e-01 3.48017514e-01 0. -8.90232809e-03 -2.07553711e-02
      0. -1.11292945e-02 -1.11009963e-02 0. -2.97478497e-01
      -2.97478497e-01 0. 5.54197617e-02 5.55609651e-02 0.
      -2.07553711e-02 -2.04539718e-03 0. -1.30445044e-02 -1.30113065e-02
      0. -2.47075096e-01 -2.47075096e-01 0. -1.87916181e-03
      -1.88395672e-03 0. -2.04539718e-03 -1.46817997e-01 0.
      9.89678875e-02 9.87160578e-02 0. -1.99586228e-01 -1.99586228e-01
      0. -9.42489952e-02 -9.44891199e-02 0. -1.46817997e-01
      1.72663167e-01 0. -6.51456565e-02 -6.51353449e-02 0.
      -1.79406971e-01 -1.79406971e-01 0. -1.49558589e-01 -1.49939626e-01
      0. 1.72663167e-01 2.61054814e-01 0. -1.53027147e-01
      -1.52637377e-01 0. -5.91992974e-01 -5.91992974e-01 0.
      -3.23365629e-01 -3.24189395e-01 0. 2.61054814e-01 3.34404677e-01
      0. -4.69521612e-01 -4.68326718e-01 0. -1.64089933e-01
      -1.64089933e-01 0. -6.45895228e-02 -6.47538751e-02 0.
      3.34404677e-01 7.17543587e-02 0. -4.77583885e-01 -4.76629406e-01
      0. 1.30284913e-02 1.30284913e-02 0. 1.65182784e-01 1.65604174e-01
      0. 7.17543587e-02 8.37286655e-03 0. -1.58196971e-01
      -1.57794803e-01 0. -1.08252525e-01 -1.08252525e-01 0.
      1.82375535e-02 1.82840209e-02 0. 8.37286655e-03 -1.45242093e-02 0.
      4.93107131e-03 4.91852174e-03 0. -1.66944370e-01 -1.66944370e-01
      0. -8.06757249e-03 -8.08816124e-03 0. -1.45242093e-02
      -2.21033826e-01 0. -1.69587936e-02 -1.69156548e-02 0.
      2.27719709e-01 2.27719709e-01 0. 6.81247786e-02 6.82982430e-02 0.
      -2.21033826e-01 -4.66640182e-02 0. -1.57552823e-01 -1.57211244e-01
      0. 1.09372303e-01 1.09372303e-01 0. -1.28610358e-01
      -1.28938869e-01 0. -4.66640182e-02 -1.73905522e-01 0.
      -1.08501054e-01 -1.08224913e-01 0. -3.60118419e-01 -3.60118419e-01
      0. -6.58698618e-01 -6.60175264e-01 0. -1.73905522e-01
      1.34529114e-01 0. -4.40292954e-02 -4.53220718e-02 0.
      5.06042838e-02 5.06042838e-02 0. -4.22344297e-01 -4.23420310e-01
      0. 1.34529114e-01 1.55058712e-01 0. -2.16331124e-01
      -2.15781242e-01 0. 8.26088246e-03 8.26088246e-03 0.
      -3.16983904e-03 -3.17791477e-03 0. 1.55058712e-01 3.25390920e-02
      0. -4.51505296e-02 -4.50357608e-02 0. -9.36721042e-02
      -9.36721042e-02 0. 0. 0. 0. 3.25390920e-02 -1.54418489e-02 0. 0.
      0. 0. -1.15901725e-02 -1.15901725e-02 0. -1.15140742e-02
      -1.15434537e-02 0. -1.54418489e-02 -1.76049665e-01 0.
      -1.86680425e-02 -1.86205804e-02 0. 1.32169724e-01 1.32169724e-01
      0. 1.39244795e-01 1.39599949e-01 0. -1.76049665e-01
      -5.50876465e-03 0. -8.81934389e-02 -8.79691914e-02 0.
      1.08419530e-01 1.08419530e-01 0. 1.03213035e-01 1.03475250e-01 0.
      -5.50876465e-03 -1.28161032e-02 0. 1.50800332e-01 1.50416449e-01
      0. -6.52977601e-02 -6.52977601e-02 0. -2.64322877e-01
      -2.64997840e-01 0. -1.28161032e-02 -2.29856834e-01 0.
      1.53179273e-01 1.52789131e-01 0. 9.03092325e-02 9.03092325e-02 0.
      -1.97327882e-01 -1.97831020e-01 0. -2.29856834e-01 -5.61534949e-02
      0. -1.06042176e-01 -1.05772443e-01 0. 9.52203944e-02
      9.52203944e-02 0. -5.28306421e-03 -5.29652461e-03 0.
      -5.61534949e-02 2.31876638e-05 0. -3.59719284e-02 -3.58804837e-02
      0. -4.04872857e-02 -4.04872857e-02 0. 0. 0. 0. 2.31876638e-05
      -1.28183983e-05 0. 0. 0. 0. -1.35266106e-03 -1.35266106e-03 0.
      -2.77317769e-04 -2.78025283e-04 0. -1.28183983e-05 -2.78815930e-03
      0. 0. 0. 0. 2.19857646e-03 2.19857646e-03 0. 4.04411331e-02
      4.05443162e-02 0. -2.78815930e-03 1.43789321e-01 0.
      -1.02879889e-02 -1.02618355e-02 0. 1.17782410e-03 1.17782410e-03
      0. 1.10119261e-01 1.10400200e-01 0. 1.43789321e-01 3.30504626e-01
      0. 6.25198381e-03 6.23607216e-03 0. -4.81560733e-03
      -4.81560733e-03 0. -3.03292144e-02 -3.04066017e-02 0.
      3.30504626e-01 5.30783832e-02 0. 1.12469219e-01 1.12183310e-01 0.
      1.06412824e-02 1.06412824e-02 0. -6.68781102e-02 -6.70487434e-02
      0. 5.30783832e-02 -3.51943634e-02 0. -1.02784391e-02
      -1.02523090e-02 0. -5.81016648e-04 -5.81016648e-04 0. 0. 0. 0.
      -3.51943634e-02 0. 0. -2.95384228e-03 -2.94633326e-03 0.
      -1.20264129e-03 -1.20264129e-03 0. 0. 0. 0. 0.</_>
    <_>
      0. 0. 0. 0. 0. 0. 0. 0. 0. 0. 0. 0. 3.39073362e-04 0.
      1.74324392e-04 1.73880748e-04 0. 0. 0. 0. 0. 0. 0. 3.39073362e-04
      9.13113914e-03 0. 1.17590707e-02 1.17291445e-02 0. 0. 0. 0. 0. 0.
      0. 9.13113914e-03 5.25471233e-02 0. 9.27162357e-03 9.24802758e-03
      0. 0. 0. 0. 0. 0. 0. 5.25471233e-02 5.16703688e-02 0. 0. 0. 0. 0.
      0. 0. 6.54977234e-03 6.56645978e-03 0. 5.16703688e-02
      1.11279115e-02 0. 0. 0. 0. 3.53471842e-04 3.53471842e-04 0.
      8.71949736e-03 8.74171313e-03 0. 1.11279115e-02 6.81378006e-05 0.
      0. 0. 0. 5.04959826e-05 5.04959826e-05 0. 1.00875892e-04
      1.01132900e-04 0. 6.81378006e-05 -8.92293872e-04 0.
      -2.47061049e-04 -2.46432290e-04 0. 2.49745004e-04 2.49745004e-04
      0. 0. 0. 0. -8.92293872e-04 -1.16093969e-02 0. 3.19628045e-02
      3.18814628e-02 0. 1.00040343e-02 1.00040343e-02 0. 0. 0. 0.
      -1.16093969e-02 7.10989907e-02 0. 1.22396000e-01 1.22084580e-01 0.
      1.52754728e-02 1.52754728e-02 0. -1.50897147e-04 -1.51281609e-04
      0. 7.10989907e-02 1.95226997e-01 0. 8.77270401e-02 8.75039697e-02
      0. -3.62979472e-02 -3.62979472e-02 0. -2.14607101e-02
      -2.15153731e-02 0. 1.95226997e-01 3.06651443e-01 0. 1.06774764e-02
      1.06503330e-02 0. -1.96437072e-02 -1.96437072e-02 0.
      7.39334449e-02 7.41220638e-02 0. 3.06651443e-01 1.01527713e-01 0.
      0. 0. 0. 2.90126670e-02 2.90126670e-02 0. 1.20668359e-01
      1.20975867e-01 0. 1.01527713e-01 2.14366289e-03 0. 0. 0. 0.
      1.06083062e-02 1.06083062e-02 0. 1.82368290e-02 1.82832908e-02 0.
      2.14366289e-03 -1.64808165e-02 0. -3.47552123e-03 -3.46667483e-03
      0. -1.56188225e-02 -1.56188225e-02 0. -1.12731298e-02
      -1.13018928e-02 0. -1.64808165e-02 -3.27034712e-01 0.
      1.36087477e-01 1.35741144e-01 0. 1.00799918e-01 1.00799918e-01 0.
      -6.33499771e-02 -6.35116026e-02 0. -3.27034712e-01 -2.17719629e-01
      0. 2.09744886e-01 2.09447935e-01 0. 6.78908899e-02 6.78908899e-02
      0. -2.64111012e-02 -2.64785420e-02 0. -2.17719629e-01
      3.41228656e-02 0. -9.48211737e-03 -9.45769995e-03 0.
      -2.48635158e-01 -2.48635158e-01 0. -2.53416523e-02 -2.54061613e-02
      0. 3.41228656e-02 4.62275505e-01 0. -1.18934102e-01
      -1.18631728e-01 0. -2.47552082e-01 -2.47552082e-01 0.
      8.47886279e-02 8.50052908e-02 0. 4.62275505e-01 2.08607361e-01 0.
      -2.93036066e-02 -2.92290282e-02 0. 1.95912093e-01 1.95912093e-01
      0. 3.48797172e-01 3.49686384e-01 0. 2.08607361e-01 -1.90359168e-03
      0. -1.67830742e-03 -1.67403626e-03 0. 1.08110577e-01
      1.08110577e-01 0. 8.22155476e-02 8.24250132e-02 0. -1.90359168e-03
      -2.67526209e-02 0. 2.60926932e-02 2.60262880e-02 0. 7.88828507e-02
      7.88828507e-02 0. -1.04604261e-02 -1.04871150e-02 0.
      -2.67526209e-02 -3.49168450e-01 0. 2.62096107e-01 2.61429608e-01
      0. 2.89359331e-01 2.89359331e-01 0. -7.45627955e-02
      -7.47530684e-02 0. -3.49168450e-01 -5.76194637e-02 0.
      -4.09618095e-02 -4.08569351e-02 0. -2.29522929e-01 -2.29522929e-01
      0. 5.77440020e-03 5.78868017e-03 0. -5.76194637e-02 6.18642420e-02
      0. -6.23607874e-01 -6.22275591e-01 0. -5.74366808e-01
      -5.74366808e-01 0. -1.26546510e-02 -1.26869390e-02 0.
      6.18642420e-02 -1.41043380e-01 0. -3.08068514e-01 -3.07285279e-01
      0. -1.11195900e-01 -1.11195900e-01 0. 4.32005078e-02
      4.33108583e-02 0. -1.41043380e-01 -2.58985341e-01 0.
      4.23552915e-02 4.22474071e-02 0. 3.80746663e-01 3.80746663e-01 0.
      1.64224222e-01 1.64643243e-01 0. -2.58985341e-01 -7.99418092e-02
      0. -7.20297685e-03 -7.18464656e-03 0. 2.01547727e-01
      2.01547727e-01 0. -1.49845118e-02 -1.50226867e-02 0.
      -7.99418092e-02 -3.27405371e-02 0. -1.85387917e-02 -1.84916109e-02
      0. 3.00385356e-02 3.00385356e-02 0. 2.57273968e-02 2.57930346e-02
      0. -3.27405371e-02 -2.68217295e-01 0. -8.34542066e-02
      -8.32417086e-02 0. 2.04820514e-01 2.04820514e-01 0. 1.41378418e-01
      1.41739115e-01 0. -2.68217295e-01 -2.11691409e-02 0.
      -2.22489223e-01 -2.21922934e-01 0. -6.05763607e-02 -6.05763607e-02
      0. 2.45457113e-01 2.46082485e-01 0. -2.11691409e-02
      -2.09652901e-01 0. -6.84390217e-02 -6.82653710e-02 0.
      -1.64106488e-01 -1.64106488e-01 0. 4.66883741e-02 4.68073152e-02
      0. -2.09652901e-01 -3.01308781e-01 0. 2.18550101e-01
      2.18460947e-01 0. 6.57985210e-02 6.57985210e-02 0. -2.31043212e-02
      -2.31632087e-02 0. -3.01308781e-01 -3.26987565e-01 0.
      2.63581008e-01 2.62910575e-01 0. 1.30011708e-01 1.30011708e-01 0.
      -8.06214139e-02 -8.08270723e-02 0. -3.26987565e-01 -4.92196754e-02
      0. 3.27630788e-02 3.26797925e-02 0. -1.08457059e-02
      -1.08457059e-02 0. -2.41497997e-02 -2.42113452e-02 0.
      -4.92196754e-02 -1.65560786e-02 0. -5.51907159e-03 -5.50502585e-03
      0. -3.02081532e-03 -3.02081532e-03 0. 2.81298719e-03
      2.82016397e-03 0. -1.65560786e-02 -1.21432699e-01 0.
      -4.13083397e-02 -4.12032455e-02 0. 5.18893450e-02 5.18893450e-02
      0. 1.17325127e-01 1.17624402e-01 0. -1.21432699e-01 8.51057321e-02
      0. -8.54339600e-02 -8.52167606e-02 0. 3.83908153e-02
      3.83908153e-02 0. 1.29157797e-01 1.29486993e-01 0. 8.51057321e-02
      2.76958704e-01 0. -3.82828154e-03 -3.81878274e-03 0.
      6.30165508e-04 6.30165508e-04 0. 3.08491439e-02 3.09277438e-02 0.
      2.76958704e-01 8.61763582e-02 0. 2.66215622e-01 2.65538573e-01 0.
      2.96086930e-02 2.96086930e-02 0. -9.73434653e-04 -9.75918432e-04
      0. 8.61763582e-02 -1.74506605e-02 0. 1.20869525e-01 1.20562255e-01
      0. 4.14637737e-02 4.14637737e-02 0. -1.05425939e-02
      -1.05694914e-02 0. -1.74506605e-02 -1.45602664e-02 0.
      -1.49186340e-03 -1.48807128e-03 0. -2.38735019e-03 -2.38735019e-03
      0. -8.36199149e-04 -8.38331878e-04 0. -1.45602664e-02
      -3.80447949e-04 0. 0. 0. 0. 0. 0. 0. 1.00875703e-04 1.01133090e-04
      0. -3.80447949e-04 5.17103914e-03 0. 0. 0. 0. 2.39671068e-03
      2.39671068e-03 0. 1.56664457e-02 1.57064181e-02 0. 5.17103914e-03
      7.95631185e-02 0. 0. 0. 0. 5.51827135e-04 5.51827135e-04 0.
      2.27481276e-02 2.28061583e-02 0. 7.95631185e-02 1.26209185e-01 0.
      7.23034050e-03 7.21195154e-03 0. 0. 0. 0. 2.73381360e-03
      2.74078688e-03 0. 1.26209185e-01 5.18137515e-02 0. 3.67903523e-02
      3.66968215e-02 0. 2.42882036e-03 2.42882036e-03 0. 0. 0. 0.
      5.18137515e-02 3.19777243e-03 0. 6.26054453e-03 6.24462962e-03 0.
      2.94683664e-03 2.94683664e-03 0. 0. 0. 0. 3.19777243e-03 0. 0. 0.
      0. 0. 0. 0. 0. 0. 0. 0. 0.</_>
    <_>
      0. 0. 0. 0. 0. 0. 0. 0. 0. 0. 0. 0. -6.91274123e-04 0.
      1.97466739e-04 1.96964203e-04 0. 0. 0. 0. 0. 0. 0. -6.91274123e-04
      7.59833027e-03 0. 2.85630655e-02 2.84903739e-02 0. 0. 0. 0. 0. 0.
      0. 7.59833027e-03 9.70407501e-02 0. 2.10890286e-02 2.10353583e-02
      0. 0. 0. 0. 1.89103175e-05 1.89584971e-05 0. 9.70407501e-02
      9.59999785e-02 0. 0. 0. 0. 0. 0. 0. 1.56717785e-02 1.57117061e-02
      0. 9.59999785e-02 1.55328643e-02 0. 0. 0. 0. 1.86789420e-03
      1.86789420e-03 0. 1.89083908e-02 1.89565644e-02 0. 1.55328643e-02
      -1.13638518e-04 0. 0. 0. 0. 2.66842049e-04 2.66842049e-04 0. 0. 0.
      0. -1.13638518e-04 -8.50365963e-04 0. -6.17893878e-04
      -6.16321398e-04 0. -2.29993439e-03 -2.29993439e-03 0. 0. 0. 0.
      -8.50365963e-04 -3.38856466e-02 0. 2.29310468e-02 2.28726920e-02
      0. -1.15040811e-02 -1.15040811e-02 0. -1.04858796e-03
      -1.05125934e-03 0. -3.38856466e-02 -3.19848619e-02 0.
      2.39795610e-01 2.39185512e-01 0. 2.47322861e-02 2.47322861e-02 0.
      -1.39135923e-02 -1.39490515e-02 0. -3.19848619e-02 2.63071924e-01
      0. 1.98576376e-01 1.98071405e-01 0. -3.51307541e-02
      -3.51307541e-02 0. -8.81582946e-02 -8.83828849e-02 0.
      2.63071924e-01 3.08436662e-01 0. -1.19347665e-02 -1.19043691e-02
      0. -8.52061287e-02 -8.52061287e-02 0. 1.49400473e-01
      1.49781659e-01 0. 3.08436662e-01 -1.09625064e-01 0.
      -2.46358793e-02 -2.45731808e-02 0. 4.69168723e-02 4.69168723e-02
      0. 1.58816338e-01 1.59221008e-01 0. -1.09625064e-01
      -4.10851426e-02 0. -4.07934749e-05 -4.06896615e-05 0.
      -9.64882411e-03 -9.64882411e-03 0. -2.05135299e-03 -2.05657957e-03
      0. -4.10851426e-02 -1.03163747e-02 0. -5.74814658e-05
      -5.73340039e-05 0. -3.19591723e-02 -3.19591723e-02 0. 0. 0. 0.
      -1.03163747e-02 -1.19208582e-01 0. 1.71275973e-01 1.70840099e-01
      0. -7.09512383e-02 -7.09512383e-02 0. -7.31418356e-02
      -7.33281597e-02 0. -1.19208582e-01 -1.09639220e-01 0.
      3.37893784e-01 3.37034285e-01 0. -9.55228880e-03 -9.55228880e-03
      0. -1.04889683e-01 -1.05157033e-01 0. -1.09639220e-01
      1.28579900e-01 0. 9.59669948e-02 9.57232788e-02 0. -3.06917965e-01
      -3.06917965e-01 0. -1.40237421e-01 -1.40594900e-01 0.
      1.28579900e-01 2.78054237e-01 0. -1.73651040e-01 -1.73209280e-01
      0. -2.87737280e-01 -2.87737280e-01 0. 8.36172029e-02
      8.38311389e-02 0. 2.78054237e-01 -1.78490862e-01 0.
      -2.58188874e-01 -2.57531881e-01 0. 6.01442568e-02 6.01442568e-02
      0. 2.21144944e-01 2.21708491e-01 0. -1.78490862e-01
      -4.95027117e-02 0. -3.21564376e-02 -3.20746936e-02 0.
      -1.24036670e-01 -1.24036670e-01 0. 3.61797549e-02 3.62719372e-02
      0. -4.95027117e-02 -2.01768521e-03 0. -1.48980636e-02
      -1.48601495e-02 0. -7.16030449e-02 -7.16030449e-02 0.
      6.77333167e-03 6.79061376e-03 0. -2.01768521e-03 -6.58668857e-03
      0. -4.83805463e-02 -4.82574925e-02 0. -1.55568317e-01
      -1.55568317e-01 0. 1.60984471e-02 1.61394440e-02 0.
      -6.58668857e-03 -5.55634126e-02 0. 1.10569097e-01 1.10287882e-01
      0. -2.80196369e-01 -2.80196369e-01 0. -2.11698502e-01
      -2.12238923e-01 0. -5.55634126e-02 -1.92964926e-01 0.
      -1.02494895e-01 -1.02234282e-01 0. -4.42927659e-01 -4.42927659e-01
      0. -5.78603625e-01 -5.80079079e-01 0. -1.92964926e-01
      -2.59864300e-01 0. -3.17482412e-01 -3.16674829e-01 0.
      5.31116463e-02 5.31116463e-02 0. -2.68256903e-01 -2.68484503e-01
      0. -2.59864300e-01 -2.21655428e-01 0. -4.43912983e-01
      -4.42784071e-01 0. 4.18703467e-01 4.18703467e-01 0. 3.15434895e-02
      3.16240303e-02 0. -2.21655428e-01 -6.26570219e-03 0.
      -1.57344386e-01 -1.56944409e-01 0. 8.43684971e-02 8.43684971e-02
      0. 1.77826628e-03 1.78279402e-03 0. -6.26570219e-03
      -1.22752599e-02 0. -3.19163874e-02 -3.18351649e-02 0.
      -1.50466815e-01 -1.50466815e-01 0. 2.68151704e-02 2.68835854e-02
      0. -1.22752599e-02 9.99309421e-02 0. -2.43716195e-01
      -2.43096501e-01 0. -3.36595297e-01 -3.36595297e-01 0.
      2.82340586e-01 2.83060700e-01 0. 9.99309421e-02 5.25823653e-01 0.
      2.18745004e-02 2.18187273e-02 0. 3.60657088e-02 3.60657088e-02 0.
      1.40024826e-01 1.40380517e-01 0. 5.25823653e-01 1.16303355e-01 0.
      1.24538772e-01 1.24221653e-01 0. -8.88193324e-02 -8.88193324e-02
      0. -4.78943884e-01 -4.79518473e-01 0. 1.16303355e-01
      -2.18944132e-01 0. 3.33753377e-01 3.32903802e-01 0. 2.27453232e-01
      2.27453232e-01 0. -2.32966140e-01 -2.33560219e-01 0.
      -2.18944132e-01 -4.71186154e-02 0. 1.34604514e-01 1.34261996e-01
      0. 3.23561192e-01 3.23561192e-01 0. -1.45011023e-02
      -1.45380683e-02 0. -4.71186154e-02 2.78673172e-02 0.
      -1.79037161e-03 -1.78581604e-03 0. 6.14338629e-02 6.14338629e-02
      0. 0. 0. 0. 2.78673172e-02 -2.18741260e-02 0. -2.83506140e-03
      -2.82785064e-03 0. -5.27422279e-02 -5.27422279e-02 0.
      -1.11990506e-02 -1.12276254e-02 0. -2.18741260e-02 -3.63011472e-02
      0. -6.92631900e-02 -6.90871105e-02 0. -6.84855580e-02
      -6.84855580e-02 0. 1.31714359e-01 1.32050425e-01 0.
      -3.63011472e-02 3.76819789e-01 0. -1.45351002e-02 -1.44981500e-02
      0. 3.20181027e-02 3.20181027e-02 0. 3.00948173e-01 3.01715434e-01
      0. 3.76819789e-01 5.83797753e-01 0. 9.85022634e-02 9.82515737e-02
      0. 3.40656773e-03 3.40656773e-03 0. 1.08605869e-01 1.08882502e-01
      0. 5.83797753e-01 2.42351085e-01 0. 3.76636028e-01 3.75678062e-01
      0. 9.78857502e-02 9.78857502e-02 0. -9.00574680e-03
      -9.02872812e-03 0. 2.42351085e-01 -1.18885306e-03 0.
      1.80220649e-01 1.79762498e-01 0. 1.05680622e-01 1.05680622e-01 0.
      -6.19791914e-04 -6.21373183e-04 0. -1.18885306e-03 -1.15145913e-05
      0. -5.20043395e-05 -5.18721208e-05 0. 2.60896678e-03
      2.60896678e-03 0. 0. 0. 0. -1.15145913e-05 -2.58374191e-03 0. 0.
      0. 0. -7.75162189e-04 -7.75162189e-04 0. -8.13894672e-04
      -8.15971289e-04 0. -2.58374191e-03 -1.02755679e-02 0.
      -2.74908240e-03 -2.74209399e-03 0. 1.22860121e-03 1.22860121e-03
      0. 1.71367172e-02 1.71804391e-02 0. -1.02755679e-02 9.34202820e-02
      0. -3.82825237e-04 -3.81852093e-04 0. -2.09846141e-04
      -2.09846141e-04 0. 6.57412931e-02 6.59090132e-02 0. 9.34202820e-02
      2.09894940e-01 0. 7.42712198e-03 7.40823010e-03 0. 0. 0. 0.
      1.10197961e-02 1.10479128e-02 0. 2.09894940e-01 1.05257727e-01 0.
      6.49647489e-02 6.47995993e-02 0. 7.44519383e-03 7.44519383e-03 0.
      0. 0. 0. 1.05257727e-01 8.88569374e-03 0. 1.43266674e-02
      1.42902490e-02 0. 9.03309695e-03 9.03309695e-03 0. 0. 0. 0.
      8.88569374e-03 0. 0. 0. 0. 0. 0. 0. 0. 0. 0. 0. 0.</_>
    <_>
      0. 0. 0. 0. 0. 0. 0. 0. 0. 0. 0. 0. 0. 0. 0. 0. 0. 0. 0. 0. 0. 0.
      0. 0. 3.07640922e-03 0. 4.61942609e-03 4.60766954e-03 0. 0. 0. 0.
      0. 0. 0. 3.07640922e-03 3.46949063e-02 0. 1.96032543e-02
      1.95533652e-02 0. 0. 0. 0. 0. 0. 0. 3.46949063e-02 5.57816662e-02
      0. 1.15457980e-03 1.15164160e-03 0. 0. 0. 0. 3.37393698e-03
      3.38253262e-03 0. 5.57816662e-02 1.09964414e-02 0. 0. 0. 0. 0. 0.
      0. 1.25538185e-02 1.25858029e-02 0. 1.09964414e-02 0. 0. 0. 0. 0.
      0. 0. 0. 2.42535825e-04 2.43153758e-04 0. 0. 0. 0. 0. 0. 0. 0. 0.
      0. 0. 0. 0. 0. 1.27732512e-02 0. 4.44864221e-02 4.43732068e-02 0.
      0. 0. 0. 0. 0. 0. 1.27732512e-02 1.55880556e-01 0. 1.99872658e-01
      1.99364051e-01 0. 0. 0. 0. 0. 0. 0. 1.55880556e-01 2.37936035e-01
      0. 8.24613497e-02 8.22518542e-02 0. 0. 0. 0. 5.19052614e-03
      5.20376954e-03 0. 2.37936035e-01 7.19620809e-02 0. 2.16624132e-04
      2.16189786e-04 0. 1.04889181e-02 1.04889181e-02 0. 1.01188093e-01
      1.01446234e-01 0. 7.19620809e-02 -9.18467641e-02 0. 0. 0. 0.
      2.99686808e-02 2.99686808e-02 0. 1.11479543e-01 1.11763641e-01 0.
      -9.18467641e-02 -1.13577144e-02 0. 0. 0. 0. 8.38041306e-03
      8.38041306e-03 0. -9.32271127e-03 -9.34645999e-03 0.
      -1.13577144e-02 2.35960283e-03 0. 1.48630440e-02 1.48252193e-02 0.
      2.10255384e-02 2.10255384e-02 0. 0. 0. 0. 2.35960283e-03
      2.21774690e-02 0. 2.18892232e-01 2.18335301e-01 0. 1.19282484e-01
      1.19282484e-01 0. 6.88807864e-04 6.90562767e-04 0. 2.21774690e-02
      9.64832455e-02 0. 2.93733049e-02 2.98911091e-02 0. 3.10076233e-02
      3.10076233e-02 0. 1.14801317e-03 1.15093798e-03 0. 9.64832455e-02
      -9.05663967e-02 0. -2.99671769e-01 -2.99364239e-01 0.
      -1.23979829e-01 -1.23979829e-01 0. 4.24661525e-02 4.25744988e-02
      0. -9.05663967e-02 -1.83721349e-01 0. -1.22130677e-01
      -1.21819876e-01 0. -1.18678205e-01 -1.18678205e-01 0.
      2.66274482e-01 2.66953886e-01 0. -1.83721349e-01 -3.45188349e-01
      0. 9.56995599e-03 9.54560097e-03 0. 4.31685485e-02 4.31685485e-02
      0. 3.17639858e-01 3.18449765e-01 0. -3.45188349e-01
      -6.51986822e-02 0. 1.20634504e-03 1.20327494e-03 0.
      -9.80184749e-02 -9.80184749e-02 0. 4.54663821e-02 4.55822498e-02
      0. -6.51986822e-02 -2.04524025e-02 0. -3.93872783e-02
      -3.92870493e-02 0. 7.94619322e-02 7.94619322e-02 0. 2.50905869e-03
      2.51545943e-03 0. -2.04524025e-02 -8.91067758e-02 0.
      -4.07701403e-01 -4.06663895e-01 0. 4.49733198e-01 4.49733198e-01
      0. 8.54431540e-02 8.56609717e-02 0. -8.91067758e-02
      -9.22289640e-02 0. -4.57197934e-01 -4.57619727e-01 0.
      2.44191796e-01 2.44191796e-01 0. 1.86133251e-01 1.86607465e-01 0.
      -9.22289640e-02 -1.48121119e-01 0. -1.03383219e+00 -1.03233171e+00
      0. -4.49341953e-01 -4.49341953e-01 0. 3.83369029e-02
      3.84346060e-02 0. -1.48121119e-01 -2.37388015e-01 0.
      -3.40938032e-01 -3.40664119e-01 0. -2.64429748e-01 -2.64429748e-01
      0. -2.03573350e-02 -2.04090141e-02 0. -2.37388015e-01
      -2.31348962e-01 0. 2.48122990e-01 2.47491166e-01 0. 1.20219156e-01
      1.20219156e-01 0. 1.04518674e-01 1.04785547e-01 0. -2.31348962e-01
      -7.80671602e-03 0. -4.73443083e-02 -4.72240001e-02 0.
      -4.55323197e-02 -4.55323197e-02 0. 1.66599266e-02 1.67023763e-02
      0. -7.80671602e-03 -3.69250439e-02 0. -2.53925212e-02
      -2.53278986e-02 0. 1.35906395e-02 1.35906395e-02 0. 3.96148823e-02
      3.97159494e-02 0. -3.69250439e-02 -4.89377119e-02 0.
      -3.19261342e-01 -3.18449527e-01 0. 2.82882929e-01 2.82882929e-01
      0. 4.74284291e-01 4.75494027e-01 0. -4.89377119e-02 5.22055149e-01
      0. -3.66852403e-01 -3.65919530e-01 0. -1.33814052e-01
      -1.33814052e-01 0. 6.63683772e-01 6.65374994e-01 0. 5.22055149e-01
      4.36573386e-01 0. -3.04099470e-01 -3.03325832e-01 0.
      -7.78371751e-01 -7.78371751e-01 0. 9.90803540e-02 9.93318632e-02
      0. 4.36573386e-01 2.96128523e-02 0. 1.60117775e-01 1.59709543e-01
      0. -2.16815785e-01 -2.16815785e-01 0. -3.81975505e-03
      -3.82953463e-03 0. 2.96128523e-02 4.58032358e-03 0. 2.05501854e-01
      2.04978615e-01 0. 2.86373892e-03 2.86373892e-03 0. -2.16565598e-02
      -2.17118170e-02 0. 4.58032358e-03 2.19516037e-03 0. 1.05017480e-02
      1.04750376e-02 0. -2.67619919e-02 -2.67619919e-02 0.
      -1.29939364e-02 -1.30270887e-02 0. 2.19516037e-03 -6.30921219e-03
      0. 0. 0. 0. -4.00394929e-04 -4.00394929e-04 0. 6.06248202e-03
      6.07795035e-03 0. -6.30921219e-03 5.77391163e-02 0.
      -1.98262725e-02 -1.97758712e-02 0. 6.78591952e-02 6.78591952e-02
      0. 1.68567017e-01 1.68997079e-01 0. 5.77391163e-02 4.33575392e-01
      0. -9.91004240e-03 -9.88485012e-03 0. -6.60719052e-02
      -6.60719052e-02 0. 3.37965697e-01 3.38827461e-01 0. 4.33575392e-01
      3.75073969e-01 0. 8.22030827e-02 8.19938779e-02 0. -2.19867602e-01
      -2.19867602e-01 0. 5.54948114e-02 5.56359105e-02 0. 3.75073969e-01
      -1.07380927e-01 0. 3.01207751e-01 3.00441384e-01 0.
      -2.06492040e-02 -2.06492040e-02 0. -1.37259336e-02 -1.37609746e-02
      0. -1.07380927e-01 -8.38482305e-02 0. 1.10088669e-01
      1.09808780e-01 0. 1.93265211e-02 1.93265211e-02 0. 0. 0. 0.
      -8.38482305e-02 -7.45579368e-04 0. -1.48034003e-02 -1.47657683e-02
      0. -1.04038008e-02 -1.04038008e-02 0. 0. 0. 0. -7.45579368e-04 0.
      0. 0. 0. 0. 0. 0. 0. 0. 0. 0. 0. 5.02362847e-03 0. 0. 0. 0.
      1.42971228e-03 1.42971228e-03 0. 1.12034185e-02 1.12320045e-02 0.
      5.02362847e-03 6.71662688e-02 0. 0. 0. 0. 2.04244614e-04
      2.04244614e-04 0. 3.52614708e-02 3.53514217e-02 0. 6.71662688e-02
      1.46555170e-01 0. 6.10615499e-03 6.09062100e-03 0. 0. 0. 0.
      5.80780907e-03 5.82261104e-03 0. 1.46555170e-01 4.83644269e-02 0.
      4.68335375e-02 4.67144772e-02 0. 0. 0. 0. 0. 0. 0. 4.83644269e-02
      -5.39192557e-03 0. 9.85360518e-03 9.82855726e-03 0. 0. 0. 0. 0. 0.
      0. -5.39192557e-03 -2.09991878e-04 0. 0. 0. 0. 0. 0. 0. 0. 0. 0.
      -2.09991878e-04</_>
    <_>
      -1.33723865e-04 0. 0. 0. 0. 0. 0. 0. 0. 0. 0. -1.33723865e-04
      -5.12628770e-03 0. 3.81827922e-05 3.80856218e-05 0. 0. 0. 0. 0. 0.
      0. -5.12628770e-03 8.14594049e-03 0. 2.21139863e-02 2.20577065e-02
      0. 0. 0. 0. 0. 0. 0. 8.14594049e-03 8.75646770e-02 0.
      1.85763799e-02 1.85291041e-02 0. 0. 0. 0. 0. 0. 0. 8.75646770e-02
      8.42529237e-02 0. 0. 0. 0. 0. 0. 0. 1.23976646e-02 1.24292523e-02
      0. 8.42529237e-02 1.55912936e-02 0. 0. 0. 0. 1.76967098e-03
      1.76967098e-03 0. 1.50168315e-02 1.50550911e-02 0. 1.55912936e-02
      0. 0. 0. 0. 0. 2.52810161e-04 2.52810161e-04 0. 1.44740497e-05
      1.45109261e-05 0. 0. -1.33949437e-03 0. -1.15701817e-02
      -1.15407361e-02 0. -1.04147578e-02 -1.04147578e-02 0. 0. 0. 0.
      -1.33949437e-03 -6.59007207e-02 0. -6.15719967e-02 -6.14153259e-02
      0. -2.50846148e-02 -2.50846148e-02 0. -1.73344892e-02
      -1.73786525e-02 0. -6.59007207e-02 1.14565209e-01 0.
      1.75475389e-01 1.75028861e-01 0. -6.42994046e-02 -6.42994046e-02
      0. -3.79280262e-02 -3.80246565e-02 0. 1.14565209e-01
      3.66614610e-01 0. 1.56338856e-01 1.55941293e-01 0. -1.77564789e-02
      -1.77564789e-02 0. -1.79313240e-03 -1.79768226e-03 0.
      3.66614610e-01 3.33893657e-01 0. -3.87817249e-03 -3.86828440e-03
      0. -2.87499651e-03 -2.87499651e-03 0. 1.35704860e-01
      1.36050999e-01 0. 3.33893657e-01 5.71396239e-02 0. -1.35212252e-02
      -1.34868147e-02 0. 6.10166751e-02 6.10166751e-02 0. 1.46976233e-01
      1.47350758e-01 0. 5.71396239e-02 -7.52034131e-03 0.
      -1.77671362e-04 -1.77219452e-04 0. 9.49029811e-03 9.49029811e-03
      0. 1.11043872e-02 1.11326771e-02 0. -7.52034131e-03 3.59064690e-03
      0. -2.41384152e-02 -2.40769833e-02 0. -7.46113881e-02
      -7.46113881e-02 0. 0. 0. 0. 3.59064690e-03 -2.24617738e-02 0.
      4.76756180e-03 4.75506252e-03 0. -2.30230302e-01 -2.30230302e-01
      0. -2.07834225e-02 -2.08363701e-02 0. -2.24617738e-02
      3.35791945e-01 0. 1.88414201e-01 1.87968567e-01 0. -1.80756390e-01
      -1.80756390e-01 0. 6.28844864e-05 6.30532595e-05 0. 3.35791945e-01
      3.87232721e-01 0. 4.81915064e-02 4.80695143e-02 0. -2.74294317e-01
      -2.74294317e-01 0. 4.74001989e-02 4.75210883e-02 0. 3.87232721e-01
      1.56048283e-01 0. -1.69372275e-01 -1.68971106e-01 0.
      -5.12185022e-02 -5.12185022e-02 0. 6.71199039e-02 6.72918111e-02
      0. 1.56048283e-01 -7.26721287e-02 0. -1.37436017e-01
      -1.37086377e-01 0. 3.02188307e-01 3.02188307e-01 0. 2.87284642e-01
      2.88017064e-01 0. -7.26721287e-02 -4.22502495e-02 0.
      -4.03341055e-02 -4.02315371e-02 0. 5.90871274e-02 5.90871274e-02
      0. 5.54269329e-02 5.55681549e-02 0. -4.22502495e-02
      -2.78726569e-03 0. -1.38697652e-02 -1.38344644e-02 0.
      -1.00002967e-01 -1.00002967e-01 0. -4.07860149e-03 -4.08900762e-03
      0. -2.78726569e-03 -4.74915132e-02 0. -6.42879866e-03
      -6.41234405e-03 0. -2.42287844e-01 -2.42287844e-01 0.
      3.74557152e-02 3.75511274e-02 0. -4.74915132e-02 1.83457360e-02 0.
      -1.72967449e-01 -1.72813579e-01 0. -3.51581834e-02 -3.51581834e-02
      0. 1.21848568e-01 1.22158997e-01 0. 1.83457360e-02 -7.11536556e-02
      0. -4.19630438e-01 -4.18562472e-01 0. -5.58251500e-01
      -5.58251500e-01 0. -2.46873219e-02 -2.47502998e-02 0.
      -7.11536556e-02 -2.62238622e-01 0. -2.32855052e-01 -2.32293308e-01
      0. -1.10171854e-01 -1.10171854e-01 0. -1.00000970e-01
      -1.00255445e-01 0. -2.62238622e-01 -5.94078541e-01 0.
      -9.57931727e-02 -9.55501869e-02 0. 5.00630975e-01 5.00630975e-01
      0. 1.48098037e-01 1.48475990e-01 0. -5.94078541e-01
      -1.19685277e-01 0. -5.58536686e-02 -5.57116829e-02 0.
      2.04184741e-01 2.04184741e-01 0. -1.47538409e-02 -1.47914290e-02
      0. -1.19685277e-01 -1.77723859e-02 0. 1.42999203e-03
      1.42635219e-03 0. -8.80110860e-02 -8.80110860e-02 0.
      2.08807439e-02 2.09340155e-02 0. -1.77723859e-02 -1.83957875e-01
      0. -1.30852899e-02 -1.30519597e-02 0. -1.39688253e-02
      -1.39688253e-02 0. 1.85128391e-01 1.85600668e-01 0.
      -1.83957875e-01 -1.63009644e-01 0. -3.77206326e-01 -3.76277030e-01
      0. 1.41379967e-01 1.41379967e-01 0. 3.41204762e-01 3.42074066e-01
      0. -1.63009644e-01 7.11615309e-02 0. -1.75537601e-01
      -1.75091445e-01 0. -5.60212851e-01 -5.60212851e-01 0.
      -7.36708269e-02 -7.38591105e-02 0. 7.11615309e-02 1.37800798e-01
      0. 1.36307508e-01 1.36189595e-01 0. -2.52422512e-01
      -2.52422512e-01 0. -2.24851910e-02 -2.25425251e-02 0.
      1.37800798e-01 -1.33229956e-01 0. 4.24777627e-01 4.23697382e-01 0.
      2.53730685e-01 2.53730685e-01 0. -4.74219676e-03 -4.75427881e-03
      0. -1.33229956e-01 -1.56053500e-02 0. 5.61079383e-02
      5.59653081e-02 0. 3.53700519e-02 3.53700519e-02 0. -7.90366158e-03
      -7.92379770e-03 0. -1.56053500e-02 -1.19297309e-02 0. 0. 0. 0.
      -3.30820680e-02 -3.30820680e-02 0. -7.81215448e-03 -7.83208758e-03
      0. -1.19297309e-02 -9.83114988e-02 0. -4.18785699e-02
      -4.17721011e-02 0. 9.46272910e-03 9.46272910e-03 0. 1.16654173e-01
      1.16951801e-01 0. -9.83114988e-02 1.09588407e-01 0.
      -1.72190830e-01 -1.71753064e-01 0. -8.35188478e-03 -8.35188478e-03
      0. 2.14249194e-01 2.14795366e-01 0. 1.09588407e-01 3.30308944e-01
      0. -9.28469896e-02 -9.26112235e-02 0. -2.34560147e-01
      -2.34560147e-01 0. 3.02815475e-02 3.03584319e-02 0. 3.30308944e-01
      2.21171826e-01 0. 1.92383334e-01 1.91893920e-01 0. -4.34512272e-02
      -4.34512272e-02 0. -2.33191112e-03 -2.33786087e-03 0.
      2.21171826e-01 3.21422592e-02 0. 1.54083580e-01 1.53691888e-01 0.
      8.20948333e-02 8.20948333e-02 0. 0. 0. 0. 3.21422592e-02
      -2.50419811e-03 0. 1.79404125e-03 1.78948068e-03 0. 3.01331026e-03
      3.01331026e-03 0. 0. 0. 0. -2.50419811e-03 -1.02127902e-03 0. 0.
      0. 0. 6.29231145e-05 6.29231145e-05 0. 2.34451552e-04
      2.35049796e-04 0. -1.02127902e-03 -9.08457860e-03 0. 0. 0. 0.
      1.09778030e-03 1.09778030e-03 0. 1.27136903e-02 1.27461283e-02 0.
      -9.08457860e-03 5.70086315e-02 0. -5.40807191e-03 -5.39432419e-03
      0. -2.46293587e-03 -2.46293587e-03 0. 5.32382354e-02
      5.33740669e-02 0. 5.70086315e-02 1.32568672e-01 0. -3.45384725e-03
      -3.44506884e-03 0. -7.05017010e-03 -7.05017010e-03 0.
      1.30044378e-03 1.30376290e-03 0. 1.32568672e-01 8.02148506e-02 0.
      5.05522862e-02 5.04237786e-02 0. 4.02744580e-03 4.02744580e-03 0.
      0. 0. 0. 8.02148506e-02 6.66912319e-03 0. 1.15077235e-02
      1.14784706e-02 0. 6.84703607e-03 6.84703607e-03 0. 0. 0. 0.
      6.66912319e-03 0. 0. 0. 0. 0. 0. 0. 0. 0. 0. 0. 0.</_>
    <_>
      0. 0. 0. 0. 0. 0. 0. 0. 0. 0. 0. 0. 4.55191679e-04 0.
      2.14575339e-04 2.14029264e-04 0. 0. 0. 0. 0. 0. 0. 4.55191679e-04
      9.16754268e-03 0. 1.15515785e-02 1.15221813e-02 0. 0. 0. 0. 0. 0.
      0. 9.16754268e-03 4.46518660e-02 0. 1.04763266e-02 1.04496656e-02
      0. 0. 0. 0. 0. 0. 0. 4.46518660e-02 4.23181318e-02 0.
      -1.20573363e-03 -1.20266504e-03 0. 0. 0. 0. 6.70186151e-03
      6.71893638e-03 0. 4.23181318e-02 -2.03988119e-03 0.
      -1.34993892e-03 -1.34650327e-03 0. 1.81785799e-04 1.81785799e-04
      0. 9.46537871e-03 9.48949531e-03 0. -2.03988119e-03
      -1.78188551e-03 0. 0. 0. 0. -3.02646193e-04 -3.02646193e-04 0.
      -3.80960410e-04 -3.81930935e-04 0. -1.78188551e-03 0. 0. 0. 0. 0.
      5.57871070e-04 5.57871070e-04 0. 0. 0. 0. 0. -3.23258503e-03 0.
      4.24651131e-02 4.23570424e-02 0. 8.79419222e-03 8.79419222e-03 0.
      0. 0. 0. -3.23258503e-03 8.89752880e-02 0. 1.68864548e-01
      1.68434903e-01 0. 7.36600114e-03 7.36600114e-03 0. -5.96227078e-03
      -5.97746111e-03 0. 8.89752880e-02 3.68807226e-01 0. 1.01883218e-01
      1.01624146e-01 0. -6.52026618e-03 -6.52026618e-03 0.
      -1.07700462e-02 -1.07974643e-02 0. 3.68807226e-01 3.17815512e-01
      0. -5.33965155e-02 -5.32605834e-02 0. 2.73733330e-03
      2.73733330e-03 0. 1.06047399e-01 1.06317915e-01 0. 3.17815512e-01
      1.90450717e-02 0. -1.33428946e-02 -1.33089395e-02 0.
      2.52240077e-02 2.52240077e-02 0. 1.27236947e-01 1.27561152e-01 0.
      1.90450717e-02 -9.20349453e-03 0. 0. 0. 0. -1.03103779e-02
      -1.03103779e-02 0. 6.85953489e-03 6.87701162e-03 0.
      -9.20349453e-03 2.46058102e-03 0. -2.19984893e-02 -2.19425038e-02
      0. 6.11427799e-03 6.11427799e-03 0. 0. 0. 0. 2.46058102e-03
      -6.92481622e-02 0. -3.35244946e-02 -3.34391482e-02 0.
      1.19536467e-01 1.19536467e-01 0. 6.21575769e-03 6.23161718e-03 0.
      -6.92481622e-02 -1.39412358e-01 0. 3.48732591e-01 3.47939283e-01
      0. 6.35937154e-02 6.35937154e-02 0. -2.19975010e-01
      -2.20535561e-01 0. -1.39412358e-01 2.17816010e-01 0.
      -3.96576151e-02 -3.95559855e-02 0. -1.22997247e-01 -1.22997247e-01
      0. -2.85183311e-01 -2.85909772e-01 0. 2.17816010e-01
      4.49076891e-02 0. -5.26526749e-01 -5.25479436e-01 0.
      9.87762865e-03 9.87762865e-03 0. 2.23971486e-01 2.24543020e-01 0.
      4.49076891e-02 -2.51733005e-01 0. -8.76487792e-02 -8.74258429e-02
      0. 1.30875885e-01 1.30875885e-01 0. 2.79818863e-01 2.80532449e-01
      0. -2.51733005e-01 -3.21475081e-02 0. -1.72641799e-02
      -1.72202941e-02 0. -8.26900141e-05 -8.26900141e-05 0.
      2.21145749e-02 2.21709423e-02 0. -3.21475081e-02 -8.40213988e-03
      0. -1.62260067e-02 -1.61847118e-02 0. -4.74690646e-02
      -4.74690646e-02 0. -5.19319484e-03 -5.20644430e-03 0.
      -8.40213988e-03 -4.09712158e-02 0. -8.38653743e-03 -8.36492423e-03
      0. -4.57544848e-02 -4.57544848e-02 0. 5.02172038e-02
      5.03451526e-02 0. -4.09712158e-02 -6.63920492e-02 0.
      -7.46267512e-02 -7.56805539e-02 0. -1.30822718e-01 -1.30822718e-01
      0. 2.67219972e-02 2.67898627e-02 0. -6.63920492e-02
      -1.42190620e-01 0. -3.09502900e-01 -3.08715463e-01 0.
      -2.10697129e-01 -2.10697129e-01 0. -1.62026554e-01 -1.62439555e-01
      0. -1.42190620e-01 -3.85757685e-01 0. -5.16914606e-01
      -5.16449869e-01 0. -1.48638904e-01 -1.48638904e-01 0.
      -3.65895629e-02 -3.66826132e-02 0. -3.85757685e-01 -1.54070854e-01
      0. -2.06401795e-01 -2.05877259e-01 0. 1.80664763e-01
      1.80664763e-01 0. 1.14649333e-01 1.14941962e-01 0. -1.54070854e-01
      -8.74204468e-03 0. -8.06503072e-02 -8.04453120e-02 0.
      7.52559379e-02 7.52559379e-02 0. -2.05218270e-02 -2.05740929e-02
      0. -8.74204468e-03 -2.99421567e-02 0. -8.27690400e-03
      -8.25584214e-03 0. -2.23940872e-02 -2.23940872e-02 0.
      1.82745326e-02 1.83211546e-02 0. -2.99421567e-02 -1.29516780e-01
      0. -1.58607244e-01 -1.58203810e-01 0. -8.34929273e-02
      -8.34929273e-02 0. 2.02636063e-01 2.03152820e-01 0.
      -1.29516780e-01 9.44299772e-02 0. -5.95376432e-01 -5.93875170e-01
      0. 1.31335691e-01 1.31335691e-01 0. 3.73464406e-01 3.74415904e-01
      0. 9.44299772e-02 -5.91548979e-02 0. -5.47554567e-02
      -5.46167754e-02 0. -4.26089540e-02 -4.26089540e-02 0.
      -2.65543193e-01 -2.66221225e-01 0. -5.91548979e-02 -3.67999613e-01
      0. 3.03513587e-01 3.02741081e-01 0. 6.60265386e-02 6.60265386e-02
      0. -1.61785915e-01 -1.62198529e-01 0. -3.67999613e-01
      -1.27458170e-01 0. 1.41685918e-01 1.41325325e-01 0. 1.61372676e-01
      1.61372676e-01 0. 0. 0. 0. -1.27458170e-01 1.31491851e-02 0.
      -7.41030439e-04 -7.39151146e-04 0. 5.22028059e-02 5.22028059e-02
      0. 0. 0. 0. 1.31491851e-02 -3.39259673e-03 0. -3.01892916e-03
      -3.01124621e-03 0. -1.10150408e-02 -1.10150408e-02 0.
      2.51023797e-03 2.51664221e-03 0. -3.39259673e-03 -5.28050326e-02
      0. -6.35354370e-02 -6.33738562e-02 0. 3.58390436e-02
      3.58390436e-02 0. 6.83350638e-02 6.85093999e-02 0. -5.28050326e-02
      2.88254470e-01 0. -1.56247556e-01 -1.55850366e-01 0.
      4.32127528e-02 4.32127528e-02 0. 1.94011211e-01 1.94505915e-01 0.
      2.88254470e-01 5.73919773e-01 0. 5.57493120e-02 5.56074046e-02 0.
      -2.25699437e-03 -2.25699437e-03 0. 5.70565313e-02 5.72018698e-02
      0. 5.73919773e-01 2.31403455e-01 0. 3.00120443e-01 2.99357086e-01
      0. 3.33431214e-02 3.33431214e-02 0. -9.22655873e-03
      -9.25011002e-03 0. 2.31403455e-01 5.66248130e-03 0. 1.53375626e-01
      1.52985707e-01 0. 4.62683029e-02 4.62683029e-02 0. 0. 0. 0.
      5.66248130e-03 1.19802564e-04 0. 3.16886394e-03 3.16080824e-03 0.
      1.12057920e-03 1.12057920e-03 0. 0. 0. 0. 1.19802564e-04
      -2.96878075e-04 0. 0. 0. 0. -8.31981248e-04 -8.31981248e-04 0.
      -3.05415160e-04 -3.06194444e-04 0. -2.96878075e-04 -4.41837218e-03
      0. -4.15250985e-03 -4.14195331e-03 0. 1.92076596e-03
      1.92076596e-03 0. 9.37812496e-03 9.40205250e-03 0. -4.41837218e-03
      6.31596521e-02 0. -4.65721777e-03 -4.64537786e-03 0.
      -1.80720075e-04 -1.80720075e-04 0. 2.34714840e-02 2.35313531e-02
      0. 6.31596521e-02 1.17891654e-01 0. 6.27754349e-03 6.26157178e-03
      0. 0. 0. 0. 2.51290132e-03 2.51930929e-03 0. 1.17891654e-01
      5.48379645e-02 0. 3.22036929e-02 3.21218222e-02 0. 2.80376477e-03
      2.80376477e-03 0. 0. 0. 0. 5.48379645e-02 4.43968177e-03 0.
      6.81381673e-03 6.79649552e-03 0. 3.40174884e-03 3.40174884e-03 0.
      0. 0. 0. 4.43968177e-03 0. 0. 0. 0. 0. 0. 0. 0. 0. 0. 0. 0.</_>
    <_>
      0. 0. 0. 0. 0. 0. 0. 0. 0. 0. 0. 0. 3.98774719e-04 0. 0. 0. 0. 0.
      0. 0. 0. 0. 0. 3.98774719e-04 1.04819676e-02 0. 1.47810886e-02
      1.47434715e-02 0. 0. 0. 0. 0. 0. 0. 1.04819676e-02 6.47007525e-02
      0. 1.35575812e-02 1.35230785e-02 0. 0. 0. 0. 0. 0. 0.
      6.47007525e-02 6.32404685e-02 0. 0. 0. 0. 0. 0. 0. 8.79015122e-03
      8.81254673e-03 0. 6.32404685e-02 1.19138006e-02 0. 0. 0. 0.
      1.22962671e-03 1.22962671e-03 0. 1.02899978e-02 1.03162136e-02 0.
      1.19138006e-02 0. 0. 0. 0. 0. 1.75660971e-04 1.75660971e-04 0. 0.
      0. 0. 0. 0. 0. 0. 0. 0. 1.37253577e-04 1.37253577e-04 0. 0. 0. 0.
      0. -3.89708657e-05 0. 2.94556879e-02 2.93807276e-02 0.
      2.35501342e-02 2.35501342e-02 0. 0. 0. 0. -3.89708657e-05
      6.98050335e-02 0. 1.22977965e-01 1.22665085e-01 0. 3.42152156e-02
      3.42152156e-02 0. 0. 0. 0. 6.98050335e-02 1.86448261e-01 0.
      1.20642453e-01 1.20335631e-01 0. 5.07643970e-04 5.07643970e-04 0.
      -1.39065878e-02 -1.39420079e-02 0. 1.86448261e-01 2.97083378e-01
      0. 3.46036442e-03 3.45156784e-03 0. 2.94624036e-03 2.94624036e-03
      0. 3.37456129e-02 3.38318609e-02 0. 2.97083378e-01 9.14089903e-02
      0. 0. 0. 0. 4.08722274e-02 4.08722274e-02 0. 1.27924949e-01
      1.28250912e-01 0. 9.14089903e-02 2.52444018e-03 0. 0. 0. 0.
      9.94431973e-03 9.94431973e-03 0. 1.63540617e-02 1.63957272e-02 0.
      2.52444018e-03 1.65202201e-03 0. -2.63667908e-02 -2.62996871e-02
      0. 2.70681805e-03 2.70681805e-03 0. 0. 0. 0. 1.65202201e-03
      -9.19933915e-02 0. -1.83888525e-02 -1.83421373e-02 0.
      1.05354629e-01 1.05354629e-01 0. 8.30255332e-04 8.32370599e-04 0.
      -9.19933915e-02 -2.00111896e-01 0. 1.39103994e-01 1.38750285e-01
      0. 7.02891126e-02 7.02891126e-02 0. 7.67735625e-03 7.69692101e-03
      0. -2.00111896e-01 1.14787161e-01 0. 1.28106520e-01 1.27781019e-01
      0. -1.11131556e-01 -1.11131556e-01 0. -1.21971518e-01
      -1.22282311e-01 0. 1.14787161e-01 5.99155784e-01 0.
      -2.45778002e-02 -2.45152432e-02 0. -1.27788916e-01 -1.27788916e-01
      0. -7.60591328e-02 -7.62522295e-02 0. 5.99155784e-01
      2.21345499e-01 0. -5.68739790e-03 -5.67292841e-03 0.
      1.73732296e-01 1.73732296e-01 0. 3.29169780e-01 3.30008954e-01 0.
      2.21345499e-01 9.64039471e-03 0. 0. 0. 0. 1.13364965e-01
      1.13364965e-01 0. 8.43873024e-02 8.46023113e-02 0. 9.64039471e-03
      -1.37756579e-02 0. -3.02257901e-03 -3.01488396e-03 0.
      -3.10950521e-02 -3.10950521e-02 0. -1.60569139e-02 -1.60978828e-02
      0. -1.37756579e-02 -1.35343283e-01 0. -5.61452657e-02
      -5.60024343e-02 0. 1.17302150e-01 1.17302150e-01 0. 5.27383108e-03
      5.28715178e-03 0. -1.35343283e-01 5.87180629e-03 0.
      -2.63677835e-01 -2.63006657e-01 0. -1.02709815e-01 -1.02709815e-01
      0. 1.19043626e-01 1.19346917e-01 0. 5.87180629e-03 -1.71210751e-01
      0. -4.93287981e-01 -4.93325233e-01 0. -3.19017231e-01
      -3.19017231e-01 0. -6.60775304e-02 -6.62459210e-02 0.
      -1.71210751e-01 -4.14207727e-02 0. -3.89009833e-01 -3.88021022e-01
      0. -8.88625532e-02 -8.88625532e-02 0. 3.56346294e-02
      3.57256383e-02 0. -4.14207727e-02 -1.77148759e-01 0.
      1.40178949e-01 1.39822170e-01 0. 3.66473287e-01 3.66473287e-01 0.
      1.63850337e-01 1.64268449e-01 0. -1.77148759e-01 -5.62293492e-02
      0. 1.20207928e-02 1.19902352e-02 0. 2.37945899e-01 2.37945899e-01
      0. -5.16760675e-03 -5.18077193e-03 0. -5.62293492e-02
      -4.67478335e-02 0. -6.89510163e-03 -6.87755598e-03 0.
      1.83445625e-02 1.83445625e-02 0. 9.23369359e-03 9.25724581e-03 0.
      -4.67478335e-02 -3.78898203e-01 0. -1.14863224e-01 -1.14570923e-01
      0. 1.83705598e-01 1.83705598e-01 0. 1.81059614e-01 1.81521282e-01
      0. -3.78898203e-01 -1.37814552e-01 0. -1.71842605e-01
      -1.71405345e-01 0. 1.54446468e-01 1.54446468e-01 0. 3.23803276e-01
      3.24628204e-01 0. -1.37814552e-01 -1.97094277e-01 0.
      -3.41645367e-02 -3.40780877e-02 0. -1.13933370e-01 -1.13933370e-01
      0. 4.73512076e-02 4.74717431e-02 0. -1.97094277e-01
      -3.69489491e-01 0. 3.03718686e-01 3.03231984e-01 0. 7.64290467e-02
      7.64290467e-02 0. -5.28919250e-02 -5.30268699e-02 0.
      -3.69489491e-01 -4.76412892e-01 0. 4.29435998e-01 4.28343922e-01
      0. 1.69039622e-01 1.69039622e-01 0. -9.55355242e-02
      -9.57791656e-02 0. -4.76412892e-01 -7.39775077e-02 0.
      5.43163233e-02 5.41782454e-02 0. -1.34706637e-02 -1.34706637e-02
      0. -3.31852436e-02 -3.32698002e-02 0. -7.39775077e-02
      -1.15336748e-02 0. -1.81462406e-03 -1.81000598e-03 0.
      5.37650101e-03 5.37650101e-03 0. 6.87312381e-03 6.89065969e-03 0.
      -1.15336748e-02 -5.83307743e-02 0. -2.01275363e-03 -2.00762833e-03
      0. 5.15689850e-02 5.15689850e-02 0. 1.28506333e-01 1.28834188e-01
      0. -5.83307743e-02 1.42742082e-01 0. 1.84126024e-03 1.83655799e-03
      0. 2.88819242e-02 2.88819242e-02 0. 1.64773360e-01 1.65193409e-01
      0. 1.42742082e-01 2.39819899e-01 0. 9.43468064e-02 9.41067338e-02
      0. 2.19216431e-03 2.19216431e-03 0. 7.77003169e-02 7.78982937e-02
      0. 2.39819899e-01 1.12008005e-02 0. 2.71977216e-01 2.71285564e-01
      0. 5.21959998e-02 5.21959998e-02 0. -5.70131466e-03
      -5.71586052e-03 0. 1.12008005e-02 -1.07023373e-01 0.
      1.35469779e-01 1.35125399e-01 0. 4.80130240e-02 4.80130240e-02 0.
      -6.01318963e-02 -6.02853075e-02 0. -1.07023373e-01 -3.52145843e-02
      0. -9.35307704e-03 -9.32930131e-03 0. -2.28538290e-02
      -2.28538290e-02 0. -6.56836340e-03 -6.58511138e-03 0.
      -3.52145843e-02 3.19245970e-04 0. 0. 0. 0. 6.66834589e-04
      6.66834589e-04 0. 6.50217989e-04 6.51877024e-04 0. 3.19245970e-04
      1.61422603e-02 0. 0. 0. 0. 1.60308043e-03 1.60308043e-03 0.
      1.03190709e-02 1.03453994e-02 0. 1.61422603e-02 7.04118013e-02 0.
      0. 0. 0. 0. 0. 0. 3.68581004e-02 3.69521417e-02 0. 7.04118013e-02
      1.33521199e-01 0. 7.68721336e-03 7.66767189e-03 0. 0. 0. 0.
      7.04130763e-03 7.05927378e-03 0. 1.33521199e-01 6.61335588e-02 0.
      4.07620817e-02 4.06584628e-02 0. 3.65908584e-03 3.65908584e-03 0.
      0. 0. 0. 6.61335588e-02 4.69320128e-03 0. 8.23564548e-03
      8.21470935e-03 0. 4.43949178e-03 4.43949178e-03 0. 0. 0. 0.
      4.69320128e-03 0. 0. 0. 0. 0. 0. 0. 0. 0. 0. 0. 0.</_>
    <_>
      0. 0. 0. 0. 0. 0. 0. 0. 0. 0. 0. 0. 5.03901683e-04 0.
      2.41837712e-04 2.41222253e-04 0. 0. 0. 0. 0. 0. 0. 5.03901683e-04
      9.61141568e-03 0. 1.17141278e-02 1.16843171e-02 0. 0. 0. 0. 0. 0.
      0. 9.61141568e-03 4.29143757e-02 0. 7.94312730e-03 7.92291295e-03
      0. 0. 0. 0. 0. 0. 0. 4.29143757e-02 3.79322208e-02 0.
      -2.89415149e-03 -2.88678566e-03 0. -6.53929717e-04 -6.53929717e-04
      0. 6.69730920e-03 6.71437290e-03 0. 3.79322208e-02 -9.38875193e-04
      0. -2.58947490e-03 -2.58288439e-03 0. -1.11341185e-03
      -1.11341185e-03 0. 7.00697443e-03 7.02482695e-03 0.
      -9.38875193e-04 -1.90293664e-04 0. 0. 0. 0. -5.27562399e-04
      -5.27562399e-04 0. -1.99802438e-04 -2.00311493e-04 0.
      -1.90293664e-04 -4.26745228e-03 0. -2.76146480e-03 -2.75443704e-03
      0. -5.53590199e-03 -5.53590199e-03 0. -5.88908908e-04
      -5.90411539e-04 0. -4.26745228e-03 -3.92855033e-02 0.
      3.59429121e-02 3.58514413e-02 0. 3.63821583e-03 3.63821583e-03 0.
      -2.42278669e-02 -2.42895987e-02 0. -3.92855033e-02 1.00377195e-01
      0. 1.17038772e-01 1.16741017e-01 0. 7.18393829e-03 7.18393829e-03
      0. -2.83352546e-02 -2.84074452e-02 0. 1.00377195e-01
      2.47560605e-01 0. 5.09811081e-02 5.08515239e-02 0. -6.06226211e-04
      -6.06226211e-04 0. 1.17851049e-03 1.18153135e-03 0. 2.47560605e-01
      1.20194703e-01 0. -8.74625966e-02 -8.72399956e-02 0.
      -1.43054249e-02 -1.43054249e-02 0. 8.99968743e-02 9.02264416e-02
      0. 1.20194703e-01 -8.64468962e-02 0. -6.31747097e-02
      -6.30139783e-02 0. 6.10517198e-03 6.10517198e-03 0. 7.22040609e-02
      7.23880604e-02 0. -8.64468962e-02 -3.29615064e-02 0.
      -3.76468804e-03 -3.75511404e-03 0. -1.71415657e-02 -1.71415657e-02
      0. -8.72271322e-03 -8.74493644e-03 0. -3.29615064e-02
      -1.02984197e-02 0. 3.31436703e-03 3.30593204e-03 0.
      -2.63590869e-02 -2.63590869e-02 0. -1.52869495e-02 -1.53259542e-02
      0. -1.02984197e-02 -1.17415890e-01 0. 1.98635980e-01
      1.98130503e-01 0. 4.75099124e-02 4.75099124e-02 0. -1.41717315e-01
      -1.42078668e-01 0. -1.17415890e-01 1.94092259e-01 0.
      2.67241389e-01 2.66561687e-01 0. 5.92200942e-02 5.92200942e-02 0.
      -2.59801328e-01 -2.60463327e-01 0. 1.94092259e-01 3.13106477e-01
      0. -2.68522590e-01 -2.67838925e-01 0. -1.06842853e-01
      -1.06842853e-01 0. -5.65411001e-02 -5.66850305e-02 0.
      3.13106477e-01 2.03517631e-01 0. -5.58925807e-01 -5.57670593e-01
      0. 4.32873331e-03 4.32873331e-03 0. 1.65620431e-01 1.66042984e-01
      0. 2.03517631e-01 -1.23641945e-01 0. -3.86069149e-01
      -3.85087222e-01 0. 1.15998864e-01 1.15998864e-01 0. 2.67087221e-01
      2.67768055e-01 0. -1.23641945e-01 -6.26189187e-02 0.
      -6.41440377e-02 -6.39809668e-02 0. -3.21331210e-02 -3.21331210e-02
      0. 4.57167551e-02 4.58332375e-02 0. -6.26189187e-02
      -1.69020370e-02 0. 1.99943651e-02 1.99434794e-02 0. 6.02340512e-02
      6.02340512e-02 0. -2.50368733e-02 -2.51007546e-02 0.
      -1.69020370e-02 -1.60243049e-01 0. 1.40263751e-01 1.39907390e-01
      0. 1.66942492e-01 1.66942492e-01 0. -2.10890949e-01
      -2.11429089e-01 0. -1.60243049e-01 -3.25599872e-02 0.
      2.00007886e-01 1.99499592e-01 0. -6.12500422e-02 -6.12500422e-02
      0. -1.18070394e-01 -1.18371561e-01 0. -3.25599872e-02
      -1.56778265e-02 0. -3.10760379e-01 -3.09969664e-01 0.
      -1.84255749e-01 -1.84255749e-01 0. -1.08030327e-01 -1.08305596e-01
      0. -1.56778265e-02 -1.12265520e-01 0. -3.95082057e-01
      -3.94631356e-01 0. -6.98237345e-02 -6.98237345e-02 0.
      -7.75795504e-02 -7.77769238e-02 0. -1.12265520e-01 -1.03690624e-01
      0. -6.87145367e-02 -6.85403645e-02 0. 3.05501729e-01
      3.05501729e-01 0. 1.14473000e-01 1.14765242e-01 0. -1.03690624e-01
      -1.69093981e-02 0. -9.96175129e-03 -9.93642770e-03 0.
      2.03377187e-01 2.03377187e-01 0. 1.57980639e-02 1.58383138e-02 0.
      -1.69093981e-02 -1.35465562e-02 0. -2.75280941e-02 -2.74580363e-02
      0. 5.82565786e-03 5.82565786e-03 0. 3.01526692e-02 3.02295983e-02
      0. -1.35465562e-02 -4.68449742e-02 0. -3.00915182e-01
      -3.00149530e-01 0. 9.53808129e-02 9.53808129e-02 0. 1.50585204e-01
      1.50969163e-01 0. -4.68449742e-02 2.13025853e-01 0.
      -3.74120623e-01 -3.73169512e-01 0. 4.95748743e-02 4.95748743e-02
      0. 1.37412801e-01 1.37762591e-01 0. 2.13025853e-01 6.21123612e-02
      0. 5.84402792e-02 5.82911894e-02 0. -3.67825814e-02
      -3.67825814e-02 0. -3.72394860e-01 -3.72992754e-01 0.
      6.21123612e-02 -2.37714872e-02 0. 3.74469608e-01 3.73516887e-01 0.
      2.78342962e-02 2.78342962e-02 0. -5.70976973e-01 -5.72332382e-01
      0. -2.37714872e-02 -1.10181652e-01 0. 3.20337325e-01
      3.19522709e-01 0. 2.46987808e-02 2.46987808e-02 0. -2.85883993e-01
      -2.86612362e-01 0. -1.10181652e-01 2.93949023e-02 0.
      4.83534299e-02 4.82305102e-02 0. 1.61058325e-02 1.61058325e-02 0.
      -2.42253672e-02 -2.42870860e-02 0. 2.93949023e-02 -1.01822233e-02
      0. -3.12639051e-03 -3.11843399e-03 0. -1.77106373e-02
      -1.77106373e-02 0. -2.73261569e-03 -2.73958873e-03 0.
      -1.01822233e-02 -6.01532757e-02 0. -7.25004897e-02 -7.23161399e-02
      0. 2.58669071e-02 2.58669071e-02 0. 3.47913876e-02 3.48801427e-02
      0. -6.01532757e-02 2.07333520e-01 0. -1.67650610e-01
      -1.67224348e-01 0. 1.73094384e-02 1.73094384e-02 0. 7.66436458e-02
      7.68389776e-02 0. 2.07333520e-01 3.27536732e-01 0. 2.61854194e-03
      2.61173584e-03 0. -1.18482625e-02 -1.18482625e-02 0.
      -6.84134141e-02 -6.85880184e-02 0. 3.27536732e-01 -5.96921295e-02
      0. 2.05150902e-01 2.04629123e-01 0. 3.20037901e-02 3.20037901e-02
      0. -2.22365960e-01 -2.22933307e-01 0. -5.96921295e-02
      -1.96813211e-01 0. 3.38382907e-02 3.37522663e-02 0.
      -7.18811015e-03 -7.18811015e-03 0. -3.78208943e-02 -3.79173160e-02
      0. -1.96813211e-01 -7.47327879e-03 0. -7.02433102e-03
      -7.00647430e-03 0. -2.27202140e-02 -2.27202140e-02 0.
      -2.69511598e-03 -2.70198239e-03 0. -7.47327879e-03 -4.58858849e-04
      0. 0. 0. 0. 0. 0. 0. 0. 0. 0. -4.58858849e-04 -1.47878390e-03 0.
      -3.84881947e-04 -3.83902399e-04 0. 7.02467863e-04 7.02467863e-04
      0. 9.56834294e-03 9.59275477e-03 0. -1.47878390e-03 4.85244319e-02
      0. -1.13915401e-02 -1.13625806e-02 0. -1.97717571e-03
      -1.97717571e-03 0. 1.68498065e-02 1.68927815e-02 0. 4.85244319e-02
      9.43975002e-02 0. -7.86777178e-04 -7.84790784e-04 0.
      -9.06445086e-04 -9.06445086e-04 0. 1.55139901e-03 1.55535620e-03
      0. 9.43975002e-02 3.73873264e-02 0. 2.71721072e-02 2.71030273e-02
      0. 3.03234160e-03 3.03234160e-03 0. 0. 0. 0. 3.73873264e-02
      -2.16051075e-03 0. 5.77889755e-03 5.76420734e-03 0. 3.67907621e-03
      3.67907621e-03 0. 0. 0. 0. -2.16051075e-03 -2.02879528e-04 0. 0.
      0. 0. 0. 0. 0. 0. 0. 0. -2.02879528e-04</_>
    <_>
      0. 0. 0. 0. 0. 0. 0. 0. 0. 0. 0. 0. 2.89571850e-04 0.
      2.99355946e-04 2.98594096e-04 0. 0. 0. 0. 0. 0. 0. 2.89571850e-04
      1.03173675e-02 0. 1.29290475e-02 1.28961448e-02 0. 0. 0. 0. 0. 0.
      0. 1.03173675e-02 4.40750308e-02 0. 5.67885069e-03 5.66439796e-03
      0. 0. 0. 0. 0. 0. 0. 4.40750308e-02 3.50717977e-02 0. 0. 0. 0. 0.
      0. 0. 8.50457232e-03 8.52624048e-03 0. 3.50717977e-02
      3.59236216e-03 0. 0. 0. 0. 0. 0. 0. 7.26459734e-03 7.28310598e-03
      0. 3.59236216e-03 0. 0. 0. 0. 0. 0. 0. 0. 0. 0. 0. 0.
      -5.46410028e-03 0. -1.63523678e-03 -1.63107517e-03 0.
      -1.15589215e-03 -1.15589215e-03 0. 0. 0. 0. -5.46410028e-03
      -2.35527288e-02 0. 2.69308072e-02 2.68622711e-02 0. 1.06924055e-02
      1.06924055e-02 0. -1.00696590e-02 -1.00953123e-02 0.
      -2.35527288e-02 1.20694458e-01 0. 1.00742221e-01 1.00485891e-01 0.
      2.27779504e-02 2.27779504e-02 0. -3.52967577e-03 -3.53866862e-03
      0. 1.20694458e-01 2.61420548e-01 0. 5.57441711e-02 5.56024350e-02
      0. 1.14927515e-02 1.14927515e-02 0. 3.93164903e-03 3.94168030e-03
      0. 2.61420548e-01 2.05068022e-01 0. 5.98573126e-03 5.97051578e-03
      0. 1.73240888e-03 1.73240888e-03 0. 8.74320865e-02 8.76550898e-02
      0. 2.05068022e-01 4.81950268e-02 0. -2.64706230e-03
      -2.64032558e-03 0. 1.65895429e-02 1.65895429e-02 0. 8.77196640e-02
      8.79431888e-02 0. 4.81950268e-02 -9.54329211e-04 0.
      -1.74633969e-04 -1.74189539e-04 0. 3.41259222e-03 3.41259222e-03
      0. 4.63678129e-03 4.64859419e-03 0. -9.54329211e-04
      -1.75895952e-02 0. -3.53435730e-03 -3.52536049e-03 0.
      -2.44327523e-02 -2.44327523e-02 0. -2.89654769e-02 -2.90393792e-02
      0. -1.75895952e-02 -1.17374420e-01 0. 1.77300185e-01
      1.76848993e-01 0. 6.47064820e-02 6.47064820e-02 0. -2.76193172e-01
      -2.76897252e-01 0. -1.17374420e-01 2.06514195e-01 0.
      2.94516891e-01 2.93767720e-01 0. 9.25090313e-02 9.25090313e-02 0.
      -3.04884642e-01 -3.05661470e-01 0. 2.06514195e-01 3.59700233e-01
      0. 1.05804920e-01 1.05536029e-01 0. 2.44726185e-02 2.44726185e-02
      0. -9.41582397e-02 -9.43980068e-02 0. 3.59700233e-01
      4.25443769e-01 0. -1.12641841e-01 -1.12355143e-01 0.
      1.98594183e-02 1.98594183e-02 0. 1.16688803e-01 1.16986692e-01 0.
      4.25443769e-01 1.49962772e-02 0. -1.90510854e-01 -1.90026119e-01
      0. 1.15963712e-01 1.15963712e-01 0. 2.92948514e-01 2.93695301e-01
      0. 1.49962772e-02 -4.40894105e-02 0. -3.83203812e-02
      -3.82229388e-02 0. 3.53738703e-02 3.53738703e-02 0. 4.96590659e-02
      4.97855879e-02 0. -4.40894105e-02 -1.92891639e-02 0.
      2.82613430e-02 2.81894188e-02 0. 7.32896775e-02 7.32896775e-02 0.
      -1.91785246e-02 -1.92274563e-02 0. -1.92891639e-02 -2.02021599e-01
      0. 2.87193120e-01 2.86462814e-01 0. 1.90093517e-01 1.90093517e-01
      0. -2.00091958e-01 -2.00602517e-01 0. -2.02021599e-01
      -2.46653944e-01 0. 2.19141826e-01 2.18584865e-01 0. 2.58003995e-02
      2.58003995e-02 0. -3.96201760e-01 -3.96813244e-01 0.
      -2.46653944e-01 -3.16117048e-01 0. -1.30206153e-01 -1.30094558e-01
      0. -7.83171803e-02 -7.83171803e-02 0. -4.01770800e-01
      -4.02794987e-01 0. -3.16117048e-01 -2.32775435e-01 0.
      -3.70744675e-01 -3.70021552e-01 0. 3.29411402e-02 3.29411402e-02
      0. -6.13144152e-02 -6.14703558e-02 0. -2.32775435e-01
      -3.18001747e-01 0. -2.58516639e-01 -2.57859558e-01 0.
      2.90120661e-01 2.90120661e-01 0. 1.74640581e-01 1.75086156e-01 0.
      -3.18001747e-01 -6.16442338e-02 0. -8.23001564e-02 -8.20909217e-02
      0. 1.77479073e-01 1.77479073e-01 0. -4.12545027e-03
      -4.13596164e-03 0. -6.16442338e-02 -1.74129046e-02 0.
      -1.08154593e-02 -1.07879341e-02 0. 3.72523181e-02 3.72523181e-02
      0. 3.24258506e-02 3.25085782e-02 0. -1.74129046e-02
      -2.75667280e-01 0. -1.44423202e-01 -1.44055665e-01 0.
      1.54114574e-01 1.54114574e-01 0. 1.70871198e-01 1.71306893e-01 0.
      -2.75667280e-01 -1.02636211e-01 0. -3.05673987e-01 -3.04896593e-01
      0. 5.60541190e-02 5.60541190e-02 0. 1.75098136e-01 1.75544113e-01
      0. -1.02636211e-01 -1.01541489e-01 0. -2.81590104e-01
      -2.80874729e-01 0. -4.91647050e-02 -4.91647050e-02 0.
      2.38787364e-02 2.39394773e-02 0. -1.01541489e-01 1.71333522e-01 0.
      6.31508604e-02 6.29895329e-02 0. 6.46057203e-02 6.46057203e-02 0.
      0. 0. 0. 1.71333522e-01 1.16907731e-01 0. 2.91651309e-01
      2.90909588e-01 0. 1.19625449e-01 1.19625449e-01 0. 0. 0. 0.
      1.16907731e-01 2.61728782e-02 0. 5.15324026e-02 5.14014028e-02 0.
      6.10107854e-02 6.10107854e-02 0. 0. 0. 0. 2.61728782e-02
      -4.55946336e-03 0. -1.12308143e-03 -1.12022331e-03 0.
      -3.73394135e-03 -3.73394135e-03 0. 3.72732175e-03 3.73683148e-03
      0. -4.55946336e-03 -5.46642095e-02 0. -1.43997325e-02
      -1.43631110e-02 0. 4.21912819e-02 4.21912819e-02 0. 7.46185705e-02
      7.48089254e-02 0. -5.46642095e-02 1.48028508e-01 0.
      -6.97357431e-02 -6.95584789e-02 0. 3.73163559e-02 3.73163559e-02
      0. 8.82100910e-02 8.84349048e-02 0. 1.48028508e-01 3.55197281e-01
      0. 1.78470220e-02 1.78015288e-02 0. 0. 0. 0. 1.92228556e-02
      1.92718301e-02 0. 3.55197281e-01 1.84618309e-01 0. 2.25303277e-01
      2.24730223e-01 0. 1.90317705e-02 1.90317705e-02 0. 0. 0. 0.
      1.84618309e-01 3.29246931e-02 0. 9.39761326e-02 9.37372223e-02 0.
      2.64460854e-02 2.64460854e-02 0. 0. 0. 0. 3.29246931e-02
      7.24363723e-04 0. 1.78255094e-03 1.77801948e-03 0. 1.59173377e-03
      1.59173377e-03 0. 0. 0. 0. 7.24363723e-04 0. 0. 0. 0. 0. 0. 0. 0.
      0. 0. 0. 0. 3.74751794e-03 0. 0. 0. 0. 2.62990175e-03
      2.62990175e-03 0. 1.11043546e-02 1.11326864e-02 0. 3.74751794e-03
      5.26868775e-02 0. 0. 0. 0. 6.05517882e-04 6.05517882e-04 0.
      2.05813665e-02 2.06338670e-02 0. 5.26868775e-02 9.06184837e-02 0.
      5.36911748e-03 5.35545731e-03 0. 0. 0. 0. 2.41199555e-03
      2.41814298e-03 0. 9.06184837e-02 3.63445282e-02 0. 3.09090000e-02
      3.08304206e-02 0. 1.51094364e-03 1.51094364e-03 0. 0. 0. 0.
      3.63445282e-02 1.68949272e-03 0. 6.64117699e-03 6.62429491e-03 0.
      1.83319615e-03 1.83319615e-03 0. 0. 0. 0. 1.68949272e-03 0. 0. 0.
      0. 0. 0. 0. 0. 0. 0. 0. 0.</_>
    <_>
      0. 0. 0. 0. 0. 0. 0. 0. 0. 0. 0. 0. 3.10760282e-04 0.
      2.17157835e-03 2.16605142e-03 0. 0. 0. 0. 0. 0. 0. 3.10760282e-04
      1.57285202e-02 0. 9.66453552e-03 9.63993929e-03 0. 0. 0. 0. 0. 0.
      0. 1.57285202e-02 3.91313806e-02 0. 3.16868722e-03 3.16062290e-03
      0. 0. 0. 0. 3.84155632e-04 3.85134364e-04 0. 3.91313806e-02
      2.59474404e-02 0. 1.17040065e-04 1.16742216e-04 0. 0. 0. 0.
      9.81954485e-03 9.84456390e-03 0. 2.59474404e-02 2.97330250e-03 0.
      0. 0. 0. 0. 0. 0. 4.50364314e-03 4.51511750e-03 0. 2.97330250e-03
      0. 0. 0. 0. 0. 0. 0. 0. 2.45859210e-05 2.46485597e-05 0. 0. 0. 0.
      0. 0. 0. 7.10017630e-04 7.10017630e-04 0. 0. 0. 0. 0.
      6.70437375e-03 0. 3.14504765e-02 3.13704424e-02 0. 1.44176222e-02
      1.44176222e-02 0. 0. 0. 0. 6.70437375e-03 1.21933490e-01 0.
      8.71452466e-02 8.69235247e-02 0. 1.83211043e-02 1.83211043e-02 0.
      0. 0. 0. 1.21933490e-01 2.40929395e-01 0. 3.25609632e-02
      3.24781649e-02 0. 7.39795854e-03 7.39795854e-03 0. 2.84934673e-03
      2.85661453e-03 0. 2.40929395e-01 1.82535648e-01 0. 4.45493450e-03
      4.44360869e-03 0. 5.50738117e-03 5.50738117e-03 0. 7.45911449e-02
      7.47813508e-02 0. 1.82535648e-01 4.82740477e-02 0. 0. 0. 0.
      1.75947454e-02 1.75947454e-02 0. 7.37924725e-02 7.39805028e-02 0.
      4.82740477e-02 1.66669837e-03 0. 0. 0. 0. 3.19167227e-03
      3.19167227e-03 0. 3.53181618e-03 3.54081416e-03 0. 1.66669837e-03
      3.10058263e-03 0. 1.16221951e-02 1.15926173e-02 0. 1.38619328e-02
      1.38619328e-02 0. 0. 0. 0. 3.10058263e-03 2.88208667e-02 0.
      1.14137016e-01 1.13846600e-01 0. 6.91568553e-02 6.91568553e-02 0.
      2.25845668e-02 2.26421878e-02 0. 2.88208667e-02 8.64406116e-03 0.
      4.18319069e-02 4.17857543e-02 0. 7.31219724e-02 7.31219724e-02 0.
      1.87606644e-02 1.88085157e-02 0. 8.64406116e-03 -1.65934935e-01 0.
      2.79881451e-02 2.79171970e-02 0. 1.57531835e-02 1.57531835e-02 0.
      3.18345055e-02 3.19157280e-02 0. -1.65934935e-01 -9.85528827e-02
      0. 1.16080567e-02 1.15785478e-02 0. 3.83584760e-02 3.83584760e-02
      0. 3.54013257e-02 3.54919918e-02 0. -9.85528827e-02 4.49359044e-03
      0. 1.56849634e-03 1.56450458e-03 0. 1.16654411e-01 1.16654411e-01
      0. 8.88131037e-02 8.90397057e-02 0. 4.49359044e-03 5.14792046e-03
      0. 4.14726537e-06 4.13671069e-06 0. 5.60544506e-02 5.60544506e-02
      0. 3.56870331e-02 3.57779637e-02 0. 5.14792046e-03 -1.40297133e-02
      0. -2.77359653e-02 -2.76653804e-02 0. 3.61804850e-02
      3.61804850e-02 0. -3.47700622e-03 -3.48587707e-03 0.
      -1.40297133e-02 -1.56060889e-01 0. -1.79551572e-01 -1.79094344e-01
      0. 1.28079832e-01 1.28079832e-01 0. 5.46084605e-02 5.47475964e-02
      0. -1.56060889e-01 -3.17052245e-01 0. -3.18736702e-01
      -3.18712234e-01 0. 7.36445710e-02 7.36445710e-02 0. 8.52276012e-02
      8.54447559e-02 0. -3.17052245e-01 -3.93937588e-01 0.
      -2.69080460e-01 -2.68396497e-01 0. 7.42139388e-03 7.42139388e-03
      0. -6.17663786e-02 -6.19240031e-02 0. -3.93937588e-01
      -3.94599438e-01 0. 1.63683951e-01 1.63267359e-01 0. 3.37263942e-02
      3.37263942e-02 0. -3.50862265e-01 -3.51757169e-01 0.
      -3.94599438e-01 -2.48684168e-01 0. 1.78683221e-01 1.78228498e-01
      0. 2.13625044e-01 2.13625044e-01 0. -3.84291559e-01
      -3.85270953e-01 0. -2.48684168e-01 -5.54675534e-02 0.
      -8.57918523e-03 -8.55737552e-03 0. 9.38499048e-02 9.38499048e-02
      0. -1.07277967e-01 -1.07551299e-01 0. -5.54675534e-02
      -3.19465920e-02 0. -1.84523202e-02 -1.84053592e-02 0.
      -1.28313806e-02 -1.28313806e-02 0. 1.54827610e-02 1.55222602e-02
      0. -3.19465920e-02 -7.00233132e-02 0. -2.55754143e-01
      -2.55103886e-01 0. 8.42432976e-02 8.42432976e-02 0. 2.10183784e-01
      2.10719764e-01 0. -7.00233132e-02 4.37242746e-01 0.
      -2.01792091e-01 -2.01279268e-01 0. 4.20757532e-02 4.20757532e-02
      0. 2.40152031e-01 2.40763903e-01 0. 4.37242746e-01 4.86379743e-01
      0. 1.62638456e-01 1.62224486e-01 0. 2.21801898e-03 2.21801898e-03
      0. 4.34403121e-02 4.35509272e-02 0. 4.86379743e-01 4.17602658e-01
      0. 4.07307774e-01 4.06271607e-01 0. 3.36990319e-02 3.36990319e-02
      0. -8.47289711e-02 -8.49451497e-02 0. 4.17602658e-01
      1.29425786e-02 0. 3.38241667e-01 3.37381512e-01 0. 6.74417466e-02
      6.74417466e-02 0. -2.05377713e-01 -2.05901697e-01 0.
      1.29425786e-02 -4.46579345e-02 0. 2.15187427e-02 2.14640405e-02 0.
      -2.55124806e-03 -2.55124806e-03 0. -2.14699414e-02 -2.15246752e-02
      0. -4.46579345e-02 -5.42769721e-03 0. 0. 0. 0. 1.29711709e-03
      1.29711709e-03 0. 4.79768775e-03 4.80992813e-03 0. -5.42769721e-03
      5.11445440e-02 0. -7.37892324e-03 -7.36016547e-03 0.
      2.67077815e-02 2.67077815e-02 0. 9.69801098e-02 9.72275212e-02 0.
      5.11445440e-02 2.95877159e-01 0. -2.14571692e-03 -2.14026216e-03
      0. 8.24735407e-03 8.24735407e-03 0. 1.15375727e-01 1.15669794e-01
      0. 2.95877159e-01 3.95888925e-01 0. 3.35604995e-02 3.34751047e-02
      0. 0. 0. 0. 3.94370742e-02 3.95375527e-02 0. 3.95888925e-01
      1.90515727e-01 0. 2.05182940e-01 2.04661071e-01 0. 1.31955193e-02
      1.31955193e-02 0. 1.86655270e-05 1.87130827e-05 0. 1.90515727e-01
      2.72262599e-02 0. 9.63433534e-02 9.60984156e-02 0. 2.11551338e-02
      2.11551338e-02 0. 0. 0. 0. 2.72262599e-02 -1.62733858e-03 0.
      2.39351904e-03 2.38743424e-03 0. 2.65827030e-03 2.65827030e-03 0.
      0. 0. 0. -1.62733858e-03 0. 0. 0. 0. 0. 0. 0. 0. 0. 0. 0. 0.
      2.69467849e-03 0. 0. 0. 0. 6.67713874e-04 6.67713874e-04 0.
      6.87329285e-03 6.89082965e-03 0. 2.69467849e-03 3.16558778e-02 0.
      0. 0. 0. 9.53876952e-05 9.53876952e-05 0. 2.52428539e-02
      2.53072530e-02 0. 3.16558778e-02 7.91009292e-02 0. 3.38312867e-03
      3.37452046e-03 0. 0. 0. 0. 4.98666801e-03 4.99937683e-03 0.
      7.91009292e-02 3.59682478e-02 0. 2.77114883e-02 2.76410338e-02 0.
      0. 0. 0. 0. 0. 0. 3.59682478e-02 4.86302568e-04 0. 1.01296799e-02
      1.01039307e-02 0. 0. 0. 0. 0. 0. 0. 4.86302568e-04 0. 0. 0. 0. 0.
      0. 0. 0. 0. 0. 0. 0.</_>
    <_>
      0. 0. 0. 0. 0. 0. 0. 0. 0. 0. 0. 0. 5.01319766e-04 0.
      2.64733506e-04 2.64059752e-04 0. 0. 0. 0. 0. 0. 0. 5.01319766e-04
      9.61813610e-03 0. 1.05135534e-02 1.04867984e-02 0. 0. 0. 0. 0. 0.
      0. 9.61813610e-03 4.14536186e-02 0. 7.70260999e-03 7.68300751e-03
      0. 0. 0. 0. 4.12540365e-04 4.13591421e-04 0. 4.14536186e-02
      3.30091007e-02 0. 0. 0. 0. 0. 0. 0. 9.46440734e-03 9.48852114e-03
      0. 3.30091007e-02 4.38497076e-03 0. 0. 0. 0. 0. 0. 0.
      5.62010845e-03 5.63442754e-03 0. 4.38497076e-03 0. 0. 0. 0. 0. 0.
      0. 0. 4.64186742e-05 4.65369376e-05 0. 0. -2.17910716e-03 0. 0. 0.
      0. 4.19090880e-04 4.19090880e-04 0. 0. 0. 0. -2.17910716e-03
      -2.41119982e-04 0. 4.07677218e-02 4.06639688e-02 0. 9.20246635e-03
      9.20246635e-03 0. 0. 0. 0. -2.41119982e-04 1.41488627e-01 0.
      1.27300918e-01 1.26977041e-01 0. 5.86030306e-03 5.86030306e-03 0.
      0. 0. 0. 1.41488627e-01 2.81894714e-01 0. 7.04925731e-02
      7.03133047e-02 0. 0. 0. 0. 8.48612655e-03 8.50777514e-03 0.
      2.81894714e-01 2.19989702e-01 0. 5.59692364e-03 5.58269583e-03 0.
      1.46083243e-03 1.46083243e-03 0. 9.21232328e-02 9.23581719e-02 0.
      2.19989702e-01 5.73445447e-02 0. 0. 0. 0. 2.04111077e-02
      2.04111077e-02 0. 8.50370675e-02 8.52537602e-02 0. 5.73445447e-02
      3.07138282e-04 0. 0. 0. 0. 3.74080474e-03 3.74080474e-03 0.
      5.60670346e-03 5.62098809e-03 0. 3.07138282e-04 -2.43140031e-02 0.
      -6.62322948e-03 -6.60637533e-03 0. -4.30057049e-02 -4.30057049e-02
      0. -1.46015454e-03 -1.46387878e-03 0. -2.43140031e-02
      -3.87896597e-02 0. 2.08263636e-01 2.07733661e-01 0.
      -5.61943129e-02 -5.61943129e-02 0. -9.31631476e-02 -9.34004933e-02
      0. -3.87896597e-02 4.79530185e-01 0. 3.72430086e-01 3.71591568e-01
      0. 2.13308744e-02 2.13308744e-02 0. -2.51452979e-02
      -2.52093580e-02 0. 4.79530185e-01 6.26958847e-01 0. 1.44137815e-01
      1.43771410e-01 0. 1.21331170e-04 1.21331170e-04 0. 3.53803076e-02
      3.54705788e-02 0. 6.26958847e-01 5.91984570e-01 0. -1.03889685e-02
      -1.03624873e-02 0. 3.38867456e-02 3.38867456e-02 0. 1.82666302e-01
      1.83132336e-01 0. 5.91984570e-01 1.63477480e-01 0. -9.55957100e-02
      -9.53524262e-02 0. 1.36913121e-01 1.36913121e-01 0. 2.96820670e-01
      2.97577262e-01 0. 1.63477480e-01 -1.72263645e-02 0.
      -1.85372401e-02 -1.84900835e-02 0. 4.62080576e-02 4.62080576e-02
      0. 6.26439303e-02 6.28035367e-02 0. -1.72263645e-02
      -7.53650302e-03 0. 1.90361030e-02 1.89876575e-02 0.
      -3.42423096e-02 -3.42423096e-02 0. -6.74627721e-02 -6.76348880e-02
      0. -7.53650302e-03 -3.14336121e-02 0. 2.75969982e-01
      2.75268257e-01 0. -4.94697914e-02 -4.94697914e-02 0.
      -4.50489253e-01 -4.51637655e-01 0. -3.14336121e-02 -5.69461361e-02
      0. 2.91377515e-01 2.90636748e-01 0. 5.27959988e-02 5.27959988e-02
      0. -3.19770932e-01 -3.20585698e-01 0. -5.69461361e-02
      -6.47963956e-02 0. -6.07789904e-02 -6.06241487e-02 0.
      9.09177866e-03 9.09177866e-03 0. -5.03223063e-03 -5.04497997e-03
      0. -6.47963956e-02 -1.25095963e-01 0. -3.03743362e-01
      -3.03368151e-01 0. 6.27054274e-02 6.27054274e-02 0. 8.04774761e-02
      8.06828216e-02 0. -1.25095963e-01 -3.22127730e-01 0.
      -3.46211672e-01 -3.45728546e-01 0. 2.91689724e-01 2.91689724e-01
      0. 1.58521324e-01 1.58925816e-01 0. -3.22127730e-01
      -9.12145227e-02 0. -8.59473422e-02 -8.57288092e-02 0.
      1.00666389e-01 1.00666389e-01 0. -2.92996205e-02 -2.93742698e-02
      0. -9.12145227e-02 9.92331072e-04 0. 1.06068037e-03 1.05798093e-03
      0. 4.31768522e-02 4.31768522e-02 0. 3.39874672e-03 3.40741267e-03
      0. 9.92331072e-04 -2.90543139e-02 0. 2.70715747e-02 2.70027407e-02
      0. 1.55324757e-01 1.55324757e-01 0. -1.85292974e-01
      -1.85765907e-01 0. -2.90543139e-02 -2.83137113e-01 0.
      7.94631988e-02 7.92610720e-02 0. 1.44627452e-01 1.44627452e-01 0.
      -1.65950269e-01 -1.66373596e-01 0. -2.83137113e-01 -3.16795975e-01
      0. -2.78254808e-03 -2.77553662e-03 0. 1.23094637e-02
      1.23094637e-02 0. 3.67892459e-02 3.68829630e-02 0. -3.16795975e-01
      -3.10358077e-01 0. -8.61667767e-02 -8.58390629e-02 0.
      6.81586117e-02 6.81586117e-02 0. 0. 0. 0. -3.10358077e-01
      -1.50277585e-01 0. 2.91120894e-02 2.90378239e-02 0. 1.20898612e-01
      1.20898612e-01 0. -1.12700067e-03 -1.12987205e-03 0.
      -1.50277585e-01 -7.45498156e-03 0. -1.07812707e-03 -1.07538665e-03
      0. 3.43340784e-02 3.43340784e-02 0. -1.87833444e-03
      -1.88312016e-03 0. -7.45498156e-03 8.36629071e-04 0. 0. 0. 0.
      3.32014845e-03 3.32014845e-03 0. 6.60066493e-03 6.61750557e-03 0.
      8.36629071e-04 5.37987202e-02 0. 0. 0. 0. 6.53620884e-02
      6.53620884e-02 0. 6.14325255e-02 6.15892448e-02 0. 5.37987202e-02
      1.49733648e-01 0. 1.51195342e-03 1.50810566e-03 0. 6.51085824e-02
      6.51085824e-02 0. 6.02624975e-02 6.04160503e-02 0. 1.49733648e-01
      1.93041012e-01 0. 7.81140700e-02 7.79152811e-02 0. 1.66906603e-03
      1.66906603e-03 0. 1.41069349e-02 1.41428746e-02 0. 1.93041012e-01
      7.10702315e-02 0. 2.04828411e-01 2.04307452e-01 0. 1.60429198e-02
      1.60429198e-02 0. 0. 0. 0. 7.10702315e-02 2.84190737e-02 0.
      7.93383718e-02 7.91366771e-02 0. 3.39950919e-02 3.39950919e-02 0.
      0. 0. 0. 2.84190737e-02 7.24363723e-04 0. 7.50737381e-04
      7.48828868e-04 0. 1.04007311e-03 1.04007311e-03 0. 0. 0. 0.
      7.24363723e-04 8.12179351e-05 0. 0. 0. 0. 0. 0. 0. 4.64185869e-05
      4.65370249e-05 0. 8.12179351e-05 4.51347465e-03 0. 0. 0. 0.
      2.66966247e-03 2.66966247e-03 0. 1.30157629e-02 1.30489711e-02 0.
      4.51347465e-03 6.01098016e-02 0. 2.15993336e-04 2.15443666e-04 0.
      5.65612805e-04 5.65612805e-04 0. 1.87235866e-02 1.87713448e-02 0.
      6.01098016e-02 9.14112329e-02 0. 9.76519007e-03 9.74035077e-03 0.
      0. 0. 0. 1.79983245e-03 1.80441781e-03 0. 9.14112329e-02
      3.48220244e-02 0. 3.04306746e-02 3.03533133e-02 0. 1.21124252e-03
      1.21124252e-03 0. 0. 0. 0. 3.48220244e-02 1.96852395e-03 0.
      5.65554807e-03 5.64117078e-03 0. 1.46957499e-03 1.46957499e-03 0.
      0. 0. 0. 1.96852395e-03 0. 0. 0. 0. 0. 0. 0. 0. 0. 0. 0. 0.</_>
    <_>
      0. 0. 0. 0. 0. 0. 0. 0. 0. 0. 0. 0. 3.72053910e-04 0.
      2.64282735e-05 2.63610145e-05 0. -1.97776506e-04 -1.97776506e-04
      0. 0. 0. 0. 3.72053910e-04 -2.97259842e-03 0. 1.62290893e-02
      1.61877871e-02 0. -1.38443569e-03 -1.38443569e-03 0.
      -3.56857345e-04 -3.57766548e-04 0. -2.97259842e-03 4.33563590e-02
      0. 1.25511251e-02 1.25191845e-02 0. -1.19436171e-03
      -1.19436171e-03 0. -7.40755303e-03 -7.42642395e-03 0.
      4.33563590e-02 6.60048053e-02 0. 0. 0. 0. -7.16616982e-04
      -7.16616982e-04 0. 1.06023969e-02 1.06294109e-02 0. 6.60048053e-02
      1.31052025e-02 0. 0. 0. 0. 1.74933253e-03 1.74933253e-03 0.
      1.31082628e-02 1.31416591e-02 0. 1.31052025e-02 0. 0. 0. 0. 0.
      2.49904668e-04 2.49904668e-04 0. 0. 0. 0. 0. -9.33235569e-04 0. 0.
      0. 0. 0. 0. 0. 0. 0. 0. -9.33235569e-04 5.44894328e-06 0.
      2.59036291e-02 2.58377045e-02 0. 1.77944377e-02 1.77944377e-02 0.
      0. 0. 0. 5.44894328e-06 9.26229954e-02 0. 1.21807672e-01
      1.21497780e-01 0. -9.64249447e-02 -9.64249447e-02 0.
      -2.49800156e-03 -2.50436575e-03 0. 9.26229954e-02 7.75902122e-02
      0. 1.09162880e-02 1.08887525e-02 0. -2.79545426e-01
      -2.79545426e-01 0. -8.44399929e-02 -8.46551061e-02 0.
      7.75902122e-02 1.47466168e-01 0. -6.77591516e-03 -6.75867172e-03
      0. -1.75953776e-01 -1.75953776e-01 0. 5.96038923e-02
      5.97561225e-02 0. 1.47466168e-01 6.40870705e-02 0. 0. 0. 0.
      5.19415326e-02 5.19415326e-02 0. 1.10669941e-01 1.10951960e-01 0.
      6.40870705e-02 1.27681787e-03 0. 0. 0. 0. 1.22117326e-02
      1.22117326e-02 0. 6.78597949e-03 6.80326810e-03 0. 1.27681787e-03
      -1.57741103e-02 0. 1.82900461e-03 1.82434975e-03 0.
      -1.49532799e-02 -1.49532799e-02 0. -4.36525326e-03 -4.37639048e-03
      0. -1.57741103e-02 -1.33575931e-01 0. 2.60485768e-01
      2.59822875e-01 0. 6.82375729e-02 6.82375729e-02 0. -1.67929456e-02
      -1.68357808e-02 0. -1.33575931e-01 1.77440852e-01 0.
      2.53323764e-01 2.52679527e-01 0. -7.81949535e-02 -7.81949535e-02
      0. 6.61096647e-02 6.62781000e-02 0. 1.77440852e-01 4.43078697e-01
      0. 4.82018515e-02 4.80795987e-02 0. -6.57032788e-01
      -6.57032788e-01 0. 9.86579619e-03 9.89104249e-03 0. 4.43078697e-01
      2.36505494e-01 0. -5.02563342e-02 -5.01284860e-02 0.
      -4.00093317e-01 -4.00093317e-01 0. 1.30035996e-01 1.30367994e-01
      0. 2.36505494e-01 3.57551612e-02 0. -2.82819401e-02
      -2.82099657e-02 0. 2.56347805e-01 2.56347805e-01 0. 1.94179714e-01
      1.94674760e-01 0. 3.57551612e-02 -1.51340263e-02 0. 0. 0. 0.
      6.85542077e-02 6.85542077e-02 0. 4.32953574e-02 4.34056707e-02 0.
      -1.51340263e-02 -4.55877073e-02 0. 6.25922857e-03 6.24329876e-03
      0. 1.42502710e-02 1.42502710e-02 0. -1.44575974e-02
      -1.44944852e-02 0. -4.55877073e-02 -4.36651915e-01 0.
      2.82578170e-01 2.81859577e-01 0. 2.86114901e-01 2.86114901e-01 0.
      -1.50644079e-01 -1.51028275e-01 0. -4.36651915e-01 -2.04760179e-01
      0. 2.86220223e-01 2.85492718e-01 0. -4.68032882e-02
      -4.68032882e-02 0. -7.62903914e-02 -7.64850304e-02 0.
      -2.04760179e-01 1.39321201e-02 0. -1.09496899e-01 -1.09218262e-01
      0. -5.18059015e-01 -5.18059015e-01 0. -1.71615891e-02
      -1.72052607e-02 0. 1.39321201e-02 -2.15385228e-01 0.
      -4.86676171e-02 -4.85439710e-02 0. -1.71944544e-01 -1.71944544e-01
      0. -4.90206741e-02 -4.91453633e-02 0. -2.15385228e-01
      -5.07513821e-01 0. 8.07098672e-02 8.05044994e-02 0. 3.95724028e-01
      3.95724028e-01 0. 4.73623211e-03 4.74875281e-03 0. -5.07513821e-01
      -1.05103068e-01 0. -1.05315922e-02 -1.05048195e-02 0.
      9.62676033e-02 9.62676033e-02 0. -4.95945811e-02 -4.97209318e-02
      0. -1.05103068e-01 -2.19032783e-02 0. -2.68991175e-03
      -2.68306630e-03 0. 1.47034340e-02 1.47034340e-02 0. 1.79119017e-02
      1.79575998e-02 0. -2.19032783e-02 -1.63649246e-01 0.
      3.74463038e-03 3.73514695e-03 0. 2.54551888e-01 2.54551888e-01 0.
      1.47220388e-01 1.47595793e-01 0. -1.63649246e-01 4.81360145e-02 0.
      1.71638224e-02 1.71201807e-02 0. -2.10185319e-01 -2.10185319e-01
      0. 1.73399597e-01 1.73840791e-01 0. 4.81360145e-02 2.15778843e-01
      0. 3.14805917e-02 3.14001404e-02 0. -5.24200439e-01
      -5.24200439e-01 0. -4.69002426e-02 -4.70200107e-02 0.
      2.15778843e-01 5.89333326e-02 0. 3.25237840e-01 3.24410081e-01 0.
      -2.52437666e-02 -2.52437666e-02 0. -2.37018205e-02 -2.37622187e-02
      0. 5.89333326e-02 -2.27123052e-01 0. 3.48949522e-01 3.48062158e-01
      0. 2.03778550e-01 2.03778550e-01 0. -2.12169942e-02
      -2.12710593e-02 0. -2.27123052e-01 -4.51954305e-02 0.
      2.30375715e-02 2.29790080e-02 0. -3.30701284e-02 -3.30701284e-02
      0. -1.42900338e-02 -1.43264411e-02 0. -4.51954305e-02
      -1.62788376e-03 0. 0. 0. 0. 1.99551438e-03 1.99551438e-03 0.
      5.06561249e-03 5.07853692e-03 0. -1.62788376e-03 3.31450105e-02 0.
      -1.91760827e-02 -1.91272832e-02 0. 1.96559858e-02 1.96559858e-02
      0. 1.30762398e-01 1.31096035e-01 0. 3.31450105e-02 1.56103641e-01
      0. -5.54419421e-02 -5.53008877e-02 0. -1.33960068e-01
      -1.33960068e-01 0. 1.08615138e-01 1.08891807e-01 0. 1.56103641e-01
      2.14409217e-01 0. -1.33654932e-02 -1.33316880e-02 0.
      -4.54767019e-01 -4.54767019e-01 0. -7.86323175e-02 -7.88332149e-02
      0. 2.14409217e-01 8.08609948e-02 0. 1.72493637e-01 1.72054827e-01
      0. -1.30693853e-01 -1.30693853e-01 0. -2.96438895e-02
      -2.97194459e-02 0. 8.08609948e-02 -3.60265821e-02 0.
      1.15045749e-01 1.14753284e-01 0. 6.44395053e-02 6.44395053e-02 0.
      0. 0. 0. -3.60265821e-02 -1.19760809e-02 0. -2.41339137e-03
      -2.40725628e-03 0. -1.77581358e-04 -1.77581358e-04 0. 0. 0. 0.
      -1.19760809e-02 0. 0. 0. 0. 0. 0. 0. 0. 0. 0. 0. 0.
      -6.12024404e-03 0. 0. 0. 0. -4.55370639e-03 -4.55370639e-03 0.
      7.72541855e-03 7.74512906e-03 0. -6.12024404e-03 7.42866145e-03 0.
      -8.03072751e-03 -8.01031291e-03 0. -6.80041127e-03 -6.80041127e-03
      0. 4.49478105e-02 4.50624935e-02 0. 7.42866145e-03 6.17090985e-02
      0. -1.68308448e-02 -1.67880598e-02 0. -1.28755299e-02
      -1.28755299e-02 0. 1.13837770e-03 1.14128250e-03 0. 6.17090985e-02
      5.62174954e-02 0. 4.34520207e-02 4.33415659e-02 0. -2.25594919e-03
      -2.25594919e-03 0. 0. 0. 0. 5.62174954e-02 5.82076050e-03 0.
      1.05994884e-02 1.05725443e-02 0. 6.31585764e-03 6.31585764e-03 0.
      0. 0. 0. 5.82076050e-03 0. 0. 0. 0. 0. 0. 0. 0. 0. 0. 0. 0.</_>
    <_>
      0. 0. 0. 0. 0. 0. 0. 0. 0. 0. 0. 0. 3.76253040e-04 0.
      4.93719781e-05 4.92463296e-05 0. 0. 0. 0. 0. 0. 0. 3.76253040e-04
      9.58283345e-05 0. 1.07841445e-02 1.07566994e-02 0. -1.13224303e-02
      -1.13224303e-02 0. 0. 0. 0. 9.58283345e-05 -1.71613792e-04 0.
      1.93335430e-03 1.92843471e-03 0. -2.11509429e-02 -2.11509429e-02
      0. -1.24821709e-02 -1.25139710e-02 0. -1.71613792e-04
      4.78350446e-02 0. -1.01704347e-04 -1.01445519e-04 0.
      -1.03224302e-02 -1.03224302e-02 0. 5.38533088e-03 5.39905205e-03
      0. 4.78350446e-02 1.00056818e-02 0. 0. 0. 0. 1.32948090e-03
      1.32948090e-03 0. 1.00613106e-02 1.00869443e-02 0. 1.00056818e-02
      0. 0. 0. 0. 0. 1.89925864e-04 1.89925864e-04 0. 0. 0. 0. 0. 0. 0.
      0. 0. 0. 3.48668400e-05 3.48668400e-05 0. 0. 0. 0. 0.
      3.88125167e-03 0. 2.19348017e-02 2.18789782e-02 0. 1.88581608e-02
      1.88581608e-02 0. 0. 0. 0. 3.88125167e-03 5.97294010e-02 0.
      1.32939994e-01 1.32601768e-01 0. -1.04217865e-01 -1.04217865e-01
      0. 0. 0. 0. 5.97294010e-02 1.37231424e-01 0. 9.06367600e-02
      9.04063210e-02 0. -3.29174161e-01 -3.29174161e-01 0.
      -1.55989844e-02 -1.56387072e-02 0. 1.37231424e-01 1.45896569e-01
      0. 3.41189257e-03 3.40321963e-03 0. -1.21686868e-01
      -1.21686868e-01 0. 9.58826169e-02 9.61272120e-02 0. 1.45896569e-01
      2.66310740e-02 0. 0. 0. 0. 4.70096506e-02 4.70096506e-02 0.
      8.10341313e-02 8.12406316e-02 0. 2.66310740e-02 2.45870033e-04 0.
      0. 0. 0. 9.28414334e-03 9.28414334e-03 0. 4.28893603e-03
      4.29986324e-03 0. 2.45870033e-04 6.28878188e-04 0. 2.11554929e-03
      2.11016531e-03 0. 4.14818851e-03 4.14818851e-03 0. 0. 0. 0.
      6.28878188e-04 1.83429495e-02 0. 1.20116562e-01 1.19810879e-01 0.
      7.73945153e-02 7.73945153e-02 0. 0. 0. 0. 1.83429495e-02
      9.02084708e-02 0. 1.75786957e-01 1.75339878e-01 0. -9.55452025e-02
      -9.55452025e-02 0. 4.37399708e-02 4.38513644e-02 0. 9.02084708e-02
      1.38841540e-01 0. 9.88346115e-02 9.85833630e-02 0. -3.68022054e-01
      -3.68022054e-01 0. -3.85889248e-03 -3.86877195e-03 0.
      1.38841540e-01 1.05721921e-01 0. 3.71013326e-03 3.70070175e-03 0.
      -1.26811683e-01 -1.26811683e-01 0. 8.28426555e-02 8.30541700e-02
      0. 1.05721921e-01 3.54426727e-02 0. 0. 0. 0. 2.24859431e-01
      2.24859431e-01 0. 8.47584531e-02 8.49745497e-02 0. 3.54426727e-02
      2.46909307e-03 0. 0. 0. 0. 4.61935513e-02 4.61935513e-02 0.
      1.23877069e-02 1.24192685e-02 0. 2.46909307e-03 8.98397411e-05 0.
      4.75122826e-03 4.73913644e-03 0. 2.46232115e-02 2.46232115e-02 0.
      3.36800033e-04 3.37659381e-04 0. 8.98397411e-05 1.49354702e-02 0.
      9.32053402e-02 9.29682478e-02 0. 2.21397400e-01 2.21397400e-01 0.
      1.51626933e-02 1.52013497e-02 0. 1.49354702e-02 1.73866525e-01 0.
      1.32761508e-01 1.32423967e-01 0. -4.73438650e-02 -4.73438650e-02
      0. -2.87727267e-03 -2.88475468e-03 0. 1.73866525e-01
      8.93871784e-02 0. 2.34771501e-02 2.34174784e-02 0. -3.46602917e-01
      -3.46602917e-01 0. -1.07899204e-01 -1.08174346e-01 0.
      8.93871784e-02 6.38357326e-02 0. 4.34302054e-02 4.33196723e-02 0.
      -1.46965116e-01 -1.46965116e-01 0. -4.68629710e-02 -4.69823219e-02
      0. 6.38357326e-02 2.50926223e-02 0. 5.46907969e-02 5.45516610e-02
      0. 2.85971075e-01 2.85971075e-01 0. 2.88569909e-02 2.89306082e-02
      0. 2.50926223e-02 1.41816807e-03 0. 4.74903919e-03 4.73696692e-03
      0. 7.70851523e-02 7.70851523e-02 0. 2.65152263e-03 2.65827798e-03
      0. 1.41816807e-03 0. 0. 0. 0. 0. 1.70944836e-02 1.70944836e-02 0.
      6.01969194e-03 6.03504991e-03 0. 0. 2.26915665e-02 0.
      3.20012565e-03 3.19199078e-03 0. 2.00563788e-01 2.00563788e-01 0.
      7.55552426e-02 7.57479370e-02 0. 2.26915665e-02 9.82746035e-02 0.
      1.52955130e-02 1.52566070e-02 0. 5.43897273e-03 5.43897273e-03 0.
      1.45482168e-01 1.45852745e-01 0. 9.82746035e-02 1.08433805e-01 0.
      3.23422067e-02 3.22598889e-02 0. -4.07225221e-01 -4.07225221e-01
      0. -5.48652485e-02 -5.50052002e-02 0. 1.08433805e-01
      9.18343887e-02 0. 2.17368156e-01 2.16815025e-01 0. -1.96131185e-01
      -1.96131185e-01 0. -2.85917614e-02 -2.86646038e-02 0.
      9.18343887e-02 3.31707411e-02 0. 1.78098500e-01 1.77645594e-01 0.
      1.79727361e-01 1.79727361e-01 0. 0. 0. 0. 3.31707411e-02
      5.05314162e-03 0. 1.47776566e-02 1.47400908e-02 0. 2.44808719e-02
      2.44808719e-02 0. 0. 0. 0. 5.05314162e-03 0. 0. 0. 0. 0.
      1.15823117e-03 1.15823117e-03 0. 7.87742320e-04 7.89752172e-04 0.
      0. 1.20048290e-02 0. 0. 0. 0. 4.35520075e-02 4.35520075e-02 0.
      8.04701969e-02 8.06755126e-02 0. 1.20048290e-02 9.26727578e-02 0.
      5.25137642e-04 5.23801253e-04 0. -6.09047264e-02 -6.09047264e-02
      0. 1.63458154e-01 1.63874865e-01 0. 9.26727578e-02 1.81106061e-01
      0. 5.31696454e-02 5.30343205e-02 0. -3.83891165e-01
      -3.83891165e-01 0. 4.85903136e-02 4.87140566e-02 0. 1.81106061e-01
      9.59301293e-02 0. 1.62759349e-01 1.62345335e-01 0. -1.78886428e-01
      -1.78886428e-01 0. -2.94225700e-02 -2.94975322e-02 0.
      9.59301293e-02 8.39215983e-03 0. 8.51133987e-02 8.48970264e-02 0.
      5.96976988e-02 5.96976988e-02 0. 0. 0. 0. 8.39215983e-03
      1.06857558e-04 0. 6.43725798e-05 6.42089290e-05 0. 1.50204264e-03
      1.50204264e-03 0. 0. 0. 0. 1.06857558e-04 0. 0. 0. 0. 0. 0. 0. 0.
      0. 0. 0. 0. 1.32689718e-03 0. 0. 0. 0. 1.94991590e-04
      1.94991590e-04 0. 9.49417613e-03 9.51839983e-03 0. 1.32689718e-03
      3.99825536e-02 0. 7.50196632e-05 7.48287493e-05 0. -1.76246613e-02
      -1.76246613e-02 0. 3.96980308e-02 3.97993140e-02 0. 3.99825536e-02
      2.16011088e-02 0. -7.26730656e-03 -7.24883564e-03 0.
      -5.71557209e-02 -5.71557209e-02 0. -1.71619672e-02 -1.72057543e-02
      0. 2.16011088e-02 2.32545249e-02 0. 2.19095759e-02 2.18538847e-02
      0. -4.07593437e-02 -4.07593437e-02 0. 0. 0. 0. 2.32545249e-02
      4.58116131e-03 0. 8.58492684e-03 8.56310409e-03 0. 4.80000908e-03
      4.80000908e-03 0. 0. 0. 0. 4.58116131e-03 0. 0. 0. 0. 0. 0. 0. 0.
      0. 0. 0. 0.</_>
    <_>
      -3.56034026e-03 0. -1.30072061e-03 -1.29741034e-03 0.
      -1.25075690e-03 -1.25075690e-03 0. 0. 0. 0. -3.56034026e-03
      -2.41250638e-02 0. -6.36082236e-03 -6.34463411e-03 0.
      -8.42464995e-03 -8.42464995e-03 0. -5.34670940e-03 -5.36033139e-03
      0. -2.41250638e-02 9.57296323e-03 0. 4.48012426e-02 4.46872264e-02
      0. -1.13993343e-02 -1.13993343e-02 0. -2.28764862e-02
      -2.29347665e-02 0. 9.57296323e-03 1.83795452e-01 0. 3.04488745e-02
      3.03713847e-02 0. -8.69872235e-03 -8.69872235e-03 0.
      -6.73418166e-03 -6.75133895e-03 0. 1.83795452e-01 1.45176128e-01
      0. -5.45306318e-03 -5.43918554e-03 0. -9.63053200e-03
      -9.63053200e-03 0. 3.66892070e-02 3.67826819e-02 0. 1.45176128e-01
      6.19624602e-03 0. -4.67491709e-03 -4.66301944e-03 0.
      -2.78477860e-03 -2.78477860e-03 0. 1.30777657e-02 1.31110866e-02
      0. 6.19624602e-03 -4.42111224e-04 0. 0. 0. 0. -9.00288578e-05
      -9.00288578e-05 0. -8.77375307e-04 -8.79610656e-04 0.
      -4.42111224e-04 -7.91630987e-03 0. -9.10504442e-03 -9.08187218e-03
      0. -5.55265360e-02 -5.55265360e-02 0. 0. 0. 0. -7.91630987e-03
      -3.58706787e-02 0. 5.34132794e-02 5.32773510e-02 0.
      -2.12386370e-01 -2.12386370e-01 0. -3.32789943e-02 -3.33637781e-02
      0. -3.58706787e-02 1.68992296e-01 0. 4.04266953e-01 4.03238475e-01
      0. -1.83475852e-01 -1.83475852e-01 0. -6.62038326e-02
      -6.63725063e-02 0. 1.68992296e-01 5.72894871e-01 0. 2.62855411e-01
      2.62187034e-01 0. -1.60137355e-01 -1.60137355e-01 0.
      6.21743686e-03 6.23337086e-03 0. 5.72894871e-01 3.61757845e-01 0.
      -4.37929295e-02 -4.36814427e-02 0. -1.84546247e-01 -1.84546247e-01
      0. 3.28913838e-01 3.29752773e-01 0. 3.61757845e-01 -4.37672669e-03
      0. -6.65814728e-02 -6.64120317e-02 0. -1.44153640e-01
      -1.44153640e-01 0. 1.52075559e-01 1.52463123e-01 0.
      -4.37672669e-03 -2.92493566e-03 0. -4.03710932e-04 -4.02684673e-04
      0. -2.26923078e-02 -2.26923078e-02 0. -2.09660213e-02
      -2.10194364e-02 0. -2.92493566e-03 4.34418092e-04 0.
      1.46138459e-03 1.45766546e-03 0. -1.13254696e-01 -1.13254696e-01
      0. 0. 0. 0. 4.34418092e-04 1.94506813e-02 0. 2.85851151e-01
      2.85123736e-01 0. -3.12024564e-01 -3.12024564e-01 0.
      4.40667337e-03 4.41791723e-03 0. 1.94506813e-02 1.21111460e-01 0.
